{"learner":{"attributes":{"scikit_learn":"{\"_estimator_type\": \"classifier\"}"},"feature_names":[],"feature_types":[],"gradient_booster":{"model":{"gbtree_model_param":{"num_parallel_tree":"1","num_trees":"700"},"iteration_indptr":[0,7,14,21,28,35,42,49,56,63,70,77,84,91,98,105,112,119,126,133,140,147,154,161,168,175,182,189,196,203,210,217,224,231,238,245,252,259,266,273,280,287,294,301,308,315,322,329,336,343,350,357,364,371,378,385,392,399,406,413,420,427,434,441,448,455,462,469,476,483,490,497,504,511,518,525,532,539,546,553,560,567,574,581,588,595,602,609,616,623,630,637,644,651,658,665,672,679,686,693,700],"tree_info":[0,1,2,3,4,5,6,0,1,2,3,4,5,6,0,1,2,3,4,5,6,0,1,2,3,4,5,6,0,1,2,3,4,5,6,0,1,2,3,4,5,6,0,1,2,3,4,5,6,0,1,2,3,4,5,6,0,1,2,3,4,5,6,0,1,2,3,4,5,6,0,1,2,3,4,5,6,0,1,2,3,4,5,6,0,1,2,3,4,5,6,0,1,2,3,4,5,6,0,1,2,3,4,5,6,0,1,2,3,4,5,6,0,1,2,3,4,5,6,0,1,2,3,4,5,6,0,1,2,3,4,5,6,0,1,2,3,4,5,6,0,1,2,3,4,5,6,0,1,2,3,4,5,6,0,1,2,3,4,5,6,0,1,2,3,4,5,6,0,1,2,3,4,5,6,0,1,2,3,4,5,6,0,1,2,3,4,5,6,0,1,2,3,4,5,6,0,1,2,3,4,5,6,0,1,2,3,4,5,6,0,1,2,3,4,5,6,0,1,2,3,4,5,6,0,1,2,3,4,5,6,0,1,2,3,4,5,6,0,1,2,3,4,5,6,0,1,2,3,4,5,6,0,1,2,3,4,5,6,0,1,2,3,4,5,6,0,1,2,3,4,5,6,0,1,2,3,4,5,6,0,1,2,3,4,5,6,0,1,2,3,4,5,6,0,1,2,3,4,5,6,0,1,2,3,4,5,6,0,1,2,3,4,5,6,0,1,2,3,4,5,6,0,1,2,3,4,5,6,0,1,2,3,4,5,6,0,1,2,3,4,5,6,0,1,2,3,4,5,6,0,1,2,3,4,5,6,0,1,2,3,4,5,6,0,1,2,3,4,5,6,0,1,2,3,4,5,6,0,1,2,3,4,5,6,0,1,2,3,4,5,6,0,1,2,3,4,5,6,0,1,2,3,4,5,6,0,1,2,3,4,5,6,0,1,2,3,4,5,6,0,1,2,3,4,5,6,0,1,2,3,4,5,6,0,1,2,3,4,5,6,0,1,2,3,4,5,6,0,1,2,3,4,5,6,0,1,2,3,4,5,6,0,1,2,3,4,5,6,0,1,2,3,4,5,6,0,1,2,3,4,5,6,0,1,2,3,4,5,6,0,1,2,3,4,5,6,0,1,2,3,4,5,6,0,1,2,3,4,5,6,0,1,2,3,4,5,6,0,1,2,3,4,5,6,0,1,2,3,4,5,6,0,1,2,3,4,5,6,0,1,2,3,4,5,6,0,1,2,3,4,5,6,0,1,2,3,4,5,6,0,1,2,3,4,5,6,0,1,2,3,4,5,6,0,1,2,3,4,5,6,0,1,2,3,4,5,6,0,1,2,3,4,5,6,0,1,2,3,4,5,6,0,1,2,3,4,5,6,0,1,2,3,4,5,6,0,1,2,3,4,5,6,0,1,2,3,4,5,6,0,1,2,3,4,5,6,0,1,2,3,4,5,6,0,1,2,3,4,5,6,0,1,2,3,4,5,6,0,1,2,3,4,5,6,0,1,2,3,4,5,6,0,1,2,3,4,5,6,0,1,2,3,4,5,6,0,1,2,3,4,5,6,0,1,2,3,4,5,6],"trees":[{"base_weights":[-5.614609E-1,-3.0058673E-1,-5.7244664E-1,-5.6335217E-1,8.773893E-2,-4.7831836E-1,-5.784886E-1,3.0656917E-2,-5.8193307E-2,-4.9329638E-1,1.0754005E0,1.8415666E-1,-5.257438E-1,-5.8328744E-2,-5.598964E-1,-3.7271214E-1,1.8421052E-1,-5.2195525E-1,-6.720001E-2,1.3152527E0,-4.791946E-1,-5.6777354E-2,1.0244948E0,2.1148019E-2,-5.533148E-1,-5.7146263E-1,-3.0392018E-1,-5.3049903E-2,5.7798166E-2,-5.4889865E-2,-8.860761E-3,9.032258E-2,-5.2078772E-2,9.07581E-2,2.8908107E-1,-5.4160584E-2,1.2844035E-2,2.0802377E-1,2.705649E-2,-4.0019717E-2,2.5548962E-1,-4.4751383E-2,-5.7848364E-2,-5.7766777E-2,-4.934104E-2,2.043593E-1,-5.7887346E-2],"categories":[],"categories_nodes":[],"categories_segments":[],"categories_sizes":[],"default_left":[0,0,0,0,0,0,0,0,0,0,0,0,0,0,0,0,0,0,0,0,0,0,0,0,0,0,0,0,0,0,0,0,0,0,0,0,0,0,0,0,0,0,0,0,0,0,0],"id":0,"left_children":[1,3,5,7,9,11,13,15,-1,17,19,21,23,-1,25,27,-1,29,31,33,35,-1,37,39,41,43,45,-1,-1,-1,-1,-1,-1,-1,-1,-1,-1,-1,-1,-1,-1,-1,-1,-1,-1,-1,-1],"loss_changes":[5.0743164E1,7.351927E1,9.417969E0,4.7591248E0,1.6778325E2,3.258252E1,1.1020508E0,1.0901214E1,0E0,2.2140732E0,4.0999474E1,4.469691E1,1.4564819E1,0E0,9.627075E0,2.146501E0,0E0,1.9646187E0,6.0848436E0,5.7792862E1,6.46152E-1,0E0,2.596362E1,5.150386E1,2.1879883E0,1.2484131E0,9.4932236E1,0E0,0E0,0E0,0E0,0E0,0E0,0E0,0E0,0E0,0E0,0E0,0E0,0E0,0E0,0E0,0E0,0E0,0E0,0E0,0E0],"parents":[2147483647,0,0,1,1,2,2,3,3,4,4,5,5,6,6,7,7,9,9,10,10,11,11,12,12,14,14,15,15,17,17,18,18,19,19,20,20,22,22,23,23,24,24,25,25,26,26],"right_children":[2,4,6,8,10,12,14,16,-1,18,20,22,24,-1,26,28,-1,30,32,34,36,-1,38,40,42,44,46,-1,-1,-1,-1,-1,-1,-1,-1,-1,-1,-1,-1,-1,-1,-1,-1,-1,-1,-1,-1],"split_conditions":[-5.469276E-1,-3.8252196E-1,-4.666908E-1,-8.893096E-1,-1.239855E0,-1.239855E0,1.2139628E0,1E0,-5.8193307E-2,1E0,4.2301884E-1,-5.303448E-1,-5.4497665E-1,-5.8328744E-2,6.4843553E-1,1.3744682E0,1.8421052E-1,1E0,1.0215644E-1,-3.9894152E-1,1.1307051E0,-5.6777354E-2,-5.2351654E-1,5.12872E-1,-8.5901856E-1,1E0,-4.4065744E-1,-5.3049903E-2,5.7798166E-2,-5.4889865E-2,-8.860761E-3,9.032258E-2,-5.2078772E-2,9.07581E-2,2.8908107E-1,-5.4160584E-2,1.2844035E-2,2.0802377E-1,2.705649E-2,-4.0019717E-2,2.5548962E-1,-4.4751383E-2,-5.7848364E-2,-5.7766777E-2,-4.934104E-2,2.043593E-1,-5.7887346E-2],"split_indices":[13,17,12,8,8,8,8,30,0,22,1,13,13,0,1,0,0,20,17,1,6,0,13,8,4,27,12,0,0,0,0,0,0,0,0,0,0,0,0,0,0,0,0,0,0,0,0],"split_type":[0,0,0,0,0,0,0,0,0,0,0,0,0,0,0,0,0,0,0,0,0,0,0,0,0,0,0,0,0,0,0,0,0,0,0,0,0,0,0,0,0,0,0,0,0,0,0],"sum_hessian":[1.7764898E4,7.1902045E2,1.7045879E4,4.2857147E2,2.90449E2,1.0329796E3,1.6012899E4,1.2979592E1,4.1559186E2,1.8318369E2,1.0726531E2,6.881633E1,9.641633E2,1.2703593E4,3.3093064E3,1.1265306E1,1.7142859E0,1.7142859E2,1.1755103E1,9.306123E1,1.42040825E1,3.64898E1,3.2326534E1,4.6285717E1,9.178776E2,3.1650615E3,1.442449E2,1.0040817E1,1.2244899E0,1.6114287E2,1.0285715E1,3.4285717E0,8.326531E0,7.518368E1,1.7877552E1,1.2979592E1,1.2244899E0,1.27346945E1,1.9591839E1,4.0408165E1,5.8775516E0,1.8000002E2,7.378776E2,2.926041E3,2.3902043E2,1.444898E1,1.2979593E2],"tree_param":{"num_deleted":"0","num_feature":"33","num_nodes":"47","size_leaf_vector":"1"}},{"base_weights":[-5.106332E-1,1.4523396E-1,-5.383055E-1,5.7314634E-1,-2.3220277E-1,-3.1436464E-1,-5.5767256E-1,3.2410717E-1,1.7373493E0,-3.4666282E-1,1.0740982E0,1.0760257E0,-4.22044E-1,-5.7846004E-1,-4.7817862E-1,5.980055E-1,-2.033072E-1,-5.6852806E-2,2.5916708E0,-4.6847126E-1,1.1445874E0,1.4021994E0,-4.883721E-2,1.745396E0,-5.6333102E-2,-2.8954172E-1,-5.442967E-1,-5.81966E-2,-5.569734E-1,-2.3017594E-1,-5.512969E-1,-2.6404714E-2,9.295451E-2,-3.6725964E-2,2.0676923E-1,9.0257876E-2,-5.4160584E-2,2.88784E-1,-4.516129E-2,1.3916914E-1,-5.0682753E-2,1.5761589E-1,-4.9201276E-2,2.1051095E-1,5.384615E-2,2.1818812E-1,-5.3480476E-2,6.762158E-2,-3.40204E-2,-5.598528E-2,-2.5506074E-2,-2.3794467E-2,-5.8175724E-2,5.8797043E-2,-5.5777427E-2,-3.512226E-2,-5.8033414E-2],"categories":[],"categories_nodes":[],"categories_segments":[],"categories_sizes":[],"default_left":[0,0,0,0,0,0,0,0,0,0,0,0,0,0,0,0,0,0,0,0,0,0,0,0,0,0,0,0,0,0,0,0,0,0,0,0,0,0,0,0,0,0,0,0,0,0,0,0,0,0,0,0,0,0,0,0,0],"id":1,"left_children":[1,3,5,7,9,11,13,15,17,19,21,23,25,27,29,31,33,35,37,39,41,43,-1,45,-1,47,49,-1,51,53,55,-1,-1,-1,-1,-1,-1,-1,-1,-1,-1,-1,-1,-1,-1,-1,-1,-1,-1,-1,-1,-1,-1,-1,-1,-1,-1],"loss_changes":[3.2251807E2,1.1642349E2,7.37583E1,9.7357056E1,5.7680954E1,2.039492E2,2.5648926E1,4.0490192E1,9.102199E1,6.468721E1,1.6639664E1,1.0849984E2,2.0288895E1,6.123047E-1,5.895038E1,5.2885986E1,3.660241E1,9.838047E0,3.7522827E1,2.4051018E1,1.9817032E1,1.4639477E1,0E0,7.065323E1,0E0,2.9970966E1,2.805954E0,0E0,1.3834412E1,1.9961154E2,1.4409363E1,0E0,0E0,0E0,0E0,0E0,0E0,0E0,0E0,0E0,0E0,0E0,0E0,0E0,0E0,0E0,0E0,0E0,0E0,0E0,0E0,0E0,0E0,0E0,0E0,0E0,0E0],"parents":[2147483647,0,0,1,1,2,2,3,3,4,4,5,5,6,6,7,7,8,8,9,9,10,10,11,11,12,12,13,13,14,14,15,15,16,16,17,17,18,18,19,19,20,20,21,21,23,23,25,25,26,26,28,28,29,29,30,30],"right_children":[2,4,6,8,10,12,14,16,18,20,22,24,26,28,30,32,34,36,38,40,42,44,-1,46,-1,48,50,-1,52,54,56,-1,-1,-1,-1,-1,-1,-1,-1,-1,-1,-1,-1,-1,-1,-1,-1,-1,-1,-1,-1,-1,-1,-1,-1,-1,-1],"split_conditions":[-5.469276E-1,-5.3876424E-1,-4.6545112E-1,-8.893096E-1,1E0,-1.239855E0,1.2139628E0,-1.239855E0,-9.551087E-1,1E0,-1.8821882E-1,-4.666908E-1,1.9137539E-1,8.634174E-1,-4.443765E-1,-2.022065E0,1E0,-7.201145E-2,1E0,9.282763E-3,-1.8821882E-1,1.3058128E0,-4.883721E-2,-5.1961476E-1,-5.6333102E-2,-5.459521E-1,1.6232659E-1,-5.81966E-2,-3.216477E-1,1.5645082E0,-3.255812E-1,-2.6404714E-2,9.295451E-2,-3.6725964E-2,2.0676923E-1,9.0257876E-2,-5.4160584E-2,2.88784E-1,-4.516129E-2,1.3916914E-1,-5.0682753E-2,1.5761589E-1,-4.9201276E-2,2.1051095E-1,5.384615E-2,2.1818812E-1,-5.3480476E-2,6.762158E-2,-3.40204E-2,-5.598528E-2,-2.5506074E-2,-2.3794467E-2,-5.8175724E-2,5.8797043E-2,-5.5777427E-2,-3.512226E-2,-5.8033414E-2],"split_indices":[13,8,12,8,22,8,8,8,17,23,8,12,1,8,12,1,23,5,30,2,8,6,0,13,0,13,8,0,12,8,17,0,0,0,0,0,0,0,0,0,0,0,0,0,0,0,0,0,0,0,0,0,0,0,0,0,0],"split_type":[0,0,0,0,0,0,0,0,0,0,0,0,0,0,0,0,0,0,0,0,0,0,0,0,0,0,0,0,0,0,0,0,0,0,0,0,0,0,0,0,0,0,0,0,0,0,0,0,0,0,0,0,0,0,0,0,0],"sum_hessian":[1.7764898E4,7.1902045E2,1.7045879E4,3.367347E2,3.8228574E2,1.3582042E3,1.5687675E4,2.78449E2,5.8285717E1,3.521633E2,3.0122452E1,9.69796E1,1.2612246E3,1.2430776E4,3.2568982E3,1.8318369E2,9.526531E1,1.9102041E1,3.9183678E1,3.262041E2,2.5959185E1,2.4979593E1,5.1428576E0,6.881633E1,2.8163267E1,6.068572E2,6.543674E2,1.0664572E4,1.7662042E3,7.4253064E2,2.5143674E3,5.0938778E1,1.322449E2,8.963266E1,5.632653E0,6.1224494E0,1.2979592E1,3.5755104E1,3.4285717E0,5.8775516E0,3.2032654E2,2.057143E1,5.3877554E0,1.2979592E1,1.2000001E1,5.779592E1,1.1020409E1,2.9632656E1,5.7722455E2,6.2008167E2,3.4285717E1,1.2808163E2,1.6381226E3,2.1208165E2,5.3044904E2,3.2032654E2,2.194041E3],"tree_param":{"num_deleted":"0","num_feature":"33","num_nodes":"57","size_leaf_vector":"1"}},{"base_weights":[-2.3403586E-1,9.58439E-1,-3.3280554E-1,1.367758E0,7.887365E-1,-4.8515815E-1,-1.3566875E-1,1.769383E0,4.234111E-1,1.2644786E0,5.5162257E-1,1.8839432E-1,-5.356446E-1,9.39878E-1,-4.7186977E-1,1.9171749E0,6.889924E-1,1.10448316E-1,2.6504853E0,1.471698E0,2.543119E-1,8.116751E-2,8.577552E-1,7.675185E-2,3.1387682E0,-3.2224488E-1,-5.745986E-1,1.9460989E0,-2.566453E-1,-2.1317238E-1,-5.805755E-1,2.802897E-1,1.7380218E-1,1.3643485E-1,-2.818792E-2,1.8380743E-1,-5.554397E-3,3.1829944E-1,8.253275E-2,1.0127746E-1,3.2006663E-1,-1.8367348E-2,3.0402145E-1,-6.5747537E-3,1.873551E-1,1.010131E-1,1.3441652E-2,7.4172184E-2,-1.7109927E-2,3.3430922E-1,-3.211009E-2,-4.0241733E-2,1.44359935E-2,-4.743951E-2,-5.8076747E-2,2.2753441E-1,1.15088545E-1,1.3204403E-1,-4.082815E-2,-3.1385493E-2,9.872819E-2,-5.0779313E-2,-5.831756E-2],"categories":[],"categories_nodes":[],"categories_segments":[],"categories_sizes":[],"default_left":[0,0,0,0,0,0,0,0,0,0,0,0,0,0,0,0,0,0,0,0,0,0,0,0,0,0,0,0,0,0,0,0,0,0,0,0,0,0,0,0,0,0,0,0,0,0,0,0,0,0,0,0,0,0,0,0,0,0,0,0,0,0,0],"id":2,"left_children":[1,3,5,7,9,11,13,15,17,19,21,23,25,27,29,31,33,35,37,39,41,43,45,47,49,51,53,55,57,59,61,-1,-1,-1,-1,-1,-1,-1,-1,-1,-1,-1,-1,-1,-1,-1,-1,-1,-1,-1,-1,-1,-1,-1,-1,-1,-1,-1,-1,-1,-1,-1,-1],"loss_changes":[2.0927927E3,9.333484E1,4.927279E2,1.4982239E2,1.0795679E2,3.1481006E2,2.587322E3,4.3104004E1,8.318976E1,6.652893E1,9.276553E1,2.125633E2,7.138501E1,2.0520837E3,1.5316748E2,3.387555E1,2.3360289E1,3.0517548E1,1.1673981E1,2.0702643E2,6.841561E1,6.732559E1,4.2892487E1,1.028932E2,1.7708069E1,4.9859955E1,4.224121E0,2.3975684E2,1.8690002E2,1.954325E2,4.300537E-1,0E0,0E0,0E0,0E0,0E0,0E0,0E0,0E0,0E0,0E0,0E0,0E0,0E0,0E0,0E0,0E0,0E0,0E0,0E0,0E0,0E0,0E0,0E0,0E0,0E0,0E0,0E0,0E0,0E0,0E0,0E0,0E0],"parents":[2147483647,0,0,1,1,2,2,3,3,4,4,5,5,6,6,7,7,8,8,9,9,10,10,11,11,12,12,13,13,14,14,15,15,16,16,17,17,18,18,19,19,20,20,21,21,22,22,23,23,24,24,25,25,26,26,27,27,28,28,29,29,30,30],"right_children":[2,4,6,8,10,12,14,16,18,20,22,24,26,28,30,32,34,36,38,40,42,44,46,48,50,52,54,56,58,60,62,-1,-1,-1,-1,-1,-1,-1,-1,-1,-1,-1,-1,-1,-1,-1,-1,-1,-1,-1,-1,-1,-1,-1,-1,-1,-1,-1,-1,-1,-1,-1,-1],"split_conditions":[-5.4400116E-1,-8.6195195E-1,5.12872E-1,-4.666908E-1,-1.239855E0,-4.666908E-1,-3.050141E-1,1E0,1E0,-5.4497665E-1,-5.3876424E-1,1.6232659E-1,-5.303448E-1,1.5645082E0,-1.0594256E-1,-5.3876424E-1,9.343548E-1,2.4650057E-1,-1.8821882E-1,-4.6545112E-1,1E0,1E0,1.6232659E-1,-1.0076798E0,-5.1766384E-1,1.6232659E-1,-5.2546746E-1,1.2139628E0,-5.381484E-1,9.44513E-2,-7.247106E-2,2.802897E-1,1.7380218E-1,1.3643485E-1,-2.818792E-2,1.8380743E-1,-5.554397E-3,3.1829944E-1,8.253275E-2,1.0127746E-1,3.2006663E-1,-1.8367348E-2,3.0402145E-1,-6.5747537E-3,1.873551E-1,1.010131E-1,1.3441652E-2,7.4172184E-2,-1.7109927E-2,3.3430922E-1,-3.211009E-2,-4.0241733E-2,1.44359935E-2,-4.743951E-2,-5.8076747E-2,2.2753441E-1,1.15088545E-1,1.3204403E-1,-4.082815E-2,-3.1385493E-2,9.872819E-2,-5.0779313E-2,-5.831756E-2],"split_indices":[13,17,8,12,8,12,13,27,23,13,8,8,13,8,12,8,2,2,8,12,23,32,8,17,13,8,13,8,13,6,12,0,0,0,0,0,0,0,0,0,0,0,0,0,0,0,0,0,0,0,0,0,0,0,0,0,0,0,0,0,0,0,0],"split_type":[0,0,0,0,0,0,0,0,0,0,0,0,0,0,0,0,0,0,0,0,0,0,0,0,0,0,0,0,0,0,0,0,0,0,0,0,0,0,0,0,0,0,0,0,0,0,0,0,0,0,0,0,0,0,0,0,0,0,0,0,0,0,0],"sum_hessian":[1.7764898E4,1.3582042E3,1.6406695E4,3.9600003E2,9.6220416E2,9.253715E3,7.15298E3,2.7722452E2,1.1877552E2,3.1861227E2,6.4359186E2,6.450613E2,8.608653E3,1.7030205E3,5.4499595E3,2.4318369E2,3.4040817E1,1.0506123E2,1.3714287E1,2.6400003E2,5.4612247E1,2.542041E2,3.893878E2,6.2253064E2,2.2530613E1,1.3302858E3,7.2783677E3,9.2473474E2,7.7828577E2,1.6133878E3,3.8365718E3,3.8448982E1,2.0473471E2,1.9836737E1,1.42040825E1,8.326531E0,9.67347E1,1.0040817E1,3.6734695E0,2.0987756E2,5.412245E1,4.8000004E1,6.6122456E0,2.3583675E2,1.8367348E1,3.2130615E2,6.8081635E1,1.684898E2,4.5404086E2,2.1306124E1,1.2244899E0,1.135347E3,1.9493878E2,4.2661227E2,6.8517554E3,6.5265314E2,2.7208167E2,6.759184E1,7.106939E2,1.4892246E3,1.2416328E2,1.3910205E2,3.6974697E3],"tree_param":{"num_deleted":"0","num_feature":"33","num_nodes":"63","size_leaf_vector":"1"}},{"base_weights":[2.0417848E0,2.2079973E0,-2.5305507E-1,1.3489935E0,2.3093696E0,-3.8136902E-1,1.5527728E0,9.335079E-1,1.7597057E0,2.8410373E0,2.0141003E0,2.5713286E-1,-5.4893136E-1,3.0230873E0,-3.434113E-1,6.551312E-1,1.7408761E0,-5.7315767E-2,1.9200405E0,1.4770641E0,2.9212897E0,9.7049904E-1,2.3902543E0,1.1758042E-1,1.8630886E0,-5.8259267E-2,-2.8463227E-1,3.4001163E-1,1.5526801E0,-5.6543518E-2,1.4682926E0,2.0886262E-1,4.8396815E-2,8.923806E-2,2.1057956E-1,2.3752096E-1,1.4832713E-1,3.994292E-3,1.9267276E-1,3.0273938E-1,1.7536712E-1,1.5952913E-1,-4.064948E-2,2.6796648E-1,2.0384943E-1,-3.4569732E-3,1.3950399E-1,3.202773E-1,-3.818182E-2,2.3841584E-1,-5.7706643E-2,-3.6842104E-2,1.9452953E-1,1.2844035E-2,1.9793104E-1],"categories":[],"categories_nodes":[],"categories_segments":[],"categories_sizes":[],"default_left":[0,0,0,0,0,0,0,0,0,0,0,0,0,0,0,0,0,0,0,0,0,0,0,0,0,0,0,0,0,0,0,0,0,0,0,0,0,0,0,0,0,0,0,0,0,0,0,0,0,0,0,0,0,0,0],"id":3,"left_children":[1,3,5,7,9,11,13,15,17,19,21,23,25,27,29,31,33,-1,35,37,39,41,43,45,47,-1,49,-1,51,-1,53,-1,-1,-1,-1,-1,-1,-1,-1,-1,-1,-1,-1,-1,-1,-1,-1,-1,-1,-1,-1,-1,-1,-1,-1],"loss_changes":[6.777008E3,1.4394531E3,2.788227E2,2.9716333E2,2.3201953E3,1.2017174E2,2.2367886E2,1.9497662E2,3.3004932E2,5.745039E2,3.7384258E3,5.2200985E1,7.7433167E0,1.9713318E1,1.5220621E1,1.585893E2,6.720691E1,0E0,1.6011646E2,1.9111206E2,6.132656E2,2.1741887E3,7.075508E2,4.208278E1,5.7259964E1,0E0,8.128389E1,0E0,9.044258E0,0E0,2.6102886E0,0E0,0E0,0E0,0E0,0E0,0E0,0E0,0E0,0E0,0E0,0E0,0E0,0E0,0E0,0E0,0E0,0E0,0E0,0E0,0E0,0E0,0E0,0E0,0E0],"parents":[2147483647,0,0,1,1,2,2,3,3,4,4,5,5,6,6,7,7,8,8,9,9,10,10,11,11,12,12,13,13,14,14,15,15,16,16,18,18,19,19,20,20,21,21,22,22,23,23,24,24,26,26,28,28,30,30],"right_children":[2,4,6,8,10,12,14,16,18,20,22,24,26,28,30,32,34,-1,36,38,40,42,44,46,48,-1,50,-1,52,-1,54,-1,-1,-1,-1,-1,-1,-1,-1,-1,-1,-1,-1,-1,-1,-1,-1,-1,-1,-1,-1,-1,-1,-1,-1],"split_conditions":[1.4673918E0,-4.666908E-1,1.5645082E0,-5.4302573E-1,-4.8254734E-1,1.7697837E0,-2.3319678E-1,8.9054006E-1,-1.239855E0,-5.4497665E-1,-1.8821882E-1,1E0,1E0,-1.2701719E-1,2.900339E0,-1.954975E0,-8.6195195E-1,-5.7315767E-2,-5.0790924E-1,-1.3617531E0,5.12872E-1,-2.9685402E-1,2.609824E-1,1E0,2.2184184E0,-5.8259267E-2,2.0185254E0,3.4001163E-1,2.900339E0,-5.6543518E-2,-2.0778069E-1,2.0886262E-1,4.8396815E-2,8.923806E-2,2.1057956E-1,2.3752096E-1,1.4832713E-1,3.994292E-3,1.9267276E-1,3.0273938E-1,1.7536712E-1,1.5952913E-1,-4.064948E-2,2.6796648E-1,2.0384943E-1,-3.4569732E-3,1.3950399E-1,3.202773E-1,-3.818182E-2,2.3841584E-1,-5.7706643E-2,-3.6842104E-2,1.9452953E-1,1.2844035E-2,1.9793104E-1],"split_indices":[13,12,8,13,13,13,11,1,8,13,8,31,31,12,13,2,17,0,13,2,8,12,14,28,11,0,13,0,13,0,4,0,0,0,0,0,0,0,0,0,0,0,0,0,0,0,0,0,0,0,0,0,0,0,0],"split_type":[0,0,0,0,0,0,0,0,0,0,0,0,0,0,0,0,0,0,0,0,0,0,0,0,0,0,0,0,0,0,0,0,0,0,0,0,0,0,0,0,0,0,0,0,0,0,0,0,0,0,0,0,0,0,0],"sum_hessian":[1.7764898E4,1.6565145E4,1.1997551E3,1.7500409E3,1.4815104E4,1.1208981E3,7.885715E1,8.715919E2,8.7844904E2,5.2868574E3,9.528245E3,2.3289798E2,8.8800006E2,4.4081635E1,3.4775513E1,6.494694E2,2.2212247E2,5.6326534E1,8.221225E2,2.9485718E2,4.9920005E3,2.525388E3,7.0028574E3,2.1526532E2,1.7632654E1,7.866123E2,1.01387764E2,3.4040817E1,1.0040817E1,3.1591839E1,3.1836736E0,6.8081635E1,5.813878E2,6.783674E1,1.5428572E2,4.004082E2,4.2171432E2,7.053062E1,2.2432655E2,4.5746943E3,4.1730615E2,1.7370614E3,7.883266E2,3.838286E3,3.1645715E3,1.932245E2,2.2040817E1,1.0775511E1,6.8571434E0,9.306123E0,9.208164E1,1.7142859E0,8.326531E0,1.2244899E0,1.9591838E0],"tree_param":{"num_deleted":"0","num_feature":"33","num_nodes":"55","size_leaf_vector":"1"}},{"base_weights":[-2.9486684E-2,-3.6361423E-1,2.6343346E-1,-4.7683483E-1,-6.0370483E-2,9.592271E-1,5.368346E-2,-5.0789624E-1,-3.2900122E-1,1.2159545E0,-1.1115392E-1,1.0899161E0,-5.458976E-1,-1.7121737E-1,8.6926615E-1,-3.8765553E-1,-5.2375615E-1,3.4450257E-1,-4.2887992E-1,2.4201374E0,-4.5945945E-1,1.3480806E0,-1.3247445E-1,1.5323788E0,7.618888E-1,-5.794796E-2,-3.2506004E-1,-3.9789987E-1,3.246791E-2,1.3399501E0,-2.4627876E-1,2.0335194E-2,-5.5154156E-2,-5.772792E-2,-4.7578588E-2,1.4241263E-1,-1.44671695E-2,-4.736613E-2,9.136349E-3,1.4217898E-1,3.361358E-1,-5.3907584E-2,1.0275229E-1,3.2176694E-1,-5.4782607E-2,-1.9530697E-2,3.0354306E-2,1.0469418E-1,2.3470402E-1,9.1420956E-2,-1.5766155E-2,-5.5282813E-2,3.1024927E-2,-1.5376841E-2,-5.055958E-2,-9.393285E-3,1.5868014E-1,1.8755147E-1,2.6415093E-2,1.0080723E-1,-4.4126682E-2],"categories":[],"categories_nodes":[],"categories_segments":[],"categories_sizes":[],"default_left":[0,0,0,0,0,0,0,0,0,0,0,0,0,0,0,0,0,0,0,0,0,0,0,0,0,0,0,0,0,0,0,0,0,0,0,0,0,0,0,0,0,0,0,0,0,0,0,0,0,0,0,0,0,0,0,0,0,0,0,0,0],"id":4,"left_children":[1,3,5,7,9,11,13,15,17,19,21,23,25,27,29,31,33,35,37,39,41,43,45,47,49,-1,51,53,55,57,59,-1,-1,-1,-1,-1,-1,-1,-1,-1,-1,-1,-1,-1,-1,-1,-1,-1,-1,-1,-1,-1,-1,-1,-1,-1,-1,-1,-1,-1,-1],"loss_changes":[1.7388921E3,2.8492554E2,1.3816296E3,2.7582397E1,1.4645705E2,4.3193335E2,1.3346499E3,9.316895E0,7.0921295E1,1.7556439E2,6.775371E1,2.9172168E2,1.115818E0,2.6336322E2,8.2613513E2,5.682937E1,1.1041504E1,7.225726E1,2.13992E1,4.2645172E1,4.9342756E0,1.12946365E2,5.8732197E1,3.3691003E2,1.6273853E2,0E0,3.8599703E0,7.0898224E1,5.9057025E2,6.368668E2,1.1479509E2,0E0,0E0,0E0,0E0,0E0,0E0,0E0,0E0,0E0,0E0,0E0,0E0,0E0,0E0,0E0,0E0,0E0,0E0,0E0,0E0,0E0,0E0,0E0,0E0,0E0,0E0,0E0,0E0,0E0,0E0],"parents":[2147483647,0,0,1,1,2,2,3,3,4,4,5,5,6,6,7,7,8,8,9,9,10,10,11,11,12,12,13,13,14,14,15,15,16,16,17,17,18,18,19,19,20,20,21,21,22,22,23,23,24,24,26,26,27,27,28,28,29,29,30,30],"right_children":[2,4,6,8,10,12,14,16,18,20,22,24,26,28,30,32,34,36,38,40,42,44,46,48,50,-1,52,54,56,58,60,-1,-1,-1,-1,-1,-1,-1,-1,-1,-1,-1,-1,-1,-1,-1,-1,-1,-1,-1,-1,-1,-1,-1,-1,-1,-1,-1,-1,-1,-1],"split_conditions":[-4.0842563E-1,-4.9230194E-1,-1.8821882E-1,-5.118111E-1,-1.239855E0,-1.840574E-1,1.1201292E0,5.423184E-1,-4.6545112E-1,-4.456162E-1,-4.9132648E-1,2.609824E-1,1E0,-1.3333361E-1,2.900339E0,-1.239855E0,2.9486796E-1,-5.069338E-1,1.4531149E-1,-3.0208772E-1,6.627331E-2,-3.700588E-1,2.8443879E-2,-3.64517E-1,-2.4509783E-1,-5.794796E-2,-1.3352332E-2,-2.77954E-1,1.5645082E0,1.2139628E0,6.48075E-2,2.0335194E-2,-5.5154156E-2,-5.772792E-2,-4.7578588E-2,1.4241263E-1,-1.44671695E-2,-4.736613E-2,9.136349E-3,1.4217898E-1,3.361358E-1,-5.3907584E-2,1.0275229E-1,3.2176694E-1,-5.4782607E-2,-1.9530697E-2,3.0354306E-2,1.0469418E-1,2.3470402E-1,9.1420956E-2,-1.5766155E-2,-5.5282813E-2,3.1024927E-2,-1.5376841E-2,-5.055958E-2,-9.393285E-3,1.5868014E-1,1.8755147E-1,2.6415093E-2,1.0080723E-1,-4.4126682E-2],"split_indices":[12,13,8,13,8,13,13,14,12,12,13,14,22,13,13,8,1,13,17,13,3,11,17,13,11,0,13,17,8,8,17,0,0,0,0,0,0,0,0,0,0,0,0,0,0,0,0,0,0,0,0,0,0,0,0,0,0,0,0,0,0],"split_type":[0,0,0,0,0,0,0,0,0,0,0,0,0,0,0,0,0,0,0,0,0,0,0,0,0,0,0,0,0,0,0,0,0,0,0,0,0,0,0,0,0,0,0,0,0,0,0,0,0,0,0,0,0,0,0,0,0,0,0,0,0],"sum_hessian":[1.7764898E4,8.298613E3,9.466286E3,6.042123E3,2.25649E3,2.191837E3,7.2744497E3,4.991021E3,1.0511022E3,8.546939E1,2.1710205E3,2.0169797E3,1.7485716E2,5.7026943E3,1.5717552E3,5.845715E2,4.406449E3,1.3542857E2,9.156735E2,4.946939E1,3.6000004E1,3.036735E1,2.1406533E3,8.5714294E2,1.1598368E3,1.5036736E2,2.4489798E1,2.6985308E3,3.0041636E3,1.1052246E3,4.6653064E2,1.26857155E2,4.5771432E2,2.0774695E3,2.3289797E3,4.1632656E1,9.379592E1,8.431837E2,7.24898E1,2.5224491E1,2.42449E1,3.4775513E1,1.2244899E0,1.4938777E1,1.5428573E1,1.8715104E3,2.6914288E2,5.3853064E2,3.1861227E2,9.950205E2,1.6481635E2,1.812245E1,6.3673472E0,8.267756E2,1.8717552E3,2.7791023E3,2.2506123E2,7.373878E2,3.6783676E2,6.2204086E1,4.0432657E2],"tree_param":{"num_deleted":"0","num_feature":"33","num_nodes":"61","size_leaf_vector":"1"}},{"base_weights":[-2.9409474E-1,-4.973109E-1,-9.327367E-2,-3.9932838E-1,-5.466161E-1,1.2291982E0,-3.523157E-1,-5.421332E-1,-3.0457446E-1,-5.583849E-1,-3.3909413E-1,6.743057E-1,2.2646646E0,-4.304817E-1,1.5375356E-1,-5.453993E-1,3.485477E-1,-3.721863E-1,-1.3547124E-1,-5.705299E-1,-3.790846E-1,-1.4392209E-1,-5.592709E-1,-6.640379E-2,1.6709449E0,1.0485033E0,2.848041E0,3.0509213E-1,-4.5794925E-1,1.141965E0,-2.3818602E-1,-5.7071235E-2,-4.809354E-2,-4.2541437E-2,1.4770642E-1,-3.9762527E-2,2.915414E-2,1.5560655E-1,-2.4480518E-2,-3.9826423E-2,-5.7399523E-2,2.1319795E-1,-5.2806944E-2,-2.4362791E-2,1.076923E-1,-5.7937056E-2,7.368421E-2,-3.5301503E-2,1.6636197E-1,1.2818998E-1,2.700645E-1,-3.5437003E-2,2.6489946E-1,2.0545569E-1,3.144345E-1,-5.7985645E-2,2.520598E-1,-2.3099964E-2,-5.6083973E-2,1.0300516E-2,1.6833024E-1,-3.495925E-2,8.000585E-2],"categories":[],"categories_nodes":[],"categories_segments":[],"categories_sizes":[],"default_left":[0,0,0,0,0,0,0,0,0,0,0,0,0,0,0,0,0,0,0,0,0,0,0,0,0,0,0,0,0,0,0,0,0,0,0,0,0,0,0,0,0,0,0,0,0,0,0,0,0,0,0,0,0,0,0,0,0,0,0,0,0,0,0],"id":5,"left_children":[1,3,5,7,9,11,13,15,17,19,21,23,25,27,29,31,33,35,37,39,41,43,45,47,49,51,53,55,57,59,61,-1,-1,-1,-1,-1,-1,-1,-1,-1,-1,-1,-1,-1,-1,-1,-1,-1,-1,-1,-1,-1,-1,-1,-1,-1,-1,-1,-1,-1,-1,-1,-1],"loss_changes":[7.2498157E2,4.243994E1,3.0619773E3,3.9882324E1,1.4150269E1,8.3965894E2,2.9571112E2,3.620453E0,2.0317093E1,1.1880005E1,1.3569805E1,7.048401E2,3.5912378E2,1.3094604E2,3.8785205E2,1.6433411E0,4.924209E0,2.1593414E1,9.477326E1,2.8756104E0,1.340725E2,2.0923382E1,4.3064423E0,2.7260333E2,1.5959851E2,3.7599326E2,7.450049E1,4.595638E2,1.4561523E2,1.5975116E2,8.325081E1,0E0,0E0,0E0,0E0,0E0,0E0,0E0,0E0,0E0,0E0,0E0,0E0,0E0,0E0,0E0,0E0,0E0,0E0,0E0,0E0,0E0,0E0,0E0,0E0,0E0,0E0,0E0,0E0,0E0,0E0,0E0,0E0],"parents":[2147483647,0,0,1,1,2,2,3,3,4,4,5,5,6,6,7,7,8,8,9,9,10,10,11,11,12,12,13,13,14,14,15,15,16,16,17,17,18,18,19,19,20,20,21,21,22,22,23,23,24,24,25,25,26,26,27,27,28,28,29,29,30,30],"right_children":[2,4,6,8,10,12,14,16,18,20,22,24,26,28,30,32,34,36,38,40,42,44,46,48,50,52,54,56,58,60,62,-1,-1,-1,-1,-1,-1,-1,-1,-1,-1,-1,-1,-1,-1,-1,-1,-1,-1,-1,-1,-1,-1,-1,-1,-1,-1,-1,-1,-1,-1,-1,-1],"split_conditions":[-4.1621625E-1,-7.2821313E-1,-1.8821882E-1,-5.293693E-1,1.3058128E0,-2.7282402E-1,1.6771152E0,6.627329E-2,-3.442732E-1,-3.5016045E-1,-3.660918E-1,-8.893096E-1,-1.239855E0,1.6232659E-1,-2.8675148E-1,-5.381484E-1,4.558228E-1,7.831134E-1,-3.4228972E-1,-1.889138E0,-4.5328364E-1,-3.680753E-1,-2.1427971E-1,-6.0631603E-2,-3.2062143E-1,-1.840574E-1,-3.5140014E-1,5.522723E-1,-3.403062E-1,-3.5815775E-1,1E0,-5.7071235E-2,-4.809354E-2,-4.2541437E-2,1.4770642E-1,-3.9762527E-2,2.915414E-2,1.5560655E-1,-2.4480518E-2,-3.9826423E-2,-5.7399523E-2,2.1319795E-1,-5.2806944E-2,-2.4362791E-2,1.076923E-1,-5.7937056E-2,7.368421E-2,-3.5301503E-2,1.6636197E-1,1.2818998E-1,2.700645E-1,-3.5437003E-2,2.6489946E-1,2.0545569E-1,3.144345E-1,-5.7985645E-2,2.520598E-1,-2.3099964E-2,-5.6083973E-2,1.0300516E-2,1.6833024E-1,-3.495925E-2,8.000585E-2],"split_indices":[13,17,8,13,6,13,13,3,11,12,11,8,8,8,11,13,7,19,11,10,13,11,17,11,13,13,12,11,11,11,30,0,0,0,0,0,0,0,0,0,0,0,0,0,0,0,0,0,0,0,0,0,0,0,0,0,0,0,0,0,0,0,0],"split_type":[0,0,0,0,0,0,0,0,0,0,0,0,0,0,0,0,0,0,0,0,0,0,0,0,0,0,0,0,0,0,0,0,0,0,0,0,0,0,0,0,0,0,0,0,0,0,0,0,0,0,0,0,0,0,0,0,0,0,0,0,0,0,0],"sum_hessian":[1.7764898E4,8.829062E3,8.935837E3,2.9586125E3,5.870449E3,1.4630205E3,7.472817E3,1.1782042E3,1.7804083E3,5.5537964E3,3.1665308E2,9.536327E2,5.093878E2,6.4731436E3,9.996735E2,1.1742858E3,3.9183676E0,1.2710205E3,5.093878E2,5.1994287E3,3.5436737E2,1.6873471E2,1.4791838E2,5.4759186E2,4.0604083E2,1.6604083E2,3.4334695E2,2.3265308E2,6.24049E3,2.8334695E2,7.163266E2,8.375511E2,3.367347E2,2.6938777E0,1.2244899E0,1.2244899E3,4.6530617E1,3.0122452E1,4.7926535E2,1.0481634E2,5.094613E3,1.9102041E1,3.3526532E2,1.5673471E2,1.2000001E1,1.4620409E2,1.7142859E0,4.70449E2,7.714286E1,2.9632654E2,1.09714294E2,8.8897964E1,7.714286E1,9.551021E1,2.4783675E2,1.6677553E2,6.5877556E1,1.9476736E3,4.2928164E3,9.746939E1,1.8587756E2,6.4751025E2,6.881633E1],"tree_param":{"num_deleted":"0","num_feature":"33","num_nodes":"63","size_leaf_vector":"1"}},{"base_weights":[-4.1207358E-1,-4.869538E-1,2.8203073E0,-5.238505E-1,1.0597203E-2,-3.8298622E-1,3.3480775E0,-5.509196E-1,-4.0810245E-1,-1.7520563E-1,1.9185978E0,1.9793104E-1,-5.0127876E-1,-9.695292E-2,3.4130316E0,2.3273654E-1,-5.5423313E-1,1.6042145E0,-4.494458E-1,1.8138756E0,-3.1759092E-1,-2.4894713E-1,3.3670602E0,-5.5382276E-1,5.350318E-2,-4.883721E-2,1.0275229E-1,3.482831E-1,2.1151078E0,-1.2917707E-2,1.1472471E-1,-5.5506527E-2,1.3023256E-1,4.8402302E-2,3.3542904E-1,-5.3015616E-2,6.235073E-5,3.36E-1,9.9212594E-2,-4.5798518E-2,7.739738E-2,-5.6881666E-2,2.7096772E-1,3.4441912E-1,-3.211009E-2,-5.722071E-2,1.2844035E-2,3.2496348E-1,-4.9851634E-2],"categories":[],"categories_nodes":[],"categories_segments":[],"categories_sizes":[],"default_left":[0,0,0,0,0,0,0,0,0,0,0,0,0,0,0,0,0,0,0,0,0,0,0,0,0,0,0,0,0,0,0,0,0,0,0,0,0,0,0,0,0,0,0,0,0,0,0,0,0],"id":6,"left_children":[1,3,5,7,9,11,13,15,17,19,21,-1,23,25,27,29,31,33,35,37,39,41,43,45,-1,-1,-1,-1,47,-1,-1,-1,-1,-1,-1,-1,-1,-1,-1,-1,-1,-1,-1,-1,-1,-1,-1,-1,-1],"loss_changes":[4.301456E3,3.187832E2,6.8156055E2,5.0425293E1,4.2567093E2,1.71485E1,7.7658936E1,3.414258E1,2.559545E2,3.1047787E2,3.3536658E2,0E0,3.33784E0,3.7444882E0,2.3363281E1,1.8635448E1,2.0875E1,1.1988249E2,1.0922583E2,8.972609E1,1.5697223E2,4.28148E1,1.9294678E1,7.4646187E-1,0E0,0E0,0E0,0E0,6.050093E1,0E0,0E0,0E0,0E0,0E0,0E0,0E0,0E0,0E0,0E0,0E0,0E0,0E0,0E0,0E0,0E0,0E0,0E0,0E0,0E0],"parents":[2147483647,0,0,1,1,2,2,3,3,4,4,5,5,6,6,7,7,8,8,9,9,10,10,12,12,13,13,14,14,15,15,16,16,17,17,18,18,19,19,20,20,21,21,22,22,23,23,28,28],"right_children":[2,4,6,8,10,12,14,16,18,20,22,-1,24,26,28,30,32,34,36,38,40,42,44,46,-1,-1,-1,-1,48,-1,-1,-1,-1,-1,-1,-1,-1,-1,-1,-1,-1,-1,-1,-1,-1,-1,-1,-1,-1],"split_conditions":[3.362706E0,1.145491E0,7.148276E-2,1.0058623E-2,1.5645082E0,-3.0168962E-1,-3.2443812E-1,-2.0747933E0,1.6232659E-1,5.12872E-1,-2.2922976E-1,1.9793104E-1,5.941815E0,-4.467538E-2,2.609824E-1,-4.035353E-1,3.643888E0,3.0191377E-1,1.5645082E0,-3.9590576E0,2.5394197E0,-2.536301E-2,1.02559075E-1,-1.9551013E-1,5.350318E-2,-4.883721E-2,1.0275229E-1,3.482831E-1,1.2139628E0,-1.2917707E-2,1.1472471E-1,-5.5506527E-2,1.3023256E-1,4.8402302E-2,3.3542904E-1,-5.3015616E-2,6.235073E-5,3.36E-1,9.9212594E-2,-4.5798518E-2,7.739738E-2,-5.6881666E-2,2.7096772E-1,3.4441912E-1,-3.211009E-2,-5.722071E-2,1.2844035E-2,3.2496348E-1,-4.9851634E-2],"split_indices":[13,13,17,13,8,14,11,19,8,8,11,0,13,6,14,13,5,12,8,14,13,12,2,11,0,0,0,0,8,0,0,0,0,0,0,0,0,0,0,0,0,0,0,0,0,0,0,0,0],"split_type":[0,0,0,0,0,0,0,0,0,0,0,0,0,0,0,0,0,0,0,0,0,0,0,0,0,0,0,0,0,0,0,0,0,0,0,0,0,0,0,0,0,0,0,0,0,0,0,0,0],"sum_hessian":[1.7764898E4,1.7363512E4,4.013878E2,1.6164735E4,1.1987756E3,5.681633E1,3.4457144E2,1.3097879E4,3.0668574E3,1.0932246E3,1.05551025E2,1.9591838E0,5.4857147E1,6.3673472E0,3.382041E2,5.4857147E1,1.3043021E4,6.0979595E1,3.0058777E3,7.22449E1,1.0209797E3,4.2612247E1,6.293878E1,5.2653065E1,2.2040818E0,5.1428576E0,1.2244899E0,3.1934695E2,1.8857143E1,3.991837E1,1.4938777E1,1.3037879E4,5.1428576E0,3.7959187E1,2.302041E1,2.5486533E3,4.5722452E2,2.4000002E1,4.82449E1,9.0514294E2,1.1583675E2,3.9183678E1,3.4285717E0,6.171429E1,1.2244899E0,5.1428574E1,1.2244899E0,1.2979592E1,5.8775516E0],"tree_param":{"num_deleted":"0","num_feature":"33","num_nodes":"49","size_leaf_vector":"1"}},{"base_weights":[-5.5456054E-1,-2.8916025E-1,-5.65996E-1,-5.5651087E-1,8.5046165E-2,-4.6938792E-1,-5.722732E-1,2.8460866E-2,-5.758663E-2,-4.834504E-1,9.329025E-1,1.745052E-1,-5.1809734E-1,-5.7722885E-2,-5.531609E-1,-3.6639553E-1,1.6114794E-1,-5.131603E-1,-5.610133E-2,1.1180747E0,-4.678631E-1,-5.6148846E-2,9.0241957E-1,1.8461185E-2,-5.4653317E-1,-5.651842E-1,-2.9276136E-1,-5.275279E-2,6.928983E-2,-5.4120272E-2,-7.794396E-3,8.410078E-2,-5.1301528E-2,5.4168522E-2,1.8232584E-1,-5.335489E-2,1.4983624E-2,1.3556321E-1,-3.3859704E-2,-5.6335982E-2,1.5035437E-1,-4.3810755E-2,-5.726571E-2,-5.7167422E-2,-4.8395388E-2,1.7404266E-1,-5.73334E-2],"categories":[],"categories_nodes":[],"categories_segments":[],"categories_sizes":[],"default_left":[0,0,0,0,0,0,0,0,0,0,0,0,0,0,0,0,0,0,0,0,0,0,0,0,0,0,0,0,0,0,0,0,0,0,0,0,0,0,0,0,0,0,0,0,0,0,0],"id":7,"left_children":[1,3,5,7,9,11,13,15,-1,17,19,21,23,-1,25,27,-1,29,31,33,35,-1,37,39,41,43,45,-1,-1,-1,-1,-1,-1,-1,-1,-1,-1,-1,-1,-1,-1,-1,-1,-1,-1,-1,-1],"loss_changes":[5.1016113E1,6.994046E1,9.53418E0,4.6316605E0,1.4119511E2,3.1198486E1,1.1181641E0,9.346531E0,0E0,2.1988678E0,3.1011917E1,3.827801E1,1.4082794E1,0E0,9.692017E0,2.4182796E0,0E0,1.9584618E0,5.566569E0,4.133078E1,6.6539836E-1,0E0,2.0611177E1,4.1793163E1,2.2302551E0,1.3092651E0,8.145034E1,0E0,0E0,0E0,0E0,0E0,0E0,0E0,0E0,0E0,0E0,0E0,0E0,0E0,0E0,0E0,0E0,0E0,0E0,0E0,0E0],"parents":[2147483647,0,0,1,1,2,2,3,3,4,4,5,5,6,6,7,7,9,9,10,10,11,11,12,12,14,14,15,15,17,17,18,18,19,19,20,20,22,22,23,23,24,24,25,25,26,26],"right_children":[2,4,6,8,10,12,14,16,-1,18,20,22,24,-1,26,28,-1,30,32,34,36,-1,38,40,42,44,46,-1,-1,-1,-1,-1,-1,-1,-1,-1,-1,-1,-1,-1,-1,-1,-1,-1,-1,-1,-1],"split_conditions":[-5.469276E-1,-3.8252196E-1,-4.666908E-1,-8.893096E-1,-1.239855E0,-1.239855E0,1.2139628E0,1E0,-5.758663E-2,1E0,4.2301884E-1,-5.303448E-1,-5.4497665E-1,-5.7722885E-2,6.4843553E-1,-1.3342358E-1,1.6114794E-1,1E0,1.0215644E-1,-8.0593705E-1,9.016082E-2,-5.6148846E-2,-1.5471958E0,-2.77954E-1,-8.5901856E-1,1E0,-4.4065744E-1,-5.275279E-2,6.928983E-2,-5.4120272E-2,-7.794396E-3,8.410078E-2,-5.1301528E-2,5.4168522E-2,1.8232584E-1,-5.335489E-2,1.4983624E-2,1.3556321E-1,-3.3859704E-2,-5.6335982E-2,1.5035437E-1,-4.3810755E-2,-5.726571E-2,-5.7167422E-2,-4.8395388E-2,1.7404266E-1,-5.73334E-2],"split_indices":[13,17,12,8,8,8,8,30,0,22,1,13,13,0,1,1,0,20,17,1,17,0,1,17,4,27,12,0,0,0,0,0,0,0,0,0,0,0,0,0,0,0,0,0,0,0,0],"split_type":[0,0,0,0,0,0,0,0,0,0,0,0,0,0,0,0,0,0,0,0,0,0,0,0,0,0,0,0,0,0,0,0,0,0,0,0,0,0,0,0,0,0,0,0,0,0,0],"sum_hessian":[1.6862121E4,6.9762177E2,1.61645E4,4.0662363E2,2.9099814E2,9.908503E2,1.5173649E4,1.300829E1,3.9361536E2,1.7445442E2,1.1654372E2,6.950301E1,9.213472E2,1.2026161E4,3.1474883E3,1.1026475E1,1.9818156E0,1.6292673E2,1.1527686E1,1.0311446E2,1.3429251E1,3.4673397E1,3.4829613E1,4.6388493E1,8.7495874E2,3.0074565E3,1.400317E2,1.0006375E1,1.020099E0,1.5283551E2,1.0091218E1,3.606339E0,7.9213467E0,5.7711502E1,4.5402966E1,1.2261593E1,1.1676581E0,2.5444914E1,9.384701E0,3.3776352E1,1.2612141E1,1.7333095E2,7.016278E2,2.7793564E3,2.2810028E2,1.6349663E1,1.2368204E2],"tree_param":{"num_deleted":"0","num_feature":"33","num_nodes":"47","size_leaf_vector":"1"}},{"base_weights":[-5.0189286E-1,-1.00474685E-1,-5.475956E-1,8.062272E-1,-2.6861423E-1,-5.6867033E-1,-4.674369E-1,5.290291E-1,1.5606568E0,-7.894679E-3,-4.1814452E-1,-2.2039916E-1,-5.7174814E-1,-2.992611E-1,-5.7745405E-2,-2.982121E-1,7.863111E-1,1.930848E0,-5.3005505E-2,2.5487095E-1,-4.4250375E-1,-5.1209897E-1,-8.081808E-2,5.5555695E-1,-5.715933E-2,-5.753377E-1,-5.493851E-1,-5.026413E-1,3.3629176E-1,-3.9534364E-2,1.4740703E-1,6.0523678E-2,1.6652264E-1,2.1743636E-1,-5.0956782E-2,1.3924052E-2,1.260351E-1,-5.3808063E-2,8.564185E-2,-3.338964E-2,-5.425526E-2,1.354099E-1,-5.246048E-2,-5.133132E-2,2.665335E-1,-5.772825E-2,-5.517106E-2,-2.1804214E-2,-5.7547357E-2,-1.5457219E-2,-5.5138912E-2,-4.8171073E-2,1.0655477E-1],"categories":[],"categories_nodes":[],"categories_segments":[],"categories_sizes":[],"default_left":[0,0,0,0,0,0,0,0,0,0,0,0,0,0,0,0,0,0,0,0,0,0,0,0,0,0,0,0,0,0,0,0,0,0,0,0,0,0,0,0,0,0,0,0,0,0,0,0,0,0,0,0,0],"id":8,"left_children":[1,3,5,7,9,11,13,15,17,19,21,23,25,27,-1,29,31,33,-1,35,37,39,41,43,-1,45,47,49,51,-1,-1,-1,-1,-1,-1,-1,-1,-1,-1,-1,-1,-1,-1,-1,-1,-1,-1,-1,-1,-1,-1,-1,-1],"loss_changes":[3.106875E2,2.643487E2,2.5422852E1,5.5905533E1,5.7004265E1,1.2775391E1,5.850299E1,4.2779545E1,5.7042282E1,6.109562E1,2.9410553E1,2.9493248E1,6.413574E-1,1.6254724E2,0E0,8.870976E0,2.3302277E1,3.7778946E1,0E0,3.859004E1,2.5485397E1,3.7622986E0,1.3038173E2,7.773704E1,0E0,1.5307617E-1,1.4330017E1,1.6069336E1,1.8254076E2,0E0,0E0,0E0,0E0,0E0,0E0,0E0,0E0,0E0,0E0,0E0,0E0,0E0,0E0,0E0,0E0,0E0,0E0,0E0,0E0,0E0,0E0,0E0,0E0],"parents":[2147483647,0,0,1,1,2,2,3,3,4,4,5,5,6,6,7,7,8,8,9,9,10,10,11,11,12,12,13,13,15,15,16,16,17,17,19,19,20,20,21,21,22,22,23,23,25,25,26,26,27,27,28,28],"right_children":[2,4,6,8,10,12,14,16,18,20,22,24,26,28,-1,30,32,34,-1,36,38,40,42,44,-1,46,48,50,52,-1,-1,-1,-1,-1,-1,-1,-1,-1,-1,-1,-1,-1,-1,-1,-1,-1,-1,-1,-1,-1,-1,-1,-1],"split_conditions":[-4.666908E-1,-1.239855E0,1.2139628E0,-5.459521E-1,-5.469276E-1,-5.459521E-1,-4.0594625E-1,-2.0718806E0,-5.1961476E-1,8.692438E-1,-4.6206275E-1,-8.893096E-1,8.634174E-1,-4.7644782E-1,-5.7745405E-2,1E0,2.7868718E-1,1E0,-5.3005505E-2,1E0,1E0,-1.116603E0,-4.493818E-1,-7.3203146E-1,-5.715933E-2,1E0,-3.216477E-1,1.5645082E0,-3.700588E-1,-3.9534364E-2,1.4740703E-1,6.0523678E-2,1.6652264E-1,2.1743636E-1,-5.0956782E-2,1.3924052E-2,1.260351E-1,-5.3808063E-2,8.564185E-2,-3.338964E-2,-5.425526E-2,1.354099E-1,-5.246048E-2,-5.133132E-2,2.665335E-1,-5.772825E-2,-5.517106E-2,-2.1804214E-2,-5.7547357E-2,-1.5457219E-2,-5.5138912E-2,-4.8171073E-2,1.0655477E-1],"split_indices":[12,8,8,13,13,13,12,1,13,1,13,8,8,6,0,27,17,22,0,23,22,17,13,2,0,30,12,8,11,0,0,0,0,0,0,0,0,0,0,0,0,0,0,0,0,0,0,0,0,0,0,0,0],"split_type":[0,0,0,0,0,0,0,0,0,0,0,0,0,0,0,0,0,0,0,0,0,0,0,0,0,0,0,0,0,0,0,0,0,0,0,0,0,0,0,0,0,0,0,0,0,0,0,0,0,0,0,0,0],"sum_hessian":[1.6936996E4,1.7315542E3,1.5205442E4,2.7027676E2,1.4612775E3,1.2035158E4,3.1702834E3,1.9889758E2,7.137919E1,5.329988E2,9.282787E2,1.06062355E2,1.1929097E4,1.2552249E3,1.9150586E3,4.7146843E1,1.5175075E2,6.070665E1,1.0672539E1,3.324265E2,2.0057227E2,7.2564813E2,2.0263058E2,3.2865288E1,7.3197075E1,1.0257833E4,1.6712638E3,9.5108264E2,3.0414224E2,4.5433735E1,1.7131068E0,1.2722785E2,2.4522892E1,5.529781E1,5.408841E0,2.9916135E2,3.326515E1,1.8737096E2,1.3201321E1,1.0765531E2,6.179928E2,4.738078E1,1.552498E2,2.2316067E1,1.054922E1,9.456061E3,8.017719E2,1.22666534E2,1.5485972E3,1.1735013E2,8.3373254E2,1.4350871E2,1.6063351E2],"tree_param":{"num_deleted":"0","num_feature":"33","num_nodes":"53","size_leaf_vector":"1"}},{"base_weights":[-2.2366261E-1,8.383446E-1,-3.214587E-1,1.2694237E0,7.3391926E-1,-4.756713E-1,-1.2777479E-1,1.6460832E0,1.5972383E-1,1.0816966E0,5.8556724E-1,1.7648304E-1,-5.2770954E-1,7.979889E-1,-4.737149E-1,1.7425426E0,8.606434E-1,-1.2647541E-1,2.112631E0,1.2353534E0,2.47294E-1,2.0000366E-2,7.536972E-1,7.268595E-2,2.4318278E0,-3.0238038E-1,-5.6696874E-1,1.5848411E0,-2.6798758E-1,1.0146459E-1,-5.2417433E-1,1.7819951E-1,-7.608313E-3,1.852282E-1,3.4254424E-2,-3.0984437E-2,2.0456564E-1,2.3354916E-1,4.8499763E-2,8.840077E-2,2.3620501E-1,-1.7194826E-2,2.4382801E-1,-1.9286618E-2,1.7261784E-1,7.025268E-2,1.7236134E-1,6.661718E-2,-1.6387608E-2,2.5620785E-1,-3.1558488E-2,-4.6776023E-2,-7.5911656E-3,-4.601544E-2,-5.747473E-2,1.8209298E-1,9.712861E-2,1.13518886E-1,-4.1061338E-2,9.3479104E-2,-3.4824412E-2,-3.519432E-2,-5.747027E-2],"categories":[],"categories_nodes":[],"categories_segments":[],"categories_sizes":[],"default_left":[0,0,0,0,0,0,0,0,0,0,0,0,0,0,0,0,0,0,0,0,0,0,0,0,0,0,0,0,0,0,0,0,0,0,0,0,0,0,0,0,0,0,0,0,0,0,0,0,0,0,0,0,0,0,0,0,0,0,0,0,0,0,0],"id":9,"left_children":[1,3,5,7,9,11,13,15,17,19,21,23,25,27,29,31,33,35,37,39,41,43,45,47,49,51,53,55,57,59,61,-1,-1,-1,-1,-1,-1,-1,-1,-1,-1,-1,-1,-1,-1,-1,-1,-1,-1,-1,-1,-1,-1,-1,-1,-1,-1,-1,-1,-1,-1,-1,-1],"loss_changes":[1.8024282E3,6.4944336E1,4.7453125E2,1.1844229E2,6.026764E1,3.0029016E2,2.2564976E3,1.4556213E1,4.1110676E1,4.479709E1,7.887253E1,1.5302348E2,7.229907E1,1.6081106E3,1.4891174E2,1.3607788E1,1.2289492E1,2.6395477E1,2.275879E0,1.1541321E2,5.181901E1,6.975223E1,3.0527252E1,8.809053E1,1.1101318E1,4.5571465E1,5.53125E0,1.579878E2,1.6354019E2,1.5566151E2,4.083423E1,0E0,0E0,0E0,0E0,0E0,0E0,0E0,0E0,0E0,0E0,0E0,0E0,0E0,0E0,0E0,0E0,0E0,0E0,0E0,0E0,0E0,0E0,0E0,0E0,0E0,0E0,0E0,0E0,0E0,0E0,0E0,0E0],"parents":[2147483647,0,0,1,1,2,2,3,3,4,4,5,5,6,6,7,7,8,8,9,9,10,10,11,11,12,12,13,13,14,14,15,15,16,16,17,17,18,18,19,19,20,20,21,21,22,22,23,23,24,24,25,25,26,26,27,27,28,28,29,29,30,30],"right_children":[2,4,6,8,10,12,14,16,18,20,22,24,26,28,30,32,34,36,38,40,42,44,46,48,50,52,54,56,58,60,62,-1,-1,-1,-1,-1,-1,-1,-1,-1,-1,-1,-1,-1,-1,-1,-1,-1,-1,-1,-1,-1,-1,-1,-1,-1,-1,-1,-1,-1,-1,-1,-1],"split_conditions":[-5.4400116E-1,-9.858694E-1,5.12872E-1,-4.666908E-1,-1.239855E0,-4.666908E-1,-2.8062767E-1,1E0,1E0,-5.4497665E-1,-8.893096E-1,1.6232659E-1,-5.313202E-1,1.5645082E0,-4.4933522E-1,1E0,7.4562943E-1,1E0,8.4284145E-1,-4.6545112E-1,1E0,1E0,1E0,-1.0076798E0,-5.1766384E-1,-4.465794E-1,-5.2546746E-1,1.2139628E0,-5.381484E-1,-2.0167586E-1,-1.0594256E-1,1.7819951E-1,-7.608313E-3,1.852282E-1,3.4254424E-2,-3.0984437E-2,2.0456564E-1,2.3354916E-1,4.8499763E-2,8.840077E-2,2.3620501E-1,-1.7194826E-2,2.4382801E-1,-1.9286618E-2,1.7261784E-1,7.025268E-2,1.7236134E-1,6.661718E-2,-1.6387608E-2,2.5620785E-1,-3.1558488E-2,-4.6776023E-2,-7.5911656E-3,-4.601544E-2,-5.747473E-2,1.8209298E-1,9.712861E-2,1.13518886E-1,-4.1061338E-2,9.3479104E-2,-3.4824412E-2,-3.519432E-2,-5.747027E-2],"split_indices":[13,17,8,12,8,12,13,27,23,13,8,8,13,8,12,20,7,22,1,12,23,32,28,17,13,17,13,8,13,17,12,0,0,0,0,0,0,0,0,0,0,0,0,0,0,0,0,0,0,0,0,0,0,0,0,0,0,0,0,0,0,0,0],"split_type":[0,0,0,0,0,0,0,0,0,0,0,0,0,0,0,0,0,0,0,0,0,0,0,0,0,0,0,0,0,0,0,0,0,0,0,0,0,0,0,0,0,0,0,0,0,0,0,0,0,0,0,0,0,0,0,0,0,0,0,0,0,0,0],"sum_hessian":[1.7350783E4,1.4624017E3,1.5888383E4,2.829981E2,1.1794036E3,8.844706E3,7.0436763E3,2.1092245E2,7.2075645E1,3.5078256E2,8.2862103E2,6.534273E2,8.191279E3,1.9157277E3,5.1279487E3,1.8676714E2,2.4155323E1,6.3678738E1,8.396904E0,2.958253E2,5.495725E1,1.9013867E2,6.3848236E2,6.2566473E2,2.776256E1,1.2167006E3,6.974578E3,1.1018837E3,8.1384393E2,4.1350104E2,4.7144478E3,1.8282123E2,3.9459045E0,7.405703E0,1.6749619E1,5.9512142E1,4.1665945E0,7.003116E0,1.3937885E0,2.2686502E2,6.896028E1,4.6903793E1,8.053457E0,1.6983646E2,2.0302214E1,6.081236E2,3.0358797E1,1.7779565E2,4.478691E2,2.6570356E1,1.1922028E0,7.0257587E2,5.141247E2,4.7751523E2,6.497063E3,7.9428455E2,3.0759912E2,7.444847E1,7.3939545E2,1.4455562E2,2.689454E2,1.0711813E3,3.6432664E3],"tree_param":{"num_deleted":"0","num_feature":"33","num_nodes":"63","size_leaf_vector":"1"}},{"base_weights":[1.6231735E0,1.7342273E0,-2.4411559E-1,1.1355773E0,1.7998163E0,-3.7171313E-1,1.3245244E0,2.3424897E0,1.0433396E0,2.1260276E0,1.6070547E0,2.3210408E-1,-5.4213786E-1,2.306599E0,-3.250384E-1,9.8600864E-1,2.5031376E0,3.3087647E-1,1.161799E0,1.2293931E0,2.1733406E0,8.4109426E-1,1.8547564E0,-5.597301E-1,4.924742E-1,-5.770225E-2,-2.7489474E-1,2.5173923E-1,1.3447157E0,-5.5658516E-2,1.3031311E0,2.5866038E-1,-5.2462954E-2,2.4152769E-2,2.5633532E-1,1.1651269E-1,-4.5524865E-2,8.834656E-2,1.398478E-1,1.9533977E-1,6.6371664E-2,2.2349446E-1,1.428039E-1,1.3163318E-1,-3.9545033E-2,1.9150649E-1,1.1119677E-1,-5.76059E-2,-9.833001E-3,-1.7049868E-2,1.3477458E-1,1.9455388E-1,-5.7158638E-2,-3.6091216E-2,1.6477267E-1,1.1865305E-2,1.7195685E-1],"categories":[],"categories_nodes":[],"categories_segments":[],"categories_sizes":[],"default_left":[0,0,0,0,0,0,0,0,0,0,0,0,0,0,0,0,0,0,0,0,0,0,0,0,0,0,0,0,0,0,0,0,0,0,0,0,0,0,0,0,0,0,0,0,0,0,0,0,0,0,0,0,0,0,0,0,0],"id":10,"left_children":[1,3,5,7,9,11,13,15,17,19,21,23,25,27,29,31,33,35,37,39,41,43,45,47,49,-1,51,-1,53,-1,55,-1,-1,-1,-1,-1,-1,-1,-1,-1,-1,-1,-1,-1,-1,-1,-1,-1,-1,-1,-1,-1,-1,-1,-1,-1,-1],"loss_changes":[4.3362188E3,7.7285156E2,2.3558856E2,2.1479126E2,1.1148906E3,1.1198381E2,1.4424075E2,2.7548279E1,1.5276892E2,2.7742773E2,2.1201797E3,4.974991E1,7.747284E0,7.8971863E0,1.3517174E1,4.061313E1,1.6064514E1,1.7111201E2,1.01237305E2,1.3518353E2,2.8470312E2,1.6074755E3,3.7637695E2,3.9426422E-1,1.0292854E2,0E0,6.687584E1,0E0,6.873564E0,0E0,2.0274353E0,0E0,0E0,0E0,0E0,0E0,0E0,0E0,0E0,0E0,0E0,0E0,0E0,0E0,0E0,0E0,0E0,0E0,0E0,0E0,0E0,0E0,0E0,0E0,0E0,0E0,0E0],"parents":[2147483647,0,0,1,1,2,2,3,3,4,4,5,5,6,6,7,7,8,8,9,9,10,10,11,11,12,12,13,13,14,14,15,15,16,16,17,17,18,18,19,19,20,20,21,21,22,22,23,23,24,24,26,26,28,28,30,30],"right_children":[2,4,6,8,10,12,14,16,18,20,22,24,26,28,30,32,34,36,38,40,42,44,46,48,50,-1,52,-1,54,-1,56,-1,-1,-1,-1,-1,-1,-1,-1,-1,-1,-1,-1,-1,-1,-1,-1,-1,-1,-1,-1,-1,-1,-1,-1,-1,-1],"split_conditions":[1.4673918E0,-4.666908E-1,1.5645082E0,-1.0305558E0,-4.8254734E-1,1.7697837E0,-2.3319678E-1,-5.4302573E-1,-1.239855E0,-5.4497665E-1,-1.8821882E-1,1.1560566E0,1E0,-1.2701719E-1,2.900339E0,-5.975944E-2,5.12872E-1,-1.6960372E0,-5.4302573E-1,-7.820145E-1,5.12872E-1,-2.9685402E-1,1.0840372E0,1.9512793E0,-7.7242965E-1,-5.770225E-2,2.0185254E0,2.5173923E-1,2.900339E0,-5.5658516E-2,-2.0778069E-1,2.5866038E-1,-5.2462954E-2,2.4152769E-2,2.5633532E-1,1.1651269E-1,-4.5524865E-2,8.834656E-2,1.398478E-1,1.9533977E-1,6.6371664E-2,2.2349446E-1,1.428039E-1,1.3163318E-1,-3.9545033E-2,1.9150649E-1,1.1119677E-1,-5.76059E-2,-9.833001E-3,-1.7049868E-2,1.3477458E-1,1.9455388E-1,-5.7158638E-2,-3.6091216E-2,1.6477267E-1,1.1865305E-2,1.7195685E-1],"split_indices":[13,12,8,6,13,13,11,13,8,13,8,12,31,12,13,19,8,2,13,17,8,12,13,0,10,0,13,0,13,0,4,0,0,0,0,0,0,0,0,0,0,0,0,0,0,0,0,0,0,0,0,0,0,0,0,0,0],"split_type":[0,0,0,0,0,0,0,0,0,0,0,0,0,0,0,0,0,0,0,0,0,0,0,0,0,0,0,0,0,0,0,0,0,0,0,0,0,0,0,0,0,0,0,0,0,0,0,0,0,0,0,0,0,0,0,0,0],"sum_hessian":[2.0907543E4,1.9733969E4,1.1735731E3,1.9503999E3,1.7783568E4,1.085998E3,8.7575066E1,1.3674332E2,1.8136566E3,6.6016084E3,1.1181961E4,2.389683E2,8.470298E2,5.4644135E1,3.2930935E1,1.5235491E1,1.21507835E2,2.5910223E2,1.5545543E3,3.3224197E2,6.269366E3,2.733533E3,8.448428E3,5.8848694E1,1.8011961E2,7.4820374E2,9.8826035E1,4.349516E1,1.11489725E1,2.9407028E1,3.5239065E0,7.0516567E0,8.183834E0,3.2812006E0,1.1822663E2,1.25469536E2,1.3363269E2,7.165857E2,8.379687E2,1.4465108E2,1.875909E2,5.78888E3,4.8048627E2,1.9745829E3,7.589501E2,7.812534E3,6.3589325E2,5.6597225E1,2.2514687E0,1.0191769E2,7.8201935E1,1.0993497E1,8.7832535E1,1.65304E0,9.495933E0,1.2508948E0,2.2730117E0],"tree_param":{"num_deleted":"0","num_feature":"33","num_nodes":"57","size_leaf_vector":"1"}},{"base_weights":[-2.585537E-2,-4.7495916E-1,1.7241368E-1,-5.2886677E-1,-3.9552835E-1,8.9146584E-1,4.1667297E-2,-5.47606E-1,-4.4292006E-1,-1.0468113E-1,-4.587412E-1,1.0213561E0,-4.546261E-1,-9.1076605E-2,8.0780387E-1,-5.5436635E-1,-3.5443473E-1,-5.25833E-1,8.372879E-1,-1.9045562E-1,2.5767143E0,-7.841009E-2,-5.180219E-1,6.225973E-1,1.5571712E0,-5.739991E-2,4.9229398E-1,1.926254E-1,-1.570831E-1,1.1176871E0,-4.5487398E-1,-5.7712536E-2,-5.236431E-2,-4.8038166E-2,1.8788075E-1,6.1455276E-2,-5.2939028E-2,3.812258E-2,3.079157E-1,-3.874023E-2,1.1173379E-1,3.3239612E-1,-4.0524367E-2,3.6121376E-2,-5.5874914E-2,-5.386023E-2,-3.550014E-2,1.0726748E-1,-2.3773607E-2,1.9687533E-1,7.259183E-2,2.8288966E-1,-5.3965E-2,-8.118587E-3,6.526902E-2,-3.7952624E-2,4.2077196E-3,6.543034E-2,1.6545103E-1,5.2364867E-2,-5.3396173E-2],"categories":[],"categories_nodes":[],"categories_segments":[],"categories_sizes":[],"default_left":[0,0,0,0,0,0,0,0,0,0,0,0,0,0,0,0,0,0,0,0,0,0,0,0,0,0,0,0,0,0,0,0,0,0,0,0,0,0,0,0,0,0,0,0,0,0,0,0,0,0,0,0,0,0,0,0,0,0,0,0,0],"id":11,"left_children":[1,3,5,7,9,11,13,15,17,19,21,23,25,27,29,31,33,35,37,39,41,43,45,47,49,-1,51,53,55,57,59,-1,-1,-1,-1,-1,-1,-1,-1,-1,-1,-1,-1,-1,-1,-1,-1,-1,-1,-1,-1,-1,-1,-1,-1,-1,-1,-1,-1,-1,-1],"loss_changes":[1.5719385E3,2.2942017E1,1.1513452E3,4.9400024E0,4.0213043E1,3.2990967E2,1.054069E3,3.2479858E0,6.2136665E1,9.0710014E1,4.0510895E1,3.662527E2,1.9104141E1,1.654607E2,5.994024E2,1.4785156E0,2.6767769E1,2.5423126E0,3.536812E1,9.8575035E1,2.859407E1,5.1666565E1,5.028778E0,3.8245654E2,2.4923645E2,0E0,4.7772236E1,2.1015688E2,3.1754083E2,3.0470398E2,2.3676174E1,0E0,0E0,0E0,0E0,0E0,0E0,0E0,0E0,0E0,0E0,0E0,0E0,0E0,0E0,0E0,0E0,0E0,0E0,0E0,0E0,0E0,0E0,0E0,0E0,0E0,0E0,0E0,0E0,0E0,0E0],"parents":[2147483647,0,0,1,1,2,2,3,3,4,4,5,5,6,6,7,7,8,8,9,9,10,10,11,11,12,12,13,13,14,14,15,15,16,16,17,17,18,18,19,19,20,20,21,21,22,22,23,23,24,24,26,26,27,27,28,28,29,29,30,30],"right_children":[2,4,6,8,10,12,14,16,18,20,22,24,26,28,30,32,34,36,38,40,42,44,46,48,50,-1,52,54,56,58,60,-1,-1,-1,-1,-1,-1,-1,-1,-1,-1,-1,-1,-1,-1,-1,-1,-1,-1,-1,-1,-1,-1,-1,-1,-1,-1,-1,-1,-1,-1],"split_conditions":[-5.0108105E-1,-5.274184E-1,-8.893096E-1,9.9476045E-1,-4.6297178E-1,-1.840574E-1,1.0915929E0,-3.403062E-1,1.6232659E-1,-3.660918E-1,-1.239855E0,-3.87928E-1,1E0,-1.8821882E-1,3.548648E0,4.0010357E-1,2.6657777E0,-2.1966605E0,-1.7585655E-1,-5.0790924E-1,-5.24492E-1,-2.3897298E-1,1.1022571E0,-4.6011183E-1,5.423184E-1,-5.739991E-2,1.5291105E-1,-3.9230973E-1,-1.3333361E-1,1.8440814E0,-3.5056865E-1,-5.7712536E-2,-5.236431E-2,-4.8038166E-2,1.8788075E-1,6.1455276E-2,-5.2939028E-2,3.812258E-2,3.079157E-1,-3.874023E-2,1.1173379E-1,3.3239612E-1,-4.0524367E-2,3.6121376E-2,-5.5874914E-2,-5.386023E-2,-3.550014E-2,1.0726748E-1,-2.3773607E-2,1.9687533E-1,7.259183E-2,2.8288966E-1,-5.3965E-2,-8.118587E-3,6.526902E-2,-3.7952624E-2,4.2077196E-3,6.543034E-2,1.6545103E-1,5.2364867E-2,-5.3396173E-2],"split_indices":[13,13,8,2,12,13,12,11,8,11,8,13,22,8,12,1,18,15,18,13,13,6,1,13,14,0,17,12,13,12,2,0,0,0,0,0,0,0,0,0,0,0,0,0,0,0,0,0,0,0,0,0,0,0,0,0,0,0,0,0,0],"split_type":[0,0,0,0,0,0,0,0,0,0,0,0,0,0,0,0,0,0,0,0,0,0,0,0,0,0,0,0,0,0,0,0,0,0,0,0,0,0,0,0,0,0,0,0,0,0,0,0,0,0,0,0,0,0,0,0,0,0,0,0,0],"sum_hessian":[1.7651705E4,5.4057104E3,1.2245995E4,3.2168562E3,2.1888542E3,1.8832214E3,1.0362773E4,2.6366147E3,5.8024164E2,3.9126566E2,1.7975885E3,1.717713E3,1.6550842E2,8.833182E3,1.5295914E3,2.545656E3,9.0958694E1,5.4550134E2,3.4740265E1,3.8003772E2,1.1227961E1,2.4271408E2,1.5548744E3,9.860482E2,7.316648E2,1.4732925E2,1.8179163E1,1.6668761E3,7.1663057E3,1.2282678E3,3.0132358E2,1.452153E3,1.0935029E3,8.6845795E1,4.1129E0,1.1622087E0,5.443392E2,2.9839981E1,4.9002824E0,3.3090845E2,4.9129253E1,8.886426E0,2.3415346E0,1.26857475E2,1.158566E2,1.3785378E3,1.7633655E2,6.472152E2,3.38833E2,4.8844864E2,2.4321617E2,5.035681E0,1.3143483E1,1.0454761E3,6.2139996E2,3.3848472E3,3.7814585E3,6.604171E2,5.6785077E2,2.2112528E1,2.7921106E2],"tree_param":{"num_deleted":"0","num_feature":"33","num_nodes":"61","size_leaf_vector":"1"}},{"base_weights":[-2.8303412E-1,-4.8816866E-1,-8.713647E-2,-3.880875E-1,-5.391698E-1,1.0499994E0,-3.4067804E-1,-5.344846E-1,-2.9289964E-1,-5.514085E-1,-3.2728654E-1,6.016814E-1,1.794349E0,-4.1948292E-1,1.4326449E-1,-5.3788793E-1,3.4619102E-1,-3.6079106E-1,-1.2614198E-1,-5.6405085E-1,-3.6753583E-1,-1.3290371E-1,-5.5279166E-1,-6.657687E-2,1.3980696E0,9.001507E-1,2.174207E0,2.8945023E-1,-4.4752494E-1,9.488907E-1,-2.4395867E-1,-5.643196E-2,-4.7095966E-2,-4.1719884E-2,1.3662116E-1,-4.6677303E-2,-1.9259496E-2,1.3470815E-1,-2.3361083E-2,-3.8668837E-2,-5.6766946E-2,1.759241E-1,-5.198892E-2,-4.7987536E-2,2.2352925E-2,-5.7371717E-2,6.886075E-2,-3.7548732E-2,1.27102E-1,2.1173799E-1,1.00242175E-1,-3.442722E-2,2.025404E-1,-4.9414463E-2,2.2042497E-1,-5.7444345E-2,2.0614903E-1,-2.4142502E-2,-5.65219E-2,8.82197E-3,1.320977E-1,-3.6028802E-2,7.481171E-2],"categories":[],"categories_nodes":[],"categories_segments":[],"categories_sizes":[],"default_left":[0,0,0,0,0,0,0,0,0,0,0,0,0,0,0,0,0,0,0,0,0,0,0,0,0,0,0,0,0,0,0,0,0,0,0,0,0,0,0,0,0,0,0,0,0,0,0,0,0,0,0,0,0,0,0,0,0,0,0,0,0,0,0],"id":12,"left_children":[1,3,5,7,9,11,13,15,17,19,21,23,25,27,29,31,33,35,37,39,41,43,45,47,49,51,53,55,57,59,61,-1,-1,-1,-1,-1,-1,-1,-1,-1,-1,-1,-1,-1,-1,-1,-1,-1,-1,-1,-1,-1,-1,-1,-1,-1,-1,-1,-1,-1,-1,-1,-1],"loss_changes":[6.9368506E2,4.283264E1,2.5466123E3,3.9561127E1,1.429834E1,5.363136E2,2.754947E2,3.5484924E0,1.9533432E1,1.2059448E1,1.3399254E1,5.357732E2,2.034845E2,1.236062E2,3.1596887E2,1.7117615E0,4.406359E0,2.1808533E1,7.977832E1,2.9483643E0,1.1184517E2,2.0684448E1,4.0830193E0,2.2701625E2,1.285896E2,2.5560056E2,3.5062378E1,3.63907E2,1.4480164E2,1.0516632E2,7.9249756E1,0E0,0E0,0E0,0E0,0E0,0E0,0E0,0E0,0E0,0E0,0E0,0E0,0E0,0E0,0E0,0E0,0E0,0E0,0E0,0E0,0E0,0E0,0E0,0E0,0E0,0E0,0E0,0E0,0E0,0E0,0E0,0E0],"parents":[2147483647,0,0,1,1,2,2,3,3,4,4,5,5,6,6,7,7,8,8,9,9,10,10,11,11,12,12,13,13,14,14,15,15,16,16,17,17,18,18,19,19,20,20,21,21,22,22,23,23,24,24,25,25,26,26,27,27,28,28,29,29,30,30],"right_children":[2,4,6,8,10,12,14,16,18,20,22,24,26,28,30,32,34,36,38,40,42,44,46,48,50,52,54,56,58,60,62,-1,-1,-1,-1,-1,-1,-1,-1,-1,-1,-1,-1,-1,-1,-1,-1,-1,-1,-1,-1,-1,-1,-1,-1,-1,-1,-1,-1,-1,-1,-1,-1],"split_conditions":[-4.1621625E-1,-7.2821313E-1,-1.8821882E-1,-5.293693E-1,1.3058128E0,-2.7282402E-1,1.6771152E0,6.627329E-2,-3.442732E-1,-3.5016045E-1,-3.660918E-1,-8.893096E-1,-1.239855E0,1.6232659E-1,-2.6691642E-1,-5.381484E-1,4.558228E-1,-4.9913013E-1,-3.4228972E-1,-1.889138E0,-4.5328364E-1,6.548569E-1,-2.1427971E-1,-7.848318E-2,-4.3817806E-1,-1.840574E-1,-4.5677334E-1,5.522723E-1,-3.2443812E-1,-3.5815775E-1,1E0,-5.643196E-2,-4.7095966E-2,-4.1719884E-2,1.3662116E-1,-4.6677303E-2,-1.9259496E-2,1.3470815E-1,-2.3361083E-2,-3.8668837E-2,-5.6766946E-2,1.759241E-1,-5.198892E-2,-4.7987536E-2,2.2352925E-2,-5.7371717E-2,6.886075E-2,-3.7548732E-2,1.27102E-1,2.1173799E-1,1.00242175E-1,-3.442722E-2,2.025404E-1,-4.9414463E-2,2.2042497E-1,-5.7444345E-2,2.0614903E-1,-2.4142502E-2,-5.65219E-2,8.82197E-3,1.320977E-1,-3.6028802E-2,7.481171E-2],"split_indices":[13,17,8,13,6,13,13,3,11,12,11,8,8,8,11,13,7,13,11,10,13,2,17,11,12,13,12,11,11,11,30,0,0,0,0,0,0,0,0,0,0,0,0,0,0,0,0,0,0,0,0,0,0,0,0,0,0,0,0,0,0,0,0],"split_type":[0,0,0,0,0,0,0,0,0,0,0,0,0,0,0,0,0,0,0,0,0,0,0,0,0,0,0,0,0,0,0,0,0,0,0,0,0,0,0,0,0,0,0,0,0,0,0,0,0,0,0,0,0,0,0,0,0,0,0,0,0,0,0],"sum_hessian":[1.7262182E4,8.431563E3,8.830618E3,2.8491655E3,5.582398E3,1.6093828E3,7.221235E3,1.1207928E3,1.7283728E3,5.2760425E3,3.0635553E2,1.00555225E3,6.038306E2,6.210117E3,1.0111178E3,1.116866E3,3.9268122E0,1.2274728E3,5.0090005E2,4.934687E3,3.4135544E2,1.6538496E2,1.4097058E2,5.472582E2,4.5829404E2,1.8103592E2,4.227947E2,2.3594144E2,5.974176E3,3.277585E2,6.8335925E2,7.953354E2,3.2153058E2,2.5839546E0,1.3428578E0,7.519113E2,4.7556146E2,3.3271202E1,4.6762885E2,1.0082256E2,4.8338643E3,2.2113594E1,3.1924185E2,8.3629265E1,8.17557E1,1.3916266E2,1.8079318E0,4.4516837E2,1.0208983E2,1.6108348E2,2.9721057E2,8.629543E1,9.4740486E1,4.535192E0,4.1825952E2,1.5906897E2,7.687246E1,2.172628E3,3.8015479E3,9.930159E1,2.2845694E2,6.1220935E2,7.114994E1],"tree_param":{"num_deleted":"0","num_feature":"33","num_nodes":"63","size_leaf_vector":"1"}},{"base_weights":[-4.0152967E-1,-4.8873514E-1,1.8295423E0,-5.154855E-1,-9.709751E-2,2.223376E0,3.317755E-1,-5.4465073E-1,-4.0148962E-1,-3.122358E-1,1.6608799E0,1.0417014E0,2.4992568E0,-5.425524E-1,1.1345196E0,1.7059904E-1,-5.478356E-1,7.3799914E-1,-4.4437638E-1,1.3920423E0,-4.483208E-1,-3.6420137E-1,2.5334177E0,1.6656797E0,-5.362228E-1,2.5086495E-1,-3.2593317E-2,2.4242757E-2,-5.7243586E-2,2.7048676E0,7.5095034E-1,8.3556704E-2,-4.00215E-2,-5.4871608E-2,1.16001144E-1,-2.3076102E-2,2.1000195E-1,-4.9702924E-2,2.1315794E-2,2.0130411E-1,3.0203491E-2,-6.9762617E-3,-5.228084E-2,1.876107E-1,-5.58483E-2,2.5612685E-1,1.9287383E-2,2.124737E-1,-1.5778504E-2,-5.7024498E-2,1.7121086E-2,2.8081852E-1,7.0672385E-2,-2.5024647E-2,1.8512164E-1],"categories":[],"categories_nodes":[],"categories_segments":[],"categories_sizes":[],"default_left":[0,0,0,0,0,0,0,0,0,0,0,0,0,0,0,0,0,0,0,0,0,0,0,0,0,0,0,0,0,0,0,0,0,0,0,0,0,0,0,0,0,0,0,0,0,0,0,0,0,0,0,0,0,0,0],"id":13,"left_children":[1,3,5,7,9,11,13,15,17,19,21,23,25,27,29,31,33,35,37,39,41,43,45,47,49,-1,-1,-1,-1,51,53,-1,-1,-1,-1,-1,-1,-1,-1,-1,-1,-1,-1,-1,-1,-1,-1,-1,-1,-1,-1,-1,-1,-1,-1],"loss_changes":[3.325922E3,1.7226465E2,3.785913E2,5.0968506E1,3.987154E2,1.633335E2,9.541146E1,2.8013428E1,1.5379135E2,2.1837888E2,2.0404468E2,9.7439865E1,1.1749023E1,1.6711788E0,4.0576805E1,2.1247713E1,1.898584E1,1.5127373E2,1.0490466E2,4.6551056E1,2.4502045E1,1.6494835E1,4.7512817E0,5.936032E1,7.846451E-1,0E0,0E0,0E0,0E0,8.027878E-1,6.461478E1,0E0,0E0,0E0,0E0,0E0,0E0,0E0,0E0,0E0,0E0,0E0,0E0,0E0,0E0,0E0,0E0,0E0,0E0,0E0,0E0,0E0,0E0,0E0,0E0],"parents":[2147483647,0,0,1,1,2,2,3,3,4,4,5,5,6,6,7,7,8,8,9,9,10,10,11,11,12,12,13,13,14,14,15,15,16,16,17,17,18,18,19,19,20,20,21,21,22,22,23,23,24,24,29,29,30,30],"right_children":[2,4,6,8,10,12,14,16,18,20,22,24,26,28,30,32,34,36,38,40,42,44,46,48,50,-1,-1,-1,-1,52,54,-1,-1,-1,-1,-1,-1,-1,-1,-1,-1,-1,-1,-1,-1,-1,-1,-1,-1,-1,-1,-1,-1,-1,-1],"split_conditions":[2.5394197E0,1.145491E0,-2.0353617E-2,-4.2616036E-2,1.5645082E0,3.362706E0,1.9804469E0,-2.0747933E0,1.6232659E-1,5.12872E-1,-3.1253707E-1,1E0,1.5645082E0,-1.8571006E0,-1.0365865E-1,-4.518146E-1,3.643888E0,6.565968E-2,2.5756562E0,-3.1150496E0,2.6858484E-2,-3.1366458E0,7.8348465E-2,1E0,3.0575588E0,2.5086495E-1,-3.2593317E-2,2.4242757E-2,-5.7243586E-2,9.1622126E-1,5.4882274E0,8.3556704E-2,-4.00215E-2,-5.4871608E-2,1.16001144E-1,-2.3076102E-2,2.1000195E-1,-4.9702924E-2,2.1315794E-2,2.0130411E-1,3.0203491E-2,-6.9762617E-3,-5.228084E-2,1.876107E-1,-5.58483E-2,2.5612685E-1,1.9287383E-2,2.124737E-1,-1.5778504E-2,-5.7024498E-2,1.7121086E-2,2.8081852E-1,7.0672385E-2,-2.5024647E-2,1.8512164E-1],"split_indices":[13,13,14,13,8,13,12,19,8,8,11,30,8,5,1,12,5,13,18,14,1,6,2,32,3,0,0,0,0,0,13,0,0,0,0,0,0,0,0,0,0,0,0,0,0,0,0,0,0,0,0,0,0,0,0],"split_type":[0,0,0,0,0,0,0,0,0,0,0,0,0,0,0,0,0,0,0,0,0,0,0,0,0,0,0,0,0,0,0,0,0,0,0,0,0,0,0,0,0,0,0,0,0,0,0,0,0,0,0,0,0,0,0],"sum_hessian":[1.7088842E4,1.6446771E4,6.420707E2,1.539492E4,1.0518507E3,5.0800714E2,1.3406357E2,1.2255616E4,3.1393037E3,9.378951E2,1.1395563E2,9.705771E1,4.1094943E2,6.432576E1,6.9737816E1,5.4096916E1,1.220152E4,1.13279976E2,3.026024E3,6.866987E1,8.692252E2,3.449002E1,7.946561E1,6.9513504E1,2.7544205E1,4.096994E2,1.2500257E0,2.0981808E0,6.2227577E1,1.2502053E1,5.723576E1,2.4773403E1,2.9323515E1,1.219591E4,5.608807E0,6.6681915E1,4.659807E1,2.8019023E3,2.2412154E2,4.3207104E1,2.546276E1,1.4323213E2,7.2599304E2,2.0615187E0,3.24285E1,7.843794E1,1.0276623E0,5.5401066E1,1.4112442E1,2.646535E1,1.078855E0,1.150193E1,1.0001233E0,3.03715E1,2.686426E1],"tree_param":{"num_deleted":"0","num_feature":"33","num_nodes":"55","size_leaf_vector":"1"}},{"base_weights":[-5.481381E-1,-2.7931267E-1,-5.6001955E-1,-5.5044085E-1,8.0905154E-2,-4.605202E-1,-5.6655765E-1,3.4529604E-2,-5.7059593E-2,-4.7549334E-1,8.2983905E-1,1.739556E-1,-5.106931E-1,-5.717333E-2,-5.466542E-1,-3.561711E-1,1.4408676E-1,-5.060315E-1,-4.9773104E-2,6.7260504E-1,2.3358684E0,-5.545156E-2,8.1809956E-1,1.51158385E-2,-5.3999287E-1,-5.591702E-1,-2.8097403E-1,-5.2233946E-2,7.052695E-2,-5.3505577E-2,-6.9243717E-3,7.7396385E-2,-5.0633293E-2,5.096172E-2,2.142477E-1,7.57628E-2,2.525499E-1,1.1996909E-1,-3.3152025E-2,-5.5837978E-2,1.2863469E-1,-4.2786732E-2,-5.6727048E-2,-5.659706E-2,-4.7460325E-2,1.532411E-1,-5.6796726E-2],"categories":[],"categories_nodes":[],"categories_segments":[],"categories_sizes":[],"default_left":[0,0,0,0,0,0,0,0,0,0,0,0,0,0,0,0,0,0,0,0,0,0,0,0,0,0,0,0,0,0,0,0,0,0,0,0,0,0,0,0,0,0,0,0,0,0,0],"id":14,"left_children":[1,3,5,7,9,11,13,15,-1,17,19,21,23,-1,25,27,-1,29,31,33,35,-1,37,39,41,43,45,-1,-1,-1,-1,-1,-1,-1,-1,-1,-1,-1,-1,-1,-1,-1,-1,-1,-1,-1,-1],"loss_changes":[5.093701E1,6.636685E1,9.704102E0,4.589325E0,1.2228033E2,3.032573E1,1.1679688E0,8.12438E0,0E0,2.1648712E0,2.8038673E1,3.346619E1,1.357312E1,0E0,9.779785E0,2.42184E0,0E0,1.9542274E0,5.049392E0,2.6369148E1,1.5032921E0,0E0,1.6954426E1,3.5309296E1,2.308197E0,1.3720093E0,7.1884514E1,0E0,0E0,0E0,0E0,0E0,0E0,0E0,0E0,0E0,0E0,0E0,0E0,0E0,0E0,0E0,0E0,0E0,0E0,0E0,0E0],"parents":[2147483647,0,0,1,1,2,2,3,3,4,4,5,5,6,6,7,7,9,9,10,10,11,11,12,12,14,14,15,15,17,17,18,18,19,19,20,20,22,22,23,23,24,24,25,25,26,26],"right_children":[2,4,6,8,10,12,14,16,-1,18,20,22,24,-1,26,28,-1,30,32,34,36,-1,38,40,42,44,46,-1,-1,-1,-1,-1,-1,-1,-1,-1,-1,-1,-1,-1,-1,-1,-1,-1,-1,-1,-1],"split_conditions":[-5.469276E-1,-3.8252196E-1,-4.666908E-1,-8.893096E-1,-1.239855E0,-1.239855E0,1.2139628E0,1E0,-5.7059593E-2,1E0,1E0,-5.303448E-1,-5.4497665E-1,-5.717333E-2,6.4843553E-1,2.3051324E0,1.4408676E-1,1E0,1.0215644E-1,1E0,-1.158879E0,-5.545156E-2,-1.5471958E0,-2.77954E-1,-8.5901856E-1,1E0,-4.4065744E-1,-5.2233946E-2,7.052695E-2,-5.3505577E-2,-6.9243717E-3,7.7396385E-2,-5.0633293E-2,5.096172E-2,2.142477E-1,7.57628E-2,2.525499E-1,1.1996909E-1,-3.3152025E-2,-5.5837978E-2,1.2863469E-1,-4.2786732E-2,-5.6727048E-2,-5.659706E-2,-4.7460325E-2,1.532411E-1,-5.6796726E-2],"split_indices":[13,17,12,8,8,8,8,30,0,22,20,13,13,0,1,7,0,20,17,22,0,0,1,17,4,27,12,0,0,0,0,0,0,0,0,0,0,0,0,0,0,0,0,0,0,0,0],"split_type":[0,0,0,0,0,0,0,0,0,0,0,0,0,0,0,0,0,0,0,0,0,0,0,0,0,0,0,0,0,0,0,0,0,0,0,0,0,0,0,0,0,0,0,0,0,0,0],"sum_hessian":[1.5995503E4,6.7807837E2,1.5317425E4,3.8657996E2,2.914984E2,9.4884644E2,1.4368578E4,1.2852187E1,3.7372775E2,1.6745657E2,1.2404185E2,6.9353165E1,8.794933E2,1.1381276E4,2.9873018E3,1.0642334E1,2.2098532E0,1.5607239E2,1.1384186E1,1.136256E2,1.0416246E1,3.2611507E1,3.6741657E1,4.6447006E1,8.3304626E2,2.8518486E3,1.354531E2,9.640943E0,1.0013922E0,1.4613673E2,9.935657E0,3.8117394E0,7.5724463E0,1.0349607E2,1.0129526E1,1.6531154E0,8.763131E0,2.755261E1,9.189049E0,3.2393814E1,1.4053195E1,1.6627068E2,6.6677563E2,2.6343193E3,2.1752933E2,1.7915201E1,1.17537895E2],"tree_param":{"num_deleted":"0","num_feature":"33","num_nodes":"47","size_leaf_vector":"1"}},{"base_weights":[-4.9352348E-1,-9.473437E-2,-5.407912E-1,7.150539E-1,-2.5816286E-1,-5.6277657E-1,-4.5797572E-1,4.9835464E-1,1.4022512E0,-4.689521E-3,-4.082516E-1,-2.1277343E-1,-5.659784E-1,-2.873184E-1,-5.7207175E-2,-4.3036598E-1,6.474593E-1,1.7481923E0,-5.2346826E-2,2.4397714E-1,-4.3466458E-1,-5.046107E-1,-7.162822E-2,4.973261E-1,-5.6596298E-2,-5.697449E-1,-5.4255176E-1,2.103997E-1,-5.4414505E-1,-5.50961E-2,-8.809082E-3,5.5847466E-2,2.116354E-1,1.9949645E-1,-5.2994218E-2,1.3614659E-2,1.1184726E-1,-5.3226907E-2,7.734551E-2,-3.215614E-2,-5.3621512E-2,1.17829695E-1,-5.1646974E-2,-5.5155974E-2,2.053475E-1,-5.717848E-2,-5.4501362E-2,-1.982341E-2,-5.6999195E-2,-4.7270857E-2,7.638934E-2,-5.7270784E-2,-2.338264E-2],"categories":[],"categories_nodes":[],"categories_segments":[],"categories_sizes":[],"default_left":[0,0,0,0,0,0,0,0,0,0,0,0,0,0,0,0,0,0,0,0,0,0,0,0,0,0,0,0,0,0,0,0,0,0,0,0,0,0,0,0,0,0,0,0,0,0,0,0,0,0,0,0,0],"id":15,"left_children":[1,3,5,7,9,11,13,15,17,19,21,23,25,27,-1,29,31,33,-1,35,37,39,41,43,-1,45,47,49,51,-1,-1,-1,-1,-1,-1,-1,-1,-1,-1,-1,-1,-1,-1,-1,-1,-1,-1,-1,-1,-1,-1,-1,-1],"loss_changes":[3.0421924E2,2.2671866E2,2.6017578E1,4.2145386E1,5.4210716E1,1.2654297E1,5.8887512E1,3.078297E1,4.649794E1,5.6879723E1,2.8995636E1,2.65998E1,6.8725586E-1,1.5570413E2,0E0,1.2341228E0,2.3680305E1,3.379532E1,0E0,3.1632133E1,2.3396698E1,3.852188E0,1.1200769E2,5.88955E1,0E0,1.784668E-1,1.4866608E1,1.5727805E2,6.985031E0,0E0,0E0,0E0,0E0,0E0,0E0,0E0,0E0,0E0,0E0,0E0,0E0,0E0,0E0,0E0,0E0,0E0,0E0,0E0,0E0,0E0,0E0,0E0,0E0],"parents":[2147483647,0,0,1,1,2,2,3,3,4,4,5,5,6,6,7,7,8,8,9,9,10,10,11,11,12,12,13,13,15,15,16,16,17,17,19,19,20,20,21,21,22,22,23,23,25,25,26,26,27,27,28,28],"right_children":[2,4,6,8,10,12,14,16,18,20,22,24,26,28,-1,30,32,34,-1,36,38,40,42,44,-1,46,48,50,52,-1,-1,-1,-1,-1,-1,-1,-1,-1,-1,-1,-1,-1,-1,-1,-1,-1,-1,-1,-1,-1,-1,-1,-1],"split_conditions":[-4.666908E-1,-1.239855E0,1.2139628E0,-5.410748E-1,-5.469276E-1,-5.459521E-1,-4.0594625E-1,-2.345369E0,-5.1961476E-1,8.692438E-1,-4.6206275E-1,-8.893096E-1,8.634174E-1,1.5645082E0,-5.7207175E-2,-2.4413648E0,3.697236E-1,1E0,-5.2346826E-2,1E0,1E0,-1.116603E0,-4.493818E-1,7.5261414E-2,-5.6596298E-2,1E0,-3.216477E-1,-3.700588E-1,1E0,-5.50961E-2,-8.809082E-3,5.5847466E-2,2.116354E-1,1.9949645E-1,-5.2994218E-2,1.3614659E-2,1.1184726E-1,-5.3226907E-2,7.734551E-2,-3.215614E-2,-5.3621512E-2,1.17829695E-1,-5.1646974E-2,-5.5155974E-2,2.053475E-1,-5.717848E-2,-5.4501362E-2,-1.982341E-2,-5.6999195E-2,-4.7270857E-2,7.638934E-2,-5.7270784E-2,-2.338264E-2],"split_indices":[12,8,8,13,13,13,12,1,13,1,13,8,8,8,0,2,17,20,0,23,22,17,13,6,0,30,12,11,30,0,0,0,0,0,0,0,0,0,0,0,0,0,0,0,0,0,0,0,0,0,0,0,0],"split_type":[0,0,0,0,0,0,0,0,0,0,0,0,0,0,0,0,0,0,0,0,0,0,0,0,0,0,0,0,0,0,0,0,0,0,0,0,0,0,0,0,0,0,0,0,0,0,0,0,0,0,0,0,0],"sum_hessian":[1.6140808E4,1.7107262E3,1.4430081E4,2.8670874E2,1.4240175E3,1.139832E4,3.0317603E3,2.1928508E2,6.742365E1,5.2998975E2,8.9402765E2,1.0393763E2,1.1294383E4,1.2161866E3,1.8155737E3,3.0074604E1,1.8921048E2,5.7234158E1,1.0189497E1,3.3606595E2,1.9392381E2,6.946762E2,1.9935147E2,3.4389095E1,6.954854E1,9.70993E3,1.5844537E3,4.1401862E2,8.02168E2,2.1788189E1,8.286415E0,1.7970432E2,9.506166E0,5.1752518E1,5.4816413E0,3.0020462E2,3.586135E1,1.7994537E2,1.39784355E1,1.0392557E2,5.907506E2,5.18929E1,1.4745857E2,2.0928373E1,1.3460722E1,8.949611E3,7.6031793E2,1.1755869E2,1.466895E3,1.8537694E2,2.2864166E2,7.3378265E2,6.8385345E1],"tree_param":{"num_deleted":"0","num_feature":"33","num_nodes":"53","size_leaf_vector":"1"}},{"base_weights":[-2.1372299E-1,7.424284E-1,-3.1045774E-1,9.636245E-1,5.9211904E-1,-4.664862E-1,-1.1989971E-1,1.1260296E0,5.8980227E-1,9.4017303E-1,3.5014534E-1,1.6645719E-1,-5.201021E-1,7.19563E-1,-4.645537E-1,1.0559286E0,2.3262465E0,3.8905743E-1,1.7913775E0,1.057704E0,2.4196094E-1,-4.4714227E-2,6.410063E-1,6.982771E-2,1.9901856E0,-2.97185E-1,-5.624488E-1,1.3617262E0,-2.6011324E-1,1.0454442E-1,-5.166872E-1,9.78088E-2,2.1913067E-1,7.608781E-2,2.4076891E-1,3.592702E-3,1.3990824E-1,2.1742749E-1,-4.704329E-2,7.7126645E-2,1.9060676E-1,-1.1187059E-2,2.5524625E-1,-2.0156682E-2,1.3962178E-1,7.6611385E-2,-2.3732895E-2,3.167024E-2,-4.3670915E-2,2.084192E-1,-3.1222183E-2,-3.8095586E-2,1.702093E-2,-4.5406062E-2,-5.6922313E-2,5.9267532E-2,1.5140349E-1,9.8939024E-2,-4.0202007E-2,8.137137E-2,-3.6153805E-2,-3.3984948E-2,-5.693848E-2],"categories":[],"categories_nodes":[],"categories_segments":[],"categories_sizes":[],"default_left":[0,0,0,0,0,0,0,0,0,0,0,0,0,0,0,0,0,0,0,0,0,0,0,0,0,0,0,0,0,0,0,0,0,0,0,0,0,0,0,0,0,0,0,0,0,0,0,0,0,0,0,0,0,0,0,0,0,0,0,0,0,0,0],"id":16,"left_children":[1,3,5,7,9,11,13,15,17,19,21,23,25,27,29,31,33,35,37,39,41,43,45,47,49,51,53,55,57,59,61,-1,-1,-1,-1,-1,-1,-1,-1,-1,-1,-1,-1,-1,-1,-1,-1,-1,-1,-1,-1,-1,-1,-1,-1,-1,-1,-1,-1,-1,-1,-1,-1],"loss_changes":[1.5658917E3,5.1146545E1,4.5701636E2,3.744751E1,7.789011E1,2.8690735E2,2.0030315E3,3.427179E1,4.5669975E1,3.0951385E1,6.313347E1,1.16309944E2,7.338843E1,1.2680991E3,1.456654E2,3.4469543E1,1.1331787E0,5.9152138E1,2.4613945E1,7.755548E1,4.6139458E1,5.3168106E1,3.4956512E1,7.8742874E1,7.839554E0,4.885244E1,4.548584E0,1.4170142E2,1.4202245E2,1.3670332E2,4.170581E1,0E0,0E0,0E0,0E0,0E0,0E0,0E0,0E0,0E0,0E0,0E0,0E0,0E0,0E0,0E0,0E0,0E0,0E0,0E0,0E0,0E0,0E0,0E0,0E0,0E0,0E0,0E0,0E0,0E0,0E0,0E0,0E0],"parents":[2147483647,0,0,1,1,2,2,3,3,4,4,5,5,6,6,7,7,8,8,9,9,10,10,11,11,12,12,13,13,14,14,15,15,16,16,17,17,18,18,19,19,20,20,21,21,22,22,23,23,24,24,25,25,26,26,27,27,28,28,29,29,30,30],"right_children":[2,4,6,8,10,12,14,16,18,20,22,24,26,28,30,32,34,36,38,40,42,44,46,48,50,52,54,56,58,60,62,-1,-1,-1,-1,-1,-1,-1,-1,-1,-1,-1,-1,-1,-1,-1,-1,-1,-1,-1,-1,-1,-1,-1,-1,-1,-1,-1,-1,-1,-1,-1,-1],"split_conditions":[-5.4400116E-1,-7.648451E-1,5.12872E-1,-4.666908E-1,-1.239855E0,-4.666908E-1,-2.8062767E-1,1E0,1E0,-5.4497665E-1,-5.3876424E-1,1.6232659E-1,-5.303448E-1,1.5645082E0,-4.4933522E-1,1E0,-7.201145E-2,-4.6421146E-1,-5.4497665E-1,-4.6545112E-1,3.1223315E-1,1E0,1.2770281E0,-6.983625E-1,-5.1766384E-1,1.6232659E-1,-5.2546746E-1,-2.0353617E-2,-5.381484E-1,-1.9066174E-1,-1.0594256E-1,9.78088E-2,2.1913067E-1,7.608781E-2,2.4076891E-1,3.592702E-3,1.3990824E-1,2.1742749E-1,-4.704329E-2,7.7126645E-2,1.9060676E-1,-1.1187059E-2,2.5524625E-1,-2.0156682E-2,1.3962178E-1,7.6611385E-2,-2.3732895E-2,3.167024E-2,-4.3670915E-2,2.084192E-1,-3.1222183E-2,-3.8095586E-2,1.702093E-2,-4.5406062E-2,-5.6922313E-2,5.9267532E-2,1.5140349E-1,9.8939024E-2,-4.0202007E-2,8.137137E-2,-3.6153805E-2,-3.3984948E-2,-5.693848E-2],"split_indices":[13,17,8,12,8,12,13,26,23,13,8,8,13,8,12,28,5,12,13,12,17,32,6,17,13,8,13,14,13,17,12,0,0,0,0,0,0,0,0,0,0,0,0,0,0,0,0,0,0,0,0,0,0,0,0,0,0,0,0,0,0,0,0],"split_type":[0,0,0,0,0,0,0,0,0,0,0,0,0,0,0,0,0,0,0,0,0,0,0,0,0,0,0,0,0,0,0,0,0,0,0,0,0,0,0,0,0,0,0,0,0,0,0,0,0,0,0,0,0,0,0,0,0,0,0,0,0,0,0],"sum_hessian":[1.6926338E4,1.5545073E3,1.5371831E4,6.267572E2,9.277502E2,8.450849E3,6.920983E3,4.355308E2,1.9122636E2,3.7929227E2,5.484579E2,6.597933E2,7.791055E3,2.0141338E3,4.906849E3,4.1327258E2,2.2258236E1,1.6498624E2,2.6240137E1,3.242038E2,5.5088478E1,2.3299744E2,3.1546048E2,6.275795E2,3.221375E1,1.2450432E3,6.5460117E3,1.2164071E3,7.9772675E2,4.116965E2,4.4951523E3,3.8849887E2,2.4773693E1,1.6122627E0,2.0645973E1,1.23013245E2,4.1972984E1,2.247422E1,3.7659154E0,2.437981E2,8.04057E1,4.859777E1,6.4907093E0,2.1090004E2,2.20974E1,2.7624124E2,3.9219234E1,4.2218893E2,2.0539061E2,3.1041128E1,1.172622E0,1.0559677E3,1.8907556E2,3.890653E2,6.156947E3,2.0189114E2,1.0145159E3,8.074928E1,7.169775E2,1.629752E2,2.487213E2,1.0337238E3,3.4614287E3],"tree_param":{"num_deleted":"0","num_feature":"33","num_nodes":"63","size_leaf_vector":"1"}},{"base_weights":[1.349866E0,1.4310145E0,-2.354784E-1,9.770887E-1,1.4786342E0,-3.621638E-1,1.1640465E0,1.8644555E0,9.033232E-1,1.698103E0,1.3270147E0,2.0850696E-1,-5.3555834E-1,1.8845814E0,-3.0783635E-1,8.73172E-1,1.9694601E0,9.884429E-1,2.0065548E-1,1.7441167E0,1.1150901E0,6.397634E-1,1.5133736E0,-5.56086E-1,4.441238E-1,-5.7176124E-2,-2.6359597E-1,2.0292166E-1,1.17318E0,-5.4847535E-2,1.1599424E0,2.1027301E-1,-5.1948912E-2,2.0308428E-1,3.7018795E-2,7.741308E-2,1.1869533E-1,1.1348884E-2,1.5772127E-1,1.3846086E-1,1.8120128E-1,-5.1582623E-3,1.9387437E-1,1.04948185E-1,-3.8434554E-2,1.6702923E-1,1.3069677E-1,-5.726626E-2,-1.01408865E-2,-1.9016067E-2,1.121856E-1,1.6506396E-1,-5.6583215E-2,1.2940124E-2,1.5973356E-1,1.0827403E-2,1.5058604E-1],"categories":[],"categories_nodes":[],"categories_segments":[],"categories_sizes":[],"default_left":[0,0,0,0,0,0,0,0,0,0,0,0,0,0,0,0,0,0,0,0,0,0,0,0,0,0,0,0,0,0,0,0,0,0,0,0,0,0,0,0,0,0,0,0,0,0,0,0,0,0,0,0,0,0,0,0,0],"id":17,"left_children":[1,3,5,7,9,11,13,15,17,19,21,23,25,27,29,31,33,35,37,39,41,43,45,47,49,-1,51,-1,53,-1,55,-1,-1,-1,-1,-1,-1,-1,-1,-1,-1,-1,-1,-1,-1,-1,-1,-1,-1,-1,-1,-1,-1,-1,-1,-1,-1],"loss_changes":[3.0253828E3,4.8208203E2,2.0358115E2,1.3753064E2,6.713633E2,1.0415936E2,1.017038E2,1.5173035E1,1.1736133E2,2.1984375E2,1.5329785E3,4.452072E1,7.7923737E0,4.220398E0,1.2008155E1,3.078622E1,1.3575562E1,7.3654785E1,2.5454151E1,1.8448828E2,5.8391034E2,1.0731642E3,3.0295898E2,3.8161278E-1,8.121134E1,0E0,5.683993E1,0E0,5.6416607E0,0E0,1.6035509E0,0E0,0E0,0E0,0E0,0E0,0E0,0E0,0E0,0E0,0E0,0E0,0E0,0E0,0E0,0E0,0E0,0E0,0E0,0E0,0E0,0E0,0E0,0E0,0E0,0E0,0E0],"parents":[2147483647,0,0,1,1,2,2,3,3,4,4,5,5,6,6,7,7,8,8,9,9,10,10,11,11,12,12,13,13,14,14,15,15,16,16,17,17,18,18,19,19,20,20,21,21,22,22,23,23,24,24,26,26,28,28,30,30],"right_children":[2,4,6,8,10,12,14,16,18,20,22,24,26,28,30,32,34,36,38,40,42,44,46,48,50,-1,52,-1,54,-1,56,-1,-1,-1,-1,-1,-1,-1,-1,-1,-1,-1,-1,-1,-1,-1,-1,-1,-1,-1,-1,-1,-1,-1,-1,-1,-1],"split_conditions":[1.4673918E0,-4.666908E-1,1.5645082E0,-1.0305558E0,-4.718173E-1,1.7697837E0,-2.3319678E-1,-5.4302573E-1,8.346237E-2,5.12872E-1,-1.8821882E-1,1.1560566E0,1E0,-1.2701719E-1,2.900339E0,-5.975944E-2,9.445468E-1,-5.4302573E-1,3.0439765E0,-4.6297178E-1,1.5645082E0,-2.9685402E-1,2.609824E-1,1.9512793E0,-8.249807E-1,-5.7176124E-2,2.0185254E0,2.0292166E-1,-4.5789438E-1,-5.4847535E-2,-2.0778069E-1,2.1027301E-1,-5.1948912E-2,2.0308428E-1,3.7018795E-2,7.741308E-2,1.1869533E-1,1.1348884E-2,1.5772127E-1,1.3846086E-1,1.8120128E-1,-5.1582623E-3,1.9387437E-1,1.04948185E-1,-3.8434554E-2,1.6702923E-1,1.3069677E-1,-5.726626E-2,-1.01408865E-2,-1.9016067E-2,1.121856E-1,1.6506396E-1,-5.6583215E-2,1.2940124E-2,1.5973356E-1,1.0827403E-2,1.5058604E-1],"split_indices":[13,12,8,6,13,13,11,13,17,8,8,12,31,12,13,19,13,13,18,12,8,12,14,0,10,0,13,0,18,0,4,0,0,0,0,0,0,0,0,0,0,0,0,0,0,0,0,0,0,0,0,0,0,0,0,0,0],"split_type":[0,0,0,0,0,0,0,0,0,0,0,0,0,0,0,0,0,0,0,0,0,0,0,0,0,0,0,0,0,0,0,0,0,0,0,0,0,0,0,0,0,0,0,0,0,0,0,0,0,0,0,0,0,0,0,0,0],"sum_hessian":[2.3513049E4,2.2368191E4,1.1448561E3,2.1258127E3,2.0242379E4,1.0505052E3,9.435081E1,1.6128992E2,1.964523E3,8.266485E3,1.1975894E4,2.4475912E2,8.057461E2,6.3154316E1,3.1196495E1,1.634093E1,1.4494897E2,1.7518954E3,2.1262761E2,7.659941E3,6.065446E2,2.5556494E3,9.420244E3,5.7336876E1,1.8742224E2,7.101152E2,9.5630936E1,5.094439E1,1.2209925E1,2.7340418E1,3.8560762E0,8.407882E0,7.9330487E0,1.3933138E2,5.617609E0,8.447751E2,9.0712024E2,2.0098334E2,1.1644266E1,1.2202347E3,6.439706E3,2.5139331E2,3.551513E2,1.8253507E3,7.3029865E2,5.3476445E3,4.0726E3,5.506966E1,2.2672184E0,9.7186005E1,9.0236244E1,1.2431797E1,8.319914E1,3.905123E0,8.304801E0,1.2794044E0,2.5766718E0],"tree_param":{"num_deleted":"0","num_feature":"33","num_nodes":"57","size_leaf_vector":"1"}},{"base_weights":[-2.2344925E-2,-4.6563894E-1,1.6303991E-1,-5.2126217E-1,-3.8468355E-1,7.8487587E-1,4.202314E-2,-5.407375E-1,-4.327801E-1,-9.695571E-2,-4.490353E-1,8.8851887E-1,-4.4218516E-1,-8.340467E-2,7.146685E-1,-5.4780227E-1,-3.413131E-1,-5.182702E-1,7.697081E-1,-2.7143764E-1,9.738863E-1,-6.95882E-2,-5.1017743E-1,5.5767906E-1,1.3053551E0,-5.6720655E-2,4.7221157E-1,1.8332812E-1,-1.4724457E-1,9.745196E-1,-4.2083088E-1,-5.7163484E-2,-5.1577855E-2,-4.7055487E-2,1.6399835E-1,-5.2199215E-2,6.2324274E-2,1.430202E-1,-3.989918E-2,6.467183E-2,-5.6135394E-2,2.0949319E-1,-5.6500286E-2,-5.7283618E-2,3.3937495E-2,-5.3156834E-2,-3.4287736E-2,9.4046E-2,-2.3550581E-2,-1.2221E-2,1.4641812E-1,2.3578E-1,-5.3296614E-2,-7.3163286E-3,5.8928788E-2,-3.677942E-2,4.3127825E-3,1.15133576E-1,-3.435142E-3,9.7948484E-2,-5.725195E-2],"categories":[],"categories_nodes":[],"categories_segments":[],"categories_sizes":[],"default_left":[0,0,0,0,0,0,0,0,0,0,0,0,0,0,0,0,0,0,0,0,0,0,0,0,0,0,0,0,0,0,0,0,0,0,0,0,0,0,0,0,0,0,0,0,0,0,0,0,0,0,0,0,0,0,0,0,0,0,0,0,0],"id":18,"left_children":[1,3,5,7,9,11,13,15,17,19,21,23,25,27,29,31,33,35,37,39,41,43,45,47,49,-1,51,53,55,57,59,-1,-1,-1,-1,-1,-1,-1,-1,-1,-1,-1,-1,-1,-1,-1,-1,-1,-1,-1,-1,-1,-1,-1,-1,-1,-1,-1,-1,-1,-1],"loss_changes":[1.4398331E3,2.3063843E1,9.296472E2,5.038269E0,3.89859E1,2.563391E2,8.726486E2,3.340271E0,5.765309E1,7.24883E1,3.9923492E1,2.5524194E2,1.8263447E1,1.484791E2,4.8005542E2,1.5492554E0,2.3384842E1,2.5370636E0,2.941702E1,8.904964E1,9.4993515E1,4.9624844E1,5.1256104E0,3.1493408E2,1.8622998E2,0E0,3.8177418E1,1.7539633E2,2.953895E2,2.3607056E2,6.501178E1,0E0,0E0,0E0,0E0,0E0,0E0,0E0,0E0,0E0,0E0,0E0,0E0,0E0,0E0,0E0,0E0,0E0,0E0,0E0,0E0,0E0,0E0,0E0,0E0,0E0,0E0,0E0,0E0,0E0,0E0],"parents":[2147483647,0,0,1,1,2,2,3,3,4,4,5,5,6,6,7,7,8,8,9,9,10,10,11,11,12,12,13,13,14,14,15,15,16,16,17,17,18,18,19,19,20,20,21,21,22,22,23,23,24,24,26,26,27,27,28,28,29,29,30,30],"right_children":[2,4,6,8,10,12,14,16,18,20,22,24,26,28,30,32,34,36,38,40,42,44,46,48,50,-1,52,54,56,58,60,-1,-1,-1,-1,-1,-1,-1,-1,-1,-1,-1,-1,-1,-1,-1,-1,-1,-1,-1,-1,-1,-1,-1,-1,-1,-1,-1,-1,-1,-1],"split_conditions":[-5.0108105E-1,-5.274184E-1,-8.893096E-1,9.9476045E-1,-4.6297178E-1,-1.840574E-1,1.0915929E0,-3.403062E-1,1.6232659E-1,-5.0790924E-1,-1.239855E0,-3.87928E-1,1E0,-1.8821882E-1,3.362706E0,4.0010357E-1,2.6657777E0,2.1789053E-1,4.0158358E-1,-5.24492E-1,-5.069338E-1,-3.3237216E-1,1.1022571E0,-4.6011183E-1,-3.700588E-1,-5.6720655E-2,1.5291105E-1,-3.9230973E-1,-1.3333361E-1,1.2139628E0,-3.184876E-1,-5.7163484E-2,-5.1577855E-2,-4.7055487E-2,1.6399835E-1,-5.2199215E-2,6.2324274E-2,1.430202E-1,-3.989918E-2,6.467183E-2,-5.6135394E-2,2.0949319E-1,-5.6500286E-2,-5.7283618E-2,3.3937495E-2,-5.3156834E-2,-3.4287736E-2,9.4046E-2,-2.3550581E-2,-1.2221E-2,1.4641812E-1,2.3578E-1,-5.3296614E-2,-7.3163286E-3,5.8928788E-2,-3.677942E-2,4.3127825E-3,1.15133576E-1,-3.435142E-3,9.7948484E-2,-5.725195E-2],"split_indices":[13,13,8,2,12,13,12,11,8,13,8,13,22,8,13,1,18,16,5,13,13,11,1,13,11,0,17,12,13,8,11,0,0,0,0,0,0,0,0,0,0,0,0,0,0,0,0,0,0,0,0,0,0,0,0,0,0,0,0,0,0],"split_type":[0,0,0,0,0,0,0,0,0,0,0,0,0,0,0,0,0,0,0,0,0,0,0,0,0,0,0,0,0,0,0,0,0,0,0,0,0,0,0,0,0,0,0,0,0,0,0,0,0,0,0,0,0,0,0,0,0,0,0,0,0],"sum_hessian":[1.7518559E4,5.1654272E3,1.2353132E4,3.058524E3,2.1069033E3,2.0115322E3,1.03416E4,2.5025813E3,5.5594257E2,3.855497E2,1.7213538E3,1.8551168E3,1.564154E2,8.717019E3,1.6245815E3,2.4152715E3,8.730973E1,5.195729E2,3.636969E1,3.321724E2,5.3377327E1,2.391752E2,1.4821785E3,1.035548E3,8.195687E2,1.3793575E2,1.8479654E1,1.6830614E3,7.033957E3,1.322157E3,3.0242462E2,1.3750717E3,1.0402E3,8.267901E1,4.630724E0,5.1842523E2,1.1476275E0,2.309419E1,1.32755E1,7.942024E1,2.5275215E2,3.0672085E1,2.270524E1,1.07047554E2,1.3212766E2,1.3122211E3,1.6995744E2,6.983483E2,3.3719968E2,8.207652E1,7.3749225E2,5.9578366E0,1.2521817E1,1.031907E3,6.5115436E2,3.2582676E3,3.7756895E3,1.1248695E3,1.9728741E2,2.9024769E1,2.7339987E2],"tree_param":{"num_deleted":"0","num_feature":"33","num_nodes":"61","size_leaf_vector":"1"}},{"base_weights":[-2.724813E-1,-4.793104E-1,-8.117423E-2,-3.7693712E-1,-5.3215456E-1,8.4267485E-1,-3.5081297E-1,-5.271679E-1,-2.8125054E-1,-5.448857E-1,-3.163503E-1,3.2278952E-1,1.3300872E0,-4.502551E-1,7.556997E-2,-5.307127E-1,3.4463525E-1,-3.492751E-1,-1.1729593E-1,-5.579982E-1,-3.576587E-1,-1.24194816E-1,-5.466916E-1,-2.2364767E-1,7.217992E-1,6.172086E-1,1.6226486E0,-2.3340248E-1,-5.640361E-1,-2.8058273E-1,6.710216E-1,-5.582542E-2,-4.616057E-2,-4.085786E-2,1.2685394E-1,-4.569653E-2,-1.8249935E-2,1.18880175E-1,-2.227866E-2,-3.7567753E-2,-5.6178063E-2,1.4922643E-1,-5.125838E-2,-5.0153073E-2,1.8748902E-2,-5.6846887E-2,6.4158775E-2,-4.6815272E-2,6.450754E-2,1.0585687E-1,-5.684949E-2,9.222016E-4,1.6453703E-1,-5.8242977E-2,1.7302059E-1,-4.5740467E-2,7.2679546E-4,-3.2900944E-2,-5.6756895E-2,-5.7842355E-2,-6.456088E-3,9.181624E-2,-5.741117E-2],"categories":[],"categories_nodes":[],"categories_segments":[],"categories_sizes":[],"default_left":[0,0,0,0,0,0,0,0,0,0,0,0,0,0,0,0,0,0,0,0,0,0,0,0,0,0,0,0,0,0,0,0,0,0,0,0,0,0,0,0,0,0,0,0,0,0,0,0,0,0,0,0,0,0,0,0,0,0,0,0,0,0,0],"id":19,"left_children":[1,3,5,7,9,11,13,15,17,19,21,23,25,27,29,31,33,35,37,39,41,43,45,47,49,51,53,55,57,59,61,-1,-1,-1,-1,-1,-1,-1,-1,-1,-1,-1,-1,-1,-1,-1,-1,-1,-1,-1,-1,-1,-1,-1,-1,-1,-1,-1,-1,-1,-1,-1,-1],"loss_changes":[6.629646E2,4.3355103E1,2.1689812E3,3.9303894E1,1.4410278E1,4.980492E2,2.858009E2,3.4795227E0,1.8682007E1,1.2101685E1,1.3124844E1,2.0799072E2,2.106825E2,1.3471692E2,2.7067462E2,1.7651367E0,3.9463866E0,2.1216843E1,6.829765E1,3.0168457E0,9.5555016E1,1.9357992E1,3.865139E0,8.591151E1,2.4009561E2,1.8561053E2,1.7154004E2,1.01488655E2,2.7889404E0,5.1357338E1,1.4751141E2,0E0,0E0,0E0,0E0,0E0,0E0,0E0,0E0,0E0,0E0,0E0,0E0,0E0,0E0,0E0,0E0,0E0,0E0,0E0,0E0,0E0,0E0,0E0,0E0,0E0,0E0,0E0,0E0,0E0,0E0,0E0,0E0],"parents":[2147483647,0,0,1,1,2,2,3,3,4,4,5,5,6,6,7,7,8,8,9,9,10,10,11,11,12,12,13,13,14,14,15,15,16,16,17,17,18,18,19,19,20,20,21,21,22,22,23,23,24,24,25,25,26,26,27,27,28,28,29,29,30,30],"right_children":[2,4,6,8,10,12,14,16,18,20,22,24,26,28,30,32,34,36,38,40,42,44,46,48,50,52,54,56,58,60,62,-1,-1,-1,-1,-1,-1,-1,-1,-1,-1,-1,-1,-1,-1,-1,-1,-1,-1,-1,-1,-1,-1,-1,-1,-1,-1,-1,-1,-1,-1,-1,-1],"split_conditions":[-4.1621625E-1,-7.2821313E-1,1.6232659E-1,-5.293693E-1,1.3058128E0,-3.0208772E-1,1.4293492E0,6.627329E-2,-3.442732E-1,-3.5016045E-1,-3.660918E-1,-8.893096E-1,-1.239855E0,-3.3237216E-1,1.2139628E0,-5.381484E-1,4.558228E-1,-4.9913013E-1,-3.4228972E-1,-1.889138E0,-4.5328364E-1,6.3056326E-1,-2.1427971E-1,-1.2807088E-1,-1.8821882E-1,-1.840574E-1,-3.0168962E-1,-3.3032548E-1,-4.1338438E-1,2.0185254E0,1.5645082E0,-5.582542E-2,-4.616057E-2,-4.085786E-2,1.2685394E-1,-4.569653E-2,-1.8249935E-2,1.18880175E-1,-2.227866E-2,-3.7567753E-2,-5.6178063E-2,1.4922643E-1,-5.125838E-2,-5.0153073E-2,1.8748902E-2,-5.6846887E-2,6.4158775E-2,-4.6815272E-2,6.450754E-2,1.0585687E-1,-5.684949E-2,9.222016E-4,1.6453703E-1,-5.8242977E-2,1.7302059E-1,-4.5740467E-2,7.2679546E-4,-3.2900944E-2,-5.6756895E-2,-5.7842355E-2,-6.456088E-3,9.181624E-2,-5.741117E-2],"split_indices":[13,17,8,13,6,13,13,3,11,12,11,8,8,11,8,13,7,13,11,10,13,2,17,11,8,13,14,12,12,13,8,0,0,0,0,0,0,0,0,0,0,0,0,0,0,0,0,0,0,0,0,0,0,0,0,0,0,0,0,0,0,0,0],"split_type":[0,0,0,0,0,0,0,0,0,0,0,0,0,0,0,0,0,0,0,0,0,0,0,0,0,0,0,0,0,0,0,0,0,0,0,0,0,0,0,0,0,0,0,0,0,0,0,0,0,0,0,0,0,0,0,0,0,0,0,0,0,0,0],"sum_hessian":[1.675511E4,8.0502183E3,8.704892E3,2.7434856E3,5.3067324E3,1.9661724E3,6.7387188E3,1.0657373E3,1.6777484E3,5.009668E3,2.970646E2,9.52198E2,1.01397437E3,5.4642715E3,1.2744476E3,1.0618112E3,3.92614E0,1.1849739E3,4.927745E2,4.6799272E3,3.2974078E2,1.6279597E2,1.3426862E2,4.0204434E2,5.501537E2,2.9594962E2,7.180247E2,1.8814706E3,3.5828008E3,7.977967E2,4.7665094E2,7.541705E2,3.076407E2,2.470132E0,1.4560081E0,7.189772E2,4.6599677E2,3.6058537E1,4.5671597E2,9.715649E1,4.582771E3,2.4813732E1,3.0492703E2,7.336659E1,8.942939E1,1.3236441E2,1.904208E0,3.1410074E2,8.794361E1,4.364253E2,1.1372836E2,1.866099E2,1.0933974E2,3.318888E1,6.848359E2,9.740139E2,9.0745667E2,5.445222E1,3.5283486E3,3.346791E2,4.6311758E2,3.979302E2,7.872075E1],"tree_param":{"num_deleted":"0","num_feature":"33","num_nodes":"63","size_leaf_vector":"1"}},{"base_weights":[-3.9170048E-1,-4.7996673E-1,1.5125192E0,-5.073562E-1,-9.468973E-2,-3.417983E-1,1.705044E0,-5.3767216E-1,-3.9023814E-1,-3.042975E-1,1.4267534E0,1.5383631E-1,-4.2197835E-1,7.9931456E-1,1.9398085E0,1.6820875E-1,-5.4099166E-1,6.983578E-1,-4.340723E-1,1.2173085E0,-4.4072697E-1,-3.480584E-1,2.0464282E0,1.3772984E-1,-4.785342E-1,1.2303814E0,-5.4177636E-1,-1.13149524E-1,1.9662472E0,7.6112434E-2,-3.8830515E-2,-5.437823E-2,1.0884892E-3,-2.1177797E-2,1.7963569E-1,-5.1640242E-2,3.7655182E-4,1.6917042E-1,2.8856507E-2,-6.87997E-3,-5.1665198E-2,1.6624512E-1,-5.508346E-2,2.0654856E-1,1.8352255E-2,-5.672188E-3,-5.4901343E-2,1.7608155E-1,4.5847874E-2,1.6746579E-2,-5.7017773E-2,-4.855273E-2,8.780151E-2,1.9846012E-1,1.538387E-1],"categories":[],"categories_nodes":[],"categories_segments":[],"categories_sizes":[],"default_left":[0,0,0,0,0,0,0,0,0,0,0,0,0,0,0,0,0,0,0,0,0,0,0,0,0,0,0,0,0,0,0,0,0,0,0,0,0,0,0,0,0,0,0,0,0,0,0,0,0,0,0,0,0,0,0],"id":20,"left_children":[1,3,5,7,9,11,13,15,17,19,21,-1,23,25,27,29,31,33,35,37,39,41,43,-1,45,47,49,51,53,-1,-1,-1,-1,-1,-1,-1,-1,-1,-1,-1,-1,-1,-1,-1,-1,-1,-1,-1,-1,-1,-1,-1,-1,-1,-1],"loss_changes":[2.7603489E3,1.655437E2,2.603307E2,5.1806885E1,3.329722E2,1.109154E1,1.3864075E2,2.7354492E1,1.4422433E2,1.909619E2,1.3977032E2,0E0,7.4994097E0,8.01071E1,2.8604248E1,1.851738E1,1.7841797E1,1.1743237E2,1.045379E2,3.288459E1,2.3757187E1,1.4604116E1,2.9532166E0,0E0,1.9284172E0,4.1896255E1,7.8278065E-1,3.2291532E0,1.0012207E0,0E0,0E0,0E0,0E0,0E0,0E0,0E0,0E0,0E0,0E0,0E0,0E0,0E0,0E0,0E0,0E0,0E0,0E0,0E0,0E0,0E0,0E0,0E0,0E0,0E0,0E0],"parents":[2147483647,0,0,1,1,2,2,3,3,4,4,5,5,6,6,7,7,8,8,9,9,10,10,12,12,13,13,14,14,15,15,16,16,17,17,18,18,19,19,20,20,21,21,22,22,24,24,25,25,26,26,27,27,28,28],"right_children":[2,4,6,8,10,12,14,16,18,20,22,-1,24,26,28,30,32,34,36,38,40,42,44,-1,46,48,50,52,54,-1,-1,-1,-1,-1,-1,-1,-1,-1,-1,-1,-1,-1,-1,-1,-1,-1,-1,-1,-1,-1,-1,-1,-1,-1,-1],"split_conditions":[2.5394197E0,1.145491E0,5.8319777E-2,-4.2616036E-2,1.5645082E0,-3.0168962E-1,3.362706E0,-2.0747933E0,1.6232659E-1,5.12872E-1,-3.1253707E-1,1.5383631E-1,-2.184974E0,1E0,-3.2443812E-1,-4.518146E-1,2.0191414E0,6.565968E-2,1.5645082E0,-3.1150496E0,2.6858484E-2,-3.1366458E0,7.8348465E-2,1.3772984E-1,-4.9699992E-1,-5.8302563E-1,-1.534419E0,-4.467538E-2,2.609824E-1,7.6112434E-2,-3.8830515E-2,-5.437823E-2,1.0884892E-3,-2.1177797E-2,1.7963569E-1,-5.1640242E-2,3.7655182E-4,1.6917042E-1,2.8856507E-2,-6.87997E-3,-5.1665198E-2,1.6624512E-1,-5.508346E-2,2.0654856E-1,1.8352255E-2,-5.672188E-3,-5.4901343E-2,1.7608155E-1,4.5847874E-2,1.6746579E-2,-5.7017773E-2,-4.855273E-2,8.780151E-2,1.9846012E-1,1.538387E-1],"split_indices":[13,13,17,13,8,14,13,19,8,8,11,0,5,30,11,12,2,13,8,14,1,6,2,0,19,14,10,6,14,0,0,0,0,0,0,0,0,0,0,0,0,0,0,0,0,0,0,0,0,0,0,0,0,0,0],"split_type":[0,0,0,0,0,0,0,0,0,0,0,0,0,0,0,0,0,0,0,0,0,0,0,0,0,0,0,0,0,0,0,0,0,0,0,0,0,0,0,0,0,0,0,0,0,0,0,0,0,0,0,0,0,0,0],"sum_hessian":[1.6417668E4,1.5691088E4,7.265808E2,1.4649342E4,1.0417452E3,6.826887E1,6.5831195E2,1.1634242E4,3.0151E3,9.163066E2,1.2543869E2,2.0484285E0,6.6220436E1,1.3641661E2,5.218954E2,5.42234E1,1.1580019E4,1.1613063E2,2.8989695E3,7.474528E1,8.415613E2,3.2576004E1,9.2862686E1,1.3063731E0,6.491406E1,1.03296555E2,3.3120056E1,6.5940037E0,5.1530133E2,2.6075079E1,2.8148321E1,1.1521771E4,5.824718E1,6.3938705E1,5.219192E1,2.439981E3,4.5898853E2,4.893045E1,2.5814829E1,1.4299422E2,6.985671E2,2.3250332E0,3.0250973E1,9.18147E1,1.0479925E0,9.551848E0,5.5362217E1,6.0465137E1,4.2831417E1,1.0866902E0,3.2033363E1,5.164035E0,1.4299686E0,4.906169E2,2.4684444E1],"tree_param":{"num_deleted":"0","num_feature":"33","num_nodes":"55","size_leaf_vector":"1"}},{"base_weights":[-5.420779E-1,-2.695026E-1,-5.5443716E-1,-5.4479957E-1,7.8719616E-2,-4.5206037E-1,-5.612461E-1,3.9730407E-2,-5.657639E-2,-4.6715754E-1,7.460431E-1,1.6907473E-1,-5.0360316E-1,-5.6664597E-2,-5.4055935E-1,-3.461326E-1,1.301161E-1,-5.545154E-1,-3.0203354E-1,8.878401E-1,-4.6808428E-1,-5.486075E-2,7.414411E-1,1.31299365E-2,-5.337631E-1,-5.5357695E-1,-2.6945227E-1,-5.1621884E-2,6.6972844E-2,-5.6375053E-2,-2.9004348E-2,-4.7113653E-2,3.396929E-2,2.9568462E-2,1.3506868E-1,-5.3339835E-2,1.39664905E-2,2.0629962E-1,4.3041043E-2,-3.8361616E-2,1.6428274E-1,-4.3391522E-2,-5.6703873E-2,-5.607165E-2,-4.6534594E-2,1.3670439E-1,-5.629086E-2],"categories":[],"categories_nodes":[],"categories_segments":[],"categories_sizes":[],"default_left":[0,0,0,0,0,0,0,0,0,0,0,0,0,0,0,0,0,0,0,0,0,0,0,0,0,0,0,0,0,0,0,0,0,0,0,0,0,0,0,0,0,0,0,0,0,0,0],"id":21,"left_children":[1,3,5,7,9,11,13,15,-1,17,19,21,23,-1,25,27,-1,29,31,33,35,-1,37,39,41,43,45,-1,-1,-1,-1,-1,-1,-1,-1,-1,-1,-1,-1,-1,-1,-1,-1,-1,-1,-1,-1],"loss_changes":[5.0924805E1,6.327062E1,9.85498E0,4.537842E0,1.06746574E2,2.9203018E1,1.2128906E0,7.114901E0,0E0,2.1588821E0,2.3107254E1,2.934109E1,1.3099167E1,0E0,9.858154E0,2.2938309E0,0E0,9.117508E-2,6.4537115E0,3.2042465E1,6.476276E-1,0E0,1.5394127E1,3.1215805E1,2.3912506E0,1.4428711E0,6.409648E1,0E0,0E0,0E0,0E0,0E0,0E0,0E0,0E0,0E0,0E0,0E0,0E0,0E0,0E0,0E0,0E0,0E0,0E0,0E0,0E0],"parents":[2147483647,0,0,1,1,2,2,3,3,4,4,5,5,6,6,7,7,9,9,10,10,11,11,12,12,14,14,15,15,17,17,18,18,19,19,20,20,22,22,23,23,24,24,25,25,26,26],"right_children":[2,4,6,8,10,12,14,16,-1,18,20,22,24,-1,26,28,-1,30,32,34,36,-1,38,40,42,44,46,-1,-1,-1,-1,-1,-1,-1,-1,-1,-1,-1,-1,-1,-1,-1,-1,-1,-1,-1,-1],"split_conditions":[-5.469276E-1,-3.8252196E-1,-4.666908E-1,-8.893096E-1,-1.239855E0,-1.239855E0,1.2139628E0,1E0,-5.657639E-2,-2.9059407E-1,4.2301884E-1,-5.303448E-1,-5.4497665E-1,-5.6664597E-2,6.4843553E-1,2.3051324E0,1.301161E-1,1.9076701E0,-7.0531434E-1,-1.9633025E-1,5.627983E-1,-5.486075E-2,-5.293693E-1,5.12872E-1,1.3874811E-1,1E0,-4.4065744E-1,-5.1621884E-2,6.6972844E-2,-5.6375053E-2,-2.9004348E-2,-4.7113653E-2,3.396929E-2,2.9568462E-2,1.3506868E-1,-5.3339835E-2,1.39664905E-2,2.0629962E-1,4.3041043E-2,-3.8361616E-2,1.6428274E-1,-4.3391522E-2,-5.6703873E-2,-5.607165E-2,-4.6534594E-2,1.3670439E-1,-5.629086E-2],"split_indices":[13,17,12,8,8,8,8,30,0,5,1,13,13,0,1,7,0,10,0,17,19,0,13,8,15,27,12,0,0,0,0,0,0,0,0,0,0,0,0,0,0,0,0,0,0,0,0],"split_type":[0,0,0,0,0,0,0,0,0,0,0,0,0,0,0,0,0,0,0,0,0,0,0,0,0,0,0,0,0,0,0,0,0,0,0,0,0,0,0,0,0,0,0,0,0,0,0],"sum_hessian":[1.5159692E4,6.585529E2,1.4501139E4,3.6747256E2,2.9108038E2,9.085066E2,1.3592633E4,1.2692187E1,3.5478036E2,1.6027434E2,1.3080603E2,6.943802E1,8.390686E2,1.0758045E4,2.8345876E3,1.0274799E1,2.417388E0,1.032777E2,5.699663E1,1.17367516E2,1.343852E1,3.0826546E1,3.861147E1,4.6303932E1,7.9276465E2,2.7037224E3,1.3086517E2,9.22251E0,1.0522891E0,9.86996E1,4.5781016E0,4.5320057E1,1.1676574E1,5.2210037E1,6.515748E1,1.2244913E1,1.1936073E0,6.2829065E0,3.2328564E1,3.7853256E1,8.450679E0,2.0166917E2,5.9109546E2,2.4963638E3,2.0735864E2,1.9342255E1,1.1152293E2],"tree_param":{"num_deleted":"0","num_feature":"33","num_nodes":"47","size_leaf_vector":"1"}},{"base_weights":[-4.854399E-1,-8.9311756E-2,-5.3432107E-1,6.413246E-1,-2.4807414E-1,-5.5726284E-1,-4.488413E-1,4.5266068E-1,1.2112825E0,-2.0524436E-3,-3.985811E-1,-2.0306838E-1,-5.6059444E-1,-2.0004764E-1,-5.317631E-1,-4.234578E-1,5.8326167E-1,1.4828445E0,-5.1884063E-2,4.7026268E-1,-2.1265577E-1,-4.9712357E-1,-6.486573E-2,4.6371403E-1,-5.605188E-2,-5.6454957E-1,-5.360424E-1,5.368596E-1,-5.22162E-1,-3.1282723E-1,-5.648105E-1,-4.8260704E-2,2.0902636E-2,3.0164028E-2,9.540801E-2,1.6946706E-1,-5.3000428E-2,-2.0339713E-2,1.411015E-1,-3.2664474E-2,8.780864E-2,-3.105101E-2,-5.2987542E-2,1.0398904E-1,-5.092386E-2,-5.4643672E-2,1.752209E-1,-5.666977E-2,-5.3855747E-2,-1.8204303E-2,-5.648716E-2,-3.704207E-2,1.20788865E-1,-5.672691E-2,-8.332833E-3,-5.639882E-2,6.963526E-2,-4.751263E-2,-5.6794424E-2],"categories":[],"categories_nodes":[],"categories_segments":[],"categories_sizes":[],"default_left":[0,0,0,0,0,0,0,0,0,0,0,0,0,0,0,0,0,0,0,0,0,0,0,0,0,0,0,0,0,0,0,0,0,0,0,0,0,0,0,0,0,0,0,0,0,0,0,0,0,0,0,0,0,0,0,0,0,0,0],"id":22,"left_children":[1,3,5,7,9,11,13,15,17,19,21,23,25,27,29,31,33,35,-1,37,39,41,43,45,-1,47,49,51,53,55,57,-1,-1,-1,-1,-1,-1,-1,-1,-1,-1,-1,-1,-1,-1,-1,-1,-1,-1,-1,-1,-1,-1,-1,-1,-1,-1,-1,-1],"loss_changes":[2.9759497E2,1.9615562E2,2.6583008E1,3.1914322E1,5.1422462E1,1.261084E1,5.9730408E1,2.6382153E1,3.5763565E1,5.2633495E1,2.8302917E1,2.4583519E1,7.351074E-1,1.7276292E2,1.555835E1,1.2310963E0,2.051471E1,2.8457413E1,0E0,1.0370139E2,4.5786163E1,3.9002838E0,9.752602E1,4.802662E1,0E0,2.0727539E-1,1.5224731E1,1.353059E2,9.97139E0,7.325446E1,2.6086426E-1,0E0,0E0,0E0,0E0,0E0,0E0,0E0,0E0,0E0,0E0,0E0,0E0,0E0,0E0,0E0,0E0,0E0,0E0,0E0,0E0,0E0,0E0,0E0,0E0,0E0,0E0,0E0,0E0],"parents":[2147483647,0,0,1,1,2,2,3,3,4,4,5,5,6,6,7,7,8,8,9,9,10,10,11,11,12,12,13,13,14,14,15,15,16,16,17,17,19,19,20,20,21,21,22,22,23,23,25,25,26,26,27,27,28,28,29,29,30,30],"right_children":[2,4,6,8,10,12,14,16,18,20,22,24,26,28,30,32,34,36,-1,38,40,42,44,46,-1,48,50,52,54,56,58,-1,-1,-1,-1,-1,-1,-1,-1,-1,-1,-1,-1,-1,-1,-1,-1,-1,-1,-1,-1,-1,-1,-1,-1,-1,-1,-1,-1],"split_conditions":[-4.666908E-1,-1.239855E0,1.2139628E0,-5.410748E-1,-5.469276E-1,-5.459521E-1,-4.443765E-1,-2.345369E0,-5.1961476E-1,-5.3876424E-1,-4.6206275E-1,-8.893096E-1,8.634174E-1,1.5645082E0,-3.255812E-1,4.247818E-1,-2.6056162E-1,1E0,-5.1884063E-2,-8.893096E-1,1E0,-1.116603E0,-4.493818E-1,-8.602567E-1,-5.605188E-2,1E0,-3.216477E-1,-3.700588E-1,1E0,-3.5419074E-1,-2.915913E-1,-4.8260704E-2,2.0902636E-2,3.0164028E-2,9.540801E-2,1.6946706E-1,-5.3000428E-2,-2.0339713E-2,1.411015E-1,-3.2664474E-2,8.780864E-2,-3.105101E-2,-5.2987542E-2,1.0398904E-1,-5.092386E-2,-5.4643672E-2,1.752209E-1,-5.666977E-2,-5.3855747E-2,-1.8204303E-2,-5.648716E-2,-3.704207E-2,1.20788865E-1,-5.672691E-2,-8.332833E-3,-5.639882E-2,6.963526E-2,-4.751263E-2,-5.6794424E-2],"split_indices":[12,8,8,13,13,13,12,1,13,8,13,8,8,8,17,17,6,22,0,8,22,17,13,2,0,30,12,11,30,11,17,0,0,0,0,0,0,0,0,0,0,0,0,0,0,0,0,0,0,0,0,0,0,0,0,0,0,0,0],"split_type":[0,0,0,0,0,0,0,0,0,0,0,0,0,0,0,0,0,0,0,0,0,0,0,0,0,0,0,0,0,0,0,0,0,0,0,0,0,0,0,0,0,0,0,0,0,0,0,0,0,0,0,0,0,0,0,0,0,0,0],"sum_hessian":[1.5370569E4,1.6886606E3,1.3681909E4,3.008923E2,1.3877683E3,1.0782494E4,2.8994153E3,2.274105E2,7.3481804E1,5.27128E2,8.606404E2,1.0105348E2,1.068144E4,7.256451E2,2.1737703E3,2.9210897E1,1.9819962E2,6.3636307E1,9.845496E0,1.6217932E2,3.6494867E2,6.6406085E2,1.9657951E2,3.5163242E1,6.589024E1,9.180549E3,1.5008911E3,2.2051106E2,5.0513403E2,2.864609E2,1.8873093E3,2.692945E1,2.2814472E0,1.1367872E2,8.452089E1,5.7720093E1,5.9162126E0,9.4962074E1,6.721725E1,3.310523E2,3.3896378E1,1.00710884E2,5.6335E2,5.6005074E1,1.4057443E2,2.0033413E1,1.5129829E1,8.460518E3,7.2003156E2,1.1357666E2,1.3873145E3,9.394225E1,1.2656881E2,4.5778622E2,4.7347805E1,2.2972815E2,5.6732758E1,6.887147E1,1.8184379E3],"tree_param":{"num_deleted":"0","num_feature":"33","num_nodes":"59","size_leaf_vector":"1"}},{"base_weights":[-2.0416208E-1,6.649833E-1,-2.9981312E-1,9.7436744E-1,5.862132E-1,-4.5736033E-1,-1.1275675E-1,1.2206643E0,1.26067E-1,8.341051E-1,4.7471634E-1,1.5792418E-1,-5.126366E-1,6.5211344E-1,-4.5552027E-1,1.7347534E0,1.1167195E0,-1.2830715E-1,1.5328428E0,6.1828274E-1,1.1412933E0,2.6145978E-2,5.922996E-1,6.758413E-2,1.703856E0,-2.8469637E-1,-5.569088E-1,1.1843069E0,-2.5121665E-1,1.03841186E-1,-5.093156E-1,9.51177E-2,1.9352591E-1,4.1341953E-2,1.2006742E-1,-3.064672E-2,1.7166921E-1,1.646534E-1,1.7238628E-2,-7.4173124E-3,1.15697205E-1,1.4984545E-1,3.1582948E-2,-1.7195815E-2,1.2860392E-1,6.583022E-2,4.058439E-3,2.9558538E-2,-4.276214E-2,1.7779101E-1,-3.0911446E-2,-4.5554146E-2,-5.2054925E-3,-4.439367E-2,-5.640322E-2,1.2492181E-1,-1.9661667E-2,8.848698E-2,-3.9284483E-2,7.406842E-2,-3.507953E-2,-3.2865863E-2,-5.6428947E-2],"categories":[],"categories_nodes":[],"categories_segments":[],"categories_sizes":[],"default_left":[0,0,0,0,0,0,0,0,0,0,0,0,0,0,0,0,0,0,0,0,0,0,0,0,0,0,0,0,0,0,0,0,0,0,0,0,0,0,0,0,0,0,0,0,0,0,0,0,0,0,0,0,0,0,0,0,0,0,0,0,0,0,0],"id":23,"left_children":[1,3,5,7,9,11,13,15,17,19,21,23,25,27,29,31,33,35,37,39,41,43,45,47,49,51,53,55,57,59,61,-1,-1,-1,-1,-1,-1,-1,-1,-1,-1,-1,-1,-1,-1,-1,-1,-1,-1,-1,-1,-1,-1,-1,-1,-1,-1,-1,-1,-1,-1,-1,-1],"loss_changes":[1.3715975E3,3.929254E1,4.3791565E2,6.8886444E1,3.570941E1,2.7443298E2,1.7819224E3,1.174118E1,2.7202787E1,2.607547E1,4.763179E1,9.285934E1,7.4537476E1,1.01148914E3,1.4127979E2,4.639183E0,1.2241394E1,2.1837524E1,1.5155811E0,8.940161E1,4.83228E1,4.7309734E1,2.6035187E1,7.1259056E1,6.022461E0,4.7904953E1,4.7368164E0,1.1890442E2,1.2594971E2,1.197205E2,4.233789E1,0E0,0E0,0E0,0E0,0E0,0E0,0E0,0E0,0E0,0E0,0E0,0E0,0E0,0E0,0E0,0E0,0E0,0E0,0E0,0E0,0E0,0E0,0E0,0E0,0E0,0E0,0E0,0E0,0E0,0E0,0E0,0E0],"parents":[2147483647,0,0,1,1,2,2,3,3,4,4,5,5,6,6,7,7,8,8,9,9,10,10,11,11,12,12,13,13,14,14,15,15,16,16,17,17,18,18,19,19,20,20,21,21,22,22,23,23,24,24,25,25,26,26,27,27,28,28,29,29,30,30],"right_children":[2,4,6,8,10,12,14,16,18,20,22,24,26,28,30,32,34,36,38,40,42,44,46,48,50,52,54,56,58,60,62,-1,-1,-1,-1,-1,-1,-1,-1,-1,-1,-1,-1,-1,-1,-1,-1,-1,-1,-1,-1,-1,-1,-1,-1,-1,-1,-1,-1,-1,-1,-1,-1],"split_conditions":[-5.4400116E-1,-9.858694E-1,5.12872E-1,-4.666908E-1,-1.239855E0,-4.666908E-1,-2.8062767E-1,-5.3876424E-1,1E0,-4.666908E-1,-8.893096E-1,1.6232659E-1,-5.303448E-1,1.5645082E0,-4.4933522E-1,-7.201145E-2,2.1943165E-1,1E0,-9.9787724E-1,-1.6960372E0,-5.4497665E-1,1E0,1.6232659E-1,-6.983625E-1,-5.1766384E-1,-4.386365E-1,-5.2546746E-1,1.924803E0,-5.381484E-1,-1.9066174E-1,-1.0594256E-1,9.51177E-2,1.9352591E-1,4.1341953E-2,1.2006742E-1,-3.064672E-2,1.7166921E-1,1.646534E-1,1.7238628E-2,-7.4173124E-3,1.15697205E-1,1.4984545E-1,3.1582948E-2,-1.7195815E-2,1.2860392E-1,6.583022E-2,4.058439E-3,2.9558538E-2,-4.276214E-2,1.7779101E-1,-3.0911446E-2,-4.5554146E-2,-5.2054925E-3,-4.439367E-2,-5.640322E-2,1.2492181E-1,-1.9661667E-2,8.848698E-2,-3.9284483E-2,7.406842E-2,-3.507953E-2,-3.2865863E-2,-5.6428947E-2],"split_indices":[13,17,8,12,8,12,13,8,23,12,8,8,13,8,12,5,5,22,17,2,13,32,8,17,13,17,13,18,13,17,12,0,0,0,0,0,0,0,0,0,0,0,0,0,0,0,0,0,0,0,0,0,0,0,0,0,0,0,0,0,0,0,0],"split_type":[0,0,0,0,0,0,0,0,0,0,0,0,0,0,0,0,0,0,0,0,0,0,0,0,0,0,0,0,0,0,0,0,0,0,0,0,0,0,0,0,0,0,0,0,0,0,0,0,0,0,0,0,0,0,0,0,0,0,0,0,0,0,0],"sum_hessian":[1.6495105E4,1.634754E3,1.4860352E4,3.294414E2,1.3053126E3,8.065654E3,6.7946973E3,2.5497316E2,7.446824E1,4.0294995E2,9.0236273E2,6.6472235E2,7.4009316E3,2.1023782E3,4.692319E3,4.0244244E1,2.1472891E2,6.3834442E1,1.0633794E1,2.3844058E2,1.6450935E2,1.8766371E2,7.1469904E2,6.290085E2,3.571383E1,1.2048844E3,6.196047E3,1.3227651E3,7.7961316E2,4.1159915E2,4.2807197E3,9.370038E0,3.0874207E1,2.3530985E1,1.9119794E2,5.897362E1,4.860821E0,9.6196165E0,1.0141771E0,1.0470732E2,1.3373326E2,1.1425729E2,5.0252064E1,1.6291125E2,2.4752459E1,6.3816156E2,7.653747E1,4.3098065E2,1.9802788E2,3.4559223E1,1.1546074E0,6.941573E2,5.1072705E2,3.7126962E2,5.8247773E3,1.2634703E3,5.929486E1,8.5834465E1,6.937787E2,1.7118228E2,2.4041687E2,1.0003414E3,3.2803787E3],"tree_param":{"num_deleted":"0","num_feature":"33","num_nodes":"63","size_leaf_vector":"1"}},{"base_weights":[1.1555423E0,1.216402E0,-2.8252405E-1,9.2387927E-1,1.262166E0,-4.077184E-1,1.0097524E0,2.471391E-1,1.0137945E0,1.5037271E0,1.1527201E0,1.046115E-1,-5.2973276E-1,1.5731075E0,-2.7750775E-1,6.2207144E-1,-3.6373624E-1,6.503702E-1,1.1174308E0,1.5373677E0,1.0636874E0,7.442494E-1,1.289645E0,-2.032806E-2,1.2854093E0,-5.671226E-2,-2.5419986E-1,1.614531E0,2.1659456E-1,-5.4024298E-2,1.0372477E0,1.3136809E-1,-2.9628912E-2,-5.1619925E-2,3.163768E-2,3.298086E-2,1.2361423E-1,1.2686212E-1,8.658218E-2,1.3791631E-1,1.5981609E-1,7.5009004E-3,1.6904795E-1,1.11803055E-1,-6.8255053E-3,1.3109866E-1,1.0670657E-2,-1.9121172E-2,1.044892E-1,2.038111E-1,-3.3196546E-2,1.4272633E-1,-5.60729E-2,1.637614E-1,1.5678631E-2,6.6404454E-2,-3.300835E-2,9.599858E-3,1.3330303E-1],"categories":[],"categories_nodes":[],"categories_segments":[],"categories_sizes":[],"default_left":[0,0,0,0,0,0,0,0,0,0,0,0,0,0,0,0,0,0,0,0,0,0,0,0,0,0,0,0,0,0,0,0,0,0,0,0,0,0,0,0,0,0,0,0,0,0,0,0,0,0,0,0,0,0,0,0,0,0,0],"id":24,"left_children":[1,3,5,7,9,11,13,15,17,19,21,23,25,27,29,31,33,35,37,39,41,43,45,47,49,-1,51,53,55,-1,57,-1,-1,-1,-1,-1,-1,-1,-1,-1,-1,-1,-1,-1,-1,-1,-1,-1,-1,-1,-1,-1,-1,-1,-1,-1,-1,-1,-1],"loss_changes":[2.2466172E3,3.2847266E2,1.6913748E2,2.0267407E2,5.611289E2,5.9535126E1,6.744267E1,9.011076E1,1.10135254E2,9.658301E1,8.187422E2,2.714969E1,7.774536E0,3.2702484E0,1.0570173E1,1.5508276E2,1.57057E1,1.2268204E2,8.597412E1,5.7055664E1,2.9389587E2,1.1182386E3,2.769336E2,3.06433E1,2.2112053E1,0E0,4.9071484E1,1.8414917E0,9.686451E-1,0E0,1.3110423E0,0E0,0E0,0E0,0E0,0E0,0E0,0E0,0E0,0E0,0E0,0E0,0E0,0E0,0E0,0E0,0E0,0E0,0E0,0E0,0E0,0E0,0E0,0E0,0E0,0E0,0E0,0E0,0E0],"parents":[2147483647,0,0,1,1,2,2,3,3,4,4,5,5,6,6,7,7,8,8,9,9,10,10,11,11,12,12,13,13,14,14,15,15,16,16,17,17,18,18,19,19,20,20,21,21,22,22,23,23,24,24,26,26,27,27,28,28,30,30],"right_children":[2,4,6,8,10,12,14,16,18,20,22,24,26,28,30,32,34,36,38,40,42,44,46,48,50,-1,52,54,56,-1,58,-1,-1,-1,-1,-1,-1,-1,-1,-1,-1,-1,-1,-1,-1,-1,-1,-1,-1,-1,-1,-1,-1,-1,-1,-1,-1,-1,-1],"split_conditions":[1.524944E0,-4.6421146E-1,1.5645082E0,-1.239855E0,-4.952283E-1,1.7697837E0,-2.3319678E-1,-1.5811219E0,-5.469276E-1,5.12872E-1,-1.8821882E-1,1E0,1E0,-6.467581E-1,2.900339E0,-5.459521E-1,-4.666908E-1,9.45711E-1,-5.127865E-1,-4.5677334E-1,1.5645082E0,-3.6646792E-1,2.2184184E0,1E0,2.2184184E0,-5.671226E-2,2.0185254E0,4.709513E-1,4.4938037E-1,-5.4024298E-2,-2.0778069E-1,1.3136809E-1,-2.9628912E-2,-5.1619925E-2,3.163768E-2,3.298086E-2,1.2361423E-1,1.2686212E-1,8.658218E-2,1.3791631E-1,1.5981609E-1,7.5009004E-3,1.6904795E-1,1.11803055E-1,-6.8255053E-3,1.3109866E-1,1.0670657E-2,-1.9121172E-2,1.044892E-1,2.038111E-1,-3.3196546E-2,1.4272633E-1,-5.60729E-2,1.637614E-1,1.5678631E-2,6.6404454E-2,-3.300835E-2,9.599858E-3,1.3330303E-1],"split_indices":[13,12,8,8,13,13,11,2,13,8,8,31,31,6,13,13,12,1,13,12,8,13,11,28,11,0,13,16,10,0,4,0,0,0,0,0,0,0,0,0,0,0,0,0,0,0,0,0,0,0,0,0,0,0,0,0,0,0,0],"split_type":[0,0,0,0,0,0,0,0,0,0,0,0,0,0,0,0,0,0,0,0,0,0,0,0,0,0,0,0,0,0,0,0,0,0,0,0,0,0,0,0,0,0,0,0,0,0,0,0,0,0,0,0,0,0,0,0,0,0,0],"sum_hessian":[2.5664695E4,2.4622799E4,1.0418971E3,3.3338818E3,2.1288916E4,9.504984E2,9.1398735E1,3.914454E2,2.9424365E3,6.6340337E3,1.4654883E4,1.8285321E2,7.676452E2,6.3421127E1,2.7977606E1,2.4255557E2,1.4888983E2,6.5451337E2,2.287923E3,6.160571E3,4.7346298E2,3.6808132E3,1.0974069E4,1.6624564E2,1.6607574E1,6.7499066E2,9.2654526E1,6.1357265E1,2.0638638E0,2.380884E1,4.168766E0,1.3811324E2,1.04442345E2,1.2182171E2,2.706813E1,4.240284E2,2.3048492E2,1.4266285E3,8.612947E2,1.716732E3,4.443839E3,1.8413498E2,2.89328E2,2.5207856E3,1.1600276E3,1.0779487E4,1.945823E2,1.4397028E2,2.227536E1,1.1155731E1,5.4518423E0,1.3722677E1,7.893185E1,6.027937E1,1.0778959E0,1.0168736E0,1.0469902E0,1.3134906E0,2.8552754E0],"tree_param":{"num_deleted":"0","num_feature":"33","num_nodes":"59","size_leaf_vector":"1"}},{"base_weights":[-1.8707285E-2,-4.5647675E-1,1.5507488E-1,-5.13947E-1,-3.7381846E-1,7.003903E-1,4.279652E-2,-5.475434E-1,-4.580018E-1,-9.148825E-2,-4.3906102E-1,7.853004E-1,-4.3052915E-1,-8.6747356E-2,6.104305E-1,-5.581466E-1,-1.9688424E-1,-4.9831167E-1,-2.208961E-1,-1.7557782E-1,2.0264595E0,-6.011316E-2,-5.022504E-1,5.05034E-1,1.1220591E0,-5.6117963E-2,4.558478E-1,8.332067E-2,-2.0816796E-1,8.548281E-1,-2.1847157E-1,-5.6294817E-2,-4.918245E-2,9.8876625E-2,-5.5576738E-2,-5.165158E-2,-2.1135809E-2,-4.5634817E-2,1.1945885E-1,-3.690434E-2,8.839146E-2,2.4735455E-1,-3.892077E-2,3.5791557E-2,-5.5034507E-2,-5.176648E-2,-2.5038151E-2,8.389189E-2,-2.3359466E-2,1.50919E-1,7.139442E-2,2.0332415E-1,-5.2649863E-2,-1.0479155E-3,6.5742426E-2,-3.4863126E-2,1.9477904E-2,1.18838266E-1,1.4660348E-2,7.593969E-2,-4.156934E-2],"categories":[],"categories_nodes":[],"categories_segments":[],"categories_sizes":[],"default_left":[0,0,0,0,0,0,0,0,0,0,0,0,0,0,0,0,0,0,0,0,0,0,0,0,0,0,0,0,0,0,0,0,0,0,0,0,0,0,0,0,0,0,0,0,0,0,0,0,0,0,0,0,0,0,0,0,0,0,0,0,0],"id":25,"left_children":[1,3,5,7,9,11,13,15,17,19,21,23,25,27,29,31,33,35,37,39,41,43,45,47,49,-1,51,53,55,57,59,-1,-1,-1,-1,-1,-1,-1,-1,-1,-1,-1,-1,-1,-1,-1,-1,-1,-1,-1,-1,-1,-1,-1,-1,-1,-1,-1,-1,-1,-1],"loss_changes":[1.3208894E3,2.3245605E1,7.609527E2,5.2144775E0,3.73002E1,2.041112E2,7.580215E2,6.6257935E0,1.0375641E1,6.835E1,3.939331E1,1.857633E2,1.7492773E1,1.733383E2,3.882188E2,2.8289795E-1,2.3831722E1,4.7848663E0,5.4272873E1,7.578217E1,1.6794468E1,4.8649715E1,5.348297E0,2.6636905E2,1.4047083E2,0E0,3.1554337E1,1.8832315E2,2.7725516E2,3.4932593E2,8.458531E1,0E0,0E0,0E0,0E0,0E0,0E0,0E0,0E0,0E0,0E0,0E0,0E0,0E0,0E0,0E0,0E0,0E0,0E0,0E0,0E0,0E0,0E0,0E0,0E0,0E0,0E0,0E0,0E0,0E0,0E0],"parents":[2147483647,0,0,1,1,2,2,3,3,4,4,5,5,6,6,7,7,8,8,9,9,10,10,11,11,12,12,13,13,14,14,15,15,16,16,17,17,18,18,19,19,20,20,21,21,22,22,23,23,24,24,26,26,27,27,28,28,29,29,30,30],"right_children":[2,4,6,8,10,12,14,16,18,20,22,24,26,28,30,32,34,36,38,40,42,44,46,48,50,-1,52,54,56,58,60,-1,-1,-1,-1,-1,-1,-1,-1,-1,-1,-1,-1,-1,-1,-1,-1,-1,-1,-1,-1,-1,-1,-1,-1,-1,-1,-1,-1,-1,-1],"split_conditions":[-5.0108105E-1,-5.274184E-1,-8.893096E-1,-1.8821882E-1,-4.6297178E-1,-1.840574E-1,1.1201292E0,-3.422897E-1,1.1252536E0,-3.660918E-1,-1.239855E0,-3.87928E-1,1E0,5.12872E-1,2.900339E0,-5.303448E-1,-2.1258688E-1,2.1138113E0,1.6232659E-1,-5.0790924E-1,-5.24492E-1,-2.3897298E-1,-2.9865253E-1,-4.6011183E-1,-1.239855E0,-5.6117963E-2,1.5291105E-1,5.8935523E-2,1.5645082E0,1.2139628E0,6.48075E-2,-5.6294817E-2,-4.918245E-2,9.8876625E-2,-5.5576738E-2,-5.165158E-2,-2.1135809E-2,-4.5634817E-2,1.1945885E-1,-3.690434E-2,8.839146E-2,2.4735455E-1,-3.892077E-2,3.5791557E-2,-5.5034507E-2,-5.176648E-2,-2.5038151E-2,8.389189E-2,-2.3359466E-2,1.50919E-1,7.139442E-2,2.0332415E-1,-5.2649863E-2,-1.0479155E-3,6.5742426E-2,-3.4863126E-2,1.9477904E-2,1.18838266E-1,1.4660348E-2,7.593969E-2,-4.156934E-2],"split_indices":[13,13,8,8,12,13,13,11,2,11,8,13,22,8,13,13,6,5,8,13,13,6,11,13,8,0,17,12,8,8,17,0,0,0,0,0,0,0,0,0,0,0,0,0,0,0,0,0,0,0,0,0,0,0,0,0,0,0,0,0,0],"split_type":[0,0,0,0,0,0,0,0,0,0,0,0,0,0,0,0,0,0,0,0,0,0,0,0,0,0,0,0,0,0,0,0,0,0,0,0,0,0,0,0,0,0,0,0,0,0,0,0,0,0,0,0,0,0,0,0,0,0,0,0,0],"sum_hessian":[1.736071E4,4.9328613E3,1.2427851E4,2.9066926E3,2.0261687E3,2.121052E3,1.0306799E4,1.8105981E3,1.0960945E3,3.807811E2,1.6453876E3,1.9732079E3,1.4784398E2,8.392363E3,1.914435E3,1.7568821E3,5.3715992E1,9.358849E2,1.6020953E2,3.6712222E2,1.3658874E1,2.3543437E2,1.4099532E3,1.0782979E3,8.949101E2,1.2917125E2,1.8672739E1,3.495999E3,4.8963647E3,1.4784811E3,4.3595398E2,1.631292E3,1.2559013E2,1.2073469E1,4.1642525E1,8.7930255E2,5.658233E1,