{"learner":{"attributes":{"scikit_learn":"{\"_estimator_type\": \"classifier\"}"},"feature_names":[],"feature_types":[],"gradient_booster":{"model":{"gbtree_model_param":{"num_parallel_tree":"1","num_trees":"700"},"iteration_indptr":[0,7,14,21,28,35,42,49,56,63,70,77,84,91,98,105,112,119,126,133,140,147,154,161,168,175,182,189,196,203,210,217,224,231,238,245,252,259,266,273,280,287,294,301,308,315,322,329,336,343,350,357,364,371,378,385,392,399,406,413,420,427,434,441,448,455,462,469,476,483,490,497,504,511,518,525,532,539,546,553,560,567,574,581,588,595,602,609,616,623,630,637,644,651,658,665,672,679,686,693,700],"tree_info":[0,1,2,3,4,5,6,0,1,2,3,4,5,6,0,1,2,3,4,5,6,0,1,2,3,4,5,6,0,1,2,3,4,5,6,0,1,2,3,4,5,6,0,1,2,3,4,5,6,0,1,2,3,4,5,6,0,1,2,3,4,5,6,0,1,2,3,4,5,6,0,1,2,3,4,5,6,0,1,2,3,4,5,6,0,1,2,3,4,5,6,0,1,2,3,4,5,6,0,1,2,3,4,5,6,0,1,2,3,4,5,6,0,1,2,3,4,5,6,0,1,2,3,4,5,6,0,1,2,3,4,5,6,0,1,2,3,4,5,6,0,1,2,3,4,5,6,0,1,2,3,4,5,6,0,1,2,3,4,5,6,0,1,2,3,4,5,6,0,1,2,3,4,5,6,0,1,2,3,4,5,6,0,1,2,3,4,5,6,0,1,2,3,4,5,6,0,1,2,3,4,5,6,0,1,2,3,4,5,6,0,1,2,3,4,5,6,0,1,2,3,4,5,6,0,1,2,3,4,5,6,0,1,2,3,4,5,6,0,1,2,3,4,5,6,0,1,2,3,4,5,6,0,1,2,3,4,5,6,0,1,2,3,4,5,6,0,1,2,3,4,5,6,0,1,2,3,4,5,6,0,1,2,3,4,5,6,0,1,2,3,4,5,6,0,1,2,3,4,5,6,0,1,2,3,4,5,6,0,1,2,3,4,5,6,0,1,2,3,4,5,6,0,1,2,3,4,5,6,0,1,2,3,4,5,6,0,1,2,3,4,5,6,0,1,2,3,4,5,6,0,1,2,3,4,5,6,0,1,2,3,4,5,6,0,1,2,3,4,5,6,0,1,2,3,4,5,6,0,1,2,3,4,5,6,0,1,2,3,4,5,6,0,1,2,3,4,5,6,0,1,2,3,4,5,6,0,1,2,3,4,5,6,0,1,2,3,4,5,6,0,1,2,3,4,5,6,0,1,2,3,4,5,6,0,1,2,3,4,5,6,0,1,2,3,4,5,6,0,1,2,3,4,5,6,0,1,2,3,4,5,6,0,1,2,3,4,5,6,0,1,2,3,4,5,6,0,1,2,3,4,5,6,0,1,2,3,4,5,6,0,1,2,3,4,5,6,0,1,2,3,4,5,6,0,1,2,3,4,5,6,0,1,2,3,4,5,6,0,1,2,3,4,5,6,0,1,2,3,4,5,6,0,1,2,3,4,5,6,0,1,2,3,4,5,6,0,1,2,3,4,5,6,0,1,2,3,4,5,6,0,1,2,3,4,5,6,0,1,2,3,4,5,6,0,1,2,3,4,5,6,0,1,2,3,4,5,6,0,1,2,3,4,5,6,0,1,2,3,4,5,6,0,1,2,3,4,5,6,0,1,2,3,4,5,6,0,1,2,3,4,5,6,0,1,2,3,4,5,6,0,1,2,3,4,5,6,0,1,2,3,4,5,6,0,1,2,3,4,5,6,0,1,2,3,4,5,6,0,1,2,3,4,5,6,0,1,2,3,4,5,6,0,1,2,3,4,5,6,0,1,2,3,4,5,6,0,1,2,3,4,5,6,0,1,2,3,4,5,6],"trees":[{"base_weights":[-5.052838E-1,-3.4307596E-1,-5.70168E-1,-3.888659E-1,1.0013331E0,-4.671855E-1,-5.8193076E-2,-4.344275E-1,7.520387E-1,2.5163226E0,1.6479015E-1,-8.644049E-2,-5.300261E-1,-4.696351E-1,6.013193E-1,2.6317134E0,-1.4550495E-1,3.485477E-1,2.677719E0,5.0401664E-1,-5.651621E-2,1.7251184E0,-4.7287717E-1,-4.1779706E-1,-5.681252E-1,6.8775825E-2,-4.875914E-2,-5.2664578E-2,1.12111084E-1,3.1481907E-1,1.6478468E-1,1.4992295E-1,-3.5047363E-2,-4.012739E-2,1.10526316E-1,2.8643605E-1,1.0123076E-1,1.02537096E-1,-3.39137E-2,-5.2078772E-2,2.6061738E-1,-5.4188758E-2,8.531856E-2,-4.824088E-2,1.13799624E-1,-5.7696994E-2,-4.0442947E-2],"categories":[],"categories_nodes":[],"categories_segments":[],"categories_sizes":[],"default_left":[0,0,0,0,0,0,0,0,0,0,0,0,0,0,0,0,0,0,0,0,0,0,0,0,0,0,0,0,0,0,0,0,0,0,0,0,0,0,0,0,0,0,0,0,0,0,0],"id":0,"left_children":[1,3,5,7,9,11,-1,13,15,17,19,21,23,25,27,29,31,33,35,37,-1,39,41,43,45,-1,-1,-1,-1,-1,-1,-1,-1,-1,-1,-1,-1,-1,-1,-1,-1,-1,-1,-1,-1,-1,-1],"loss_changes":[1.7059912E2,2.8597552E2,1.3767822E1,2.3356964E2,1.935939E2,2.8502075E1,0E0,1.5764728E2,2.9169867E2,1.8095459E1,2.4970964E1,1.199819E2,4.140808E0,8.708276E1,8.402545E1,2.319577E1,4.024357E1,3.2342024E0,1.2787994E1,3.0499464E1,0E0,6.1003E1,1.3373014E1,2.7015133E1,8.694153E-1,0E0,0E0,0E0,0E0,0E0,0E0,0E0,0E0,0E0,0E0,0E0,0E0,0E0,0E0,0E0,0E0,0E0,0E0,0E0,0E0,0E0,0E0],"parents":[2147483647,0,0,1,1,2,2,3,3,4,4,5,5,7,7,8,8,9,9,10,10,11,11,12,12,13,13,14,14,15,15,16,16,17,17,18,18,19,19,21,21,22,22,23,23,24,24],"right_children":[2,4,6,8,10,12,-1,14,16,18,20,22,24,26,28,30,32,34,36,38,-1,40,42,44,46,-1,-1,-1,-1,-1,-1,-1,-1,-1,-1,-1,-1,-1,-1,-1,-1,-1,-1,-1,-1,-1,-1],"split_conditions":[-7.5296575E-1,1E0,-6.0182357E-1,1E0,-8.0267876E-1,-8.9155376E-1,-5.8193076E-2,1E0,-8.1296533E-1,-8.19823E-1,1.2107488E0,-6.429222E-1,-7.666757E-1,-1.2419375E0,-1.0724882E0,-9.491854E-1,-8.9155376E-1,-2.0607403E-1,-6.458068E-1,7.0798486E-1,-5.651621E-2,-7.105398E-1,7.244684E-2,1E0,1E0,6.8775825E-2,-4.875914E-2,-5.2664578E-2,1.12111084E-1,3.1481907E-1,1.6478468E-1,1.4992295E-1,-3.5047363E-2,-4.012739E-2,1.10526316E-1,2.8643605E-1,1.0123076E-1,1.02537096E-1,-3.39137E-2,-5.2078772E-2,2.6061738E-1,-5.4188758E-2,8.531856E-2,-4.824088E-2,1.13799624E-1,-5.7696994E-2,-4.0442947E-2],"split_indices":[13,30,13,31,12,8,0,29,12,12,8,11,12,8,6,13,8,18,11,6,0,13,11,20,29,0,0,0,0,0,0,0,0,0,0,0,0,0,0,0,0,0,0,0,0,0,0],"split_type":[0,0,0,0,0,0,0,0,0,0,0,0,0,0,0,0,0,0,0,0,0,0,0,0,0,0,0,0,0,0,0,0,0,0,0,0,0,0,0,0,0,0,0,0,0,0,0],"sum_hessian":[1.6226939E4,4.6381226E3,1.1588817E4,4.486041E3,1.5208165E2,1.1921633E3,1.0396653E4,4.3143677E3,1.7167348E2,5.338776E1,9.8693886E1,1.692245E2,1.02293884E3,4.1730615E3,1.4130614E2,5.4857147E1,1.1681634E2,3.9183676E0,4.946939E1,6.759184E1,3.1102043E1,2.9142859E1,1.4008165E2,2.6228574E2,7.6065314E2,6.3183678E1,4.109878E3,4.457143E1,9.67347E1,3.4530613E1,2.0326532E1,1.2244899E1,1.04571434E2,2.2040818E0,1.7142859E0,4.383674E1,5.632653E0,4.1632656E1,2.5959185E1,8.326531E0,2.0816328E1,1.337143E2,6.3673472E0,2.524898E2,9.795919E0,7.192654E2,4.1387756E1],"tree_param":{"num_deleted":"0","num_feature":"32","num_nodes":"47","size_leaf_vector":"1"}},{"base_weights":[-4.4427788E-1,-2.7463847E-1,-5.553331E-1,1.1980649E0,-3.4662566E-1,-2.706002E-1,-5.7722884E-1,3.1714888E0,9.835449E-1,-3.7805584E-1,4.0234533E-1,6.1116105E-1,-5.271582E-1,-4.8234358E-1,-5.787999E-1,5.7798166E-2,3.2652912E-1,4.484934E-1,2.152941E0,-2.7903593E-1,-4.9722528E-1,1.1745183E0,-2.4079517E-2,2.7263157E0,2.8078452E-1,-5.821156E-2,-1.2265602E-1,5.313868E-1,-5.7920575E-2,-5.8200296E-2,-5.5268806E-1,9.7702935E-2,-2.182704E-2,2.7834564E-1,-5.4885406E-2,-1.7815527E-2,-4.7745574E-2,-1.0844762E-2,-5.276826E-2,1.5894143E-1,-1.2017183E-3,1.1079136E-1,-1.8296031E-2,2.9279187E-1,-3.211009E-2,2.0328416E-2,2.2411065E-1,2.7510914E-1,-3.3485193E-2,-5.17321E-2,1.9534883E-1,-3.3261012E-2,-5.7495322E-2],"categories":[],"categories_nodes":[],"categories_segments":[],"categories_sizes":[],"default_left":[0,0,0,0,0,0,0,0,0,0,0,0,0,0,0,0,0,0,0,0,0,0,0,0,0,0,0,0,0,0,0,0,0,0,0,0,0,0,0,0,0,0,0,0,0,0,0,0,0,0,0,0,0],"id":1,"left_children":[1,3,5,7,9,11,13,15,17,19,21,23,25,27,29,-1,-1,31,33,35,37,39,41,43,45,-1,47,49,-1,-1,51,-1,-1,-1,-1,-1,-1,-1,-1,-1,-1,-1,-1,-1,-1,-1,-1,-1,-1,-1,-1,-1,-1],"loss_changes":[3.055713E2,6.8129834E2,6.0981445E1,1.23683655E2,1.4431146E2,1.59163E2,1.078125E0,5.1478577E0,1.6897873E2,6.92204E1,8.139923E1,1.1014363E2,1.2031448E1,1.5459431E1,4.272461E-1,0E0,0E0,6.632944E1,1.4632724E2,6.422052E1,3.1513916E1,4.331037E1,2.9012053E1,1.4042511E1,2.0569077E1,0E0,4.1404297E1,2.185931E1,0E0,0E0,4.6989136E0,0E0,0E0,0E0,0E0,0E0,0E0,0E0,0E0,0E0,0E0,0E0,0E0,0E0,0E0,0E0,0E0,0E0,0E0,0E0,0E0,0E0,0E0],"parents":[2147483647,0,0,1,1,2,2,3,3,4,4,5,5,6,6,7,7,8,8,9,9,10,10,11,11,12,12,13,13,14,14,17,17,18,18,19,19,20,20,21,21,22,22,23,23,24,24,26,26,27,27,30,30],"right_children":[2,4,6,8,10,12,14,16,18,20,22,24,26,28,30,-1,-1,32,34,36,38,40,42,44,46,-1,48,50,-1,-1,52,-1,-1,-1,-1,-1,-1,-1,-1,-1,-1,-1,-1,-1,-1,-1,-1,-1,-1,-1,-1,-1,-1],"split_conditions":[-5.8666056E-1,-5.4117E-1,-6.0182357E-1,-8.842208E-1,1E0,-8.9155376E-1,-5.832622E-1,-1.3210794E0,-3.3931345E-1,8.2889545E-1,-8.020206E-1,5.184579E-2,1E0,-5.2836996E-1,1E0,5.7798166E-2,3.2652912E-1,-7.105398E-1,1.0085503E-1,-7.3581594E-1,-1.9078623E-1,3.4571186E-1,-7.975354E-1,1E0,1.9770852E0,-5.821156E-2,-5.4117E-1,-5.3865653E-1,-5.7920575E-2,-5.8200296E-2,-2.425294E-1,9.7702935E-2,-2.182704E-2,2.7834564E-1,-5.4885406E-2,-1.7815527E-2,-4.7745574E-2,-1.0844762E-2,-5.276826E-2,1.5894143E-1,-1.2017183E-3,1.1079136E-1,-1.8296031E-2,2.9279187E-1,-3.211009E-2,2.0328416E-2,2.2411065E-1,2.7510914E-1,-3.3485193E-2,-5.17321E-2,1.9534883E-1,-3.3261012E-2,-5.7495322E-2],"split_indices":[12,8,13,13,29,8,13,2,13,0,13,16,20,12,31,0,0,13,13,12,8,17,12,29,4,0,8,12,0,0,13,0,0,0,0,0,0,0,0,0,0,0,0,0,0,0,0,0,0,0,0,0,0],"split_type":[0,0,0,0,0,0,0,0,0,0,0,0,0,0,0,0,0,0,0,0,0,0,0,0,0,0,0,0,0,0,0,0,0,0,0,0,0,0,0,0,0,0,0,0,0,0,0,0,0,0,0,0,0],"sum_hessian":[1.6226939E4,6.4214697E3,9.80547E3,2.9853064E2,6.122939E3,7.011429E2,9.104327E3,2.791837E1,2.7061227E2,5.876817E3,2.4612247E2,1.577143E2,5.434286E2,1.5330614E2,8.951021E3,1.2244899E0,2.669388E1,1.8661226E2,8.400001E1,3.211592E3,2.6652246E3,8.693878E1,1.5918369E2,2.0326532E1,1.3738777E2,4.7804086E2,6.538776E1,1.2979592E1,1.4032654E2,7.9540415E3,9.969797E2,1.0383674E2,8.277551E1,6.8081635E1,1.5918368E1,2.1303674E3,1.0812246E3,1.939592E2,2.4712654E3,6.416327E1,2.2775513E1,1.8857143E1,1.4032654E2,1.9102041E1,1.2244899E0,1.332245E2,4.1632657E0,3.6734695E0,6.171429E1,7.8367352E0,5.1428576E0,9.306123E1,9.0391846E2],"tree_param":{"num_deleted":"0","num_feature":"32","num_nodes":"53","size_leaf_vector":"1"}},{"base_weights":[-2.8757283E-1,1.4527073E0,-3.5606727E-1,6.579928E-1,2.1077688E0,-1.5778755E-1,-5.447609E-1,2.9520765E-1,6.0207194E-1,-5.483476E-2,2.239234E0,6.4746445E-1,-2.596224E-1,-4.5329702E-1,-5.730819E-1,9.334E-1,2.3914048E-1,2.4415092E0,1.2567325E0,-3.0488142E-1,9.781148E-1,-2.8849608E-1,2.874406E-1,-2.9355556E-1,-5.027439E-1,-5.442623E-1,-5.8255106E-1,2.162812E-1,7.0293374E-2,-2.7522952E-3,1.4392523E-1,1.8964846E-1,2.7822447E-1,1.9072315E-1,6.068259E-2,1.3154016E-1,-5.3405393E-2,1.3604341E-1,3.5654943E-2,-3.1583495E-2,1.8641103E-2,3.0527383E-1,2.0235961E-2,3.419267E-2,-4.1973434E-2,-3.9595913E-2,-5.7454407E-2,-4.2827554E-2,-5.8282237E-2,-5.827687E-2,-3.5311576E-2],"categories":[],"categories_nodes":[],"categories_segments":[],"categories_sizes":[],"default_left":[0,0,0,0,0,0,0,0,0,0,0,0,0,0,0,0,0,0,0,0,0,0,0,0,0,0,0,0,0,0,0,0,0,0,0,0,0,0,0,0,0,0,0,0,0,0,0,0,0,0,0],"id":2,"left_children":[1,3,5,7,9,11,13,-1,15,-1,17,19,21,23,25,27,29,31,33,35,37,39,41,43,45,47,49,-1,-1,-1,-1,-1,-1,-1,-1,-1,-1,-1,-1,-1,-1,-1,-1,-1,-1,-1,-1,-1,-1,-1,-1],"loss_changes":[1.9348795E3,3.1862537E2,5.8410645E2,3.4040916E1,1.1873291E2,6.246288E2,2.0463379E1,0E0,3.2703033E1,0E0,6.0693237E1,2.6959647E2,1.06876526E2,1.4830444E1,1.348999E0,3.89392E1,4.228957E1,4.3936523E1,2.287114E1,8.282579E1,1.5042383E2,8.344452E1,7.9245865E1,3.6277218E1,1.0864105E1,6.5708923E0,2.2949219E-2,0E0,0E0,0E0,0E0,0E0,0E0,0E0,0E0,0E0,0E0,0E0,0E0,0E0,0E0,0E0,0E0,0E0,0E0,0E0,0E0,0E0,0E0,0E0,0E0],"parents":[2147483647,0,0,1,1,2,2,3,3,4,4,5,5,6,6,8,8,10,10,11,11,12,12,13,13,14,14,15,15,16,16,17,17,18,18,19,19,20,20,21,21,22,22,23,23,24,24,25,25,26,26],"right_children":[2,4,6,8,10,12,14,-1,16,-1,18,20,22,24,26,28,30,32,34,36,38,40,42,44,46,48,50,-1,-1,-1,-1,-1,-1,-1,-1,-1,-1,-1,-1,-1,-1,-1,-1,-1,-1,-1,-1,-1,-1,-1,-1],"split_conditions":[-9.823306E-1,-2.9382411E-2,-2.73023E-1,-1.6040254E0,5.099813E-1,-5.4117E-1,4.7822647E-2,2.9520765E-1,1.5611326E0,-5.483476E-2,1E0,-5.8666056E-1,1E0,-8.9155376E-1,1.8826182E-1,-9.1681844E-1,3.8462397E-1,8.335986E-2,8.470415E-1,-1.5761412E0,-4.4670394E-1,1E0,-1.9078623E-1,3.1033321E-3,-5.131174E-1,-5.4117E-1,3.103079E0,2.162812E-1,7.0293374E-2,-2.7522952E-3,1.4392523E-1,1.8964846E-1,2.7822447E-1,1.9072315E-1,6.068259E-2,1.3154016E-1,-5.3405393E-2,1.3604341E-1,3.5654943E-2,-3.1583495E-2,1.8641103E-2,3.0527383E-1,2.0235961E-2,3.419267E-2,-4.1973434E-2,-3.9595913E-2,-5.7454407E-2,-4.2827554E-2,-5.8282237E-2,-5.827687E-2,-3.5311576E-2],"split_indices":[13,1,13,1,8,8,13,0,8,0,23,12,31,8,12,6,17,6,10,2,13,29,8,12,11,8,5,0,0,0,0,0,0,0,0,0,0,0,0,0,0,0,0,0,0,0,0,0,0,0,0],"split_type":[0,0,0,0,0,0,0,0,0,0,0,0,0,0,0,0,0,0,0,0,0,0,0,0,0,0,0,0,0,0,0,0,0,0,0,0,0,0,0,0,0,0,0,0,0,0,0,0,0,0,0],"sum_hessian":[1.6226939E4,6.1371436E2,1.5613226E4,2.782041E2,3.3551022E2,7.614123E3,7.9991025E3,5.3877554E0,2.7281635E2,1.56734705E1,3.1983676E2,8.5420416E2,6.759919E3,1.8952654E3,6.1038374E3,1.4179593E2,1.3102042E2,2.6400003E2,5.583674E1,2.2016328E2,6.3404083E2,6.4214697E3,3.38449E2,4.496327E2,1.4456328E3,1.5240001E3,4.579837E3,2.1061226E1,1.207347E2,1.0800001E2,2.302041E1,1.0408164E2,1.5991838E2,2.6938778E1,2.889796E1,2.669388E1,1.934694E2,3.9183676E2,2.422041E2,6.072245E3,3.4922452E2,9.061225E0,3.293878E2,7.420409E1,3.754286E2,5.838368E2,8.6179596E2,3.8326532E2,1.1407347E3,4.5739595E3,5.8775516E0],"tree_param":{"num_deleted":"0","num_feature":"32","num_nodes":"51","size_leaf_vector":"1"}},{"base_weights":[1.9655783E0,2.1117563E0,1.708513E-1,2.3359435E0,1.7989223E0,6.319429E-1,-3.918964E-1,3.094816E0,2.2791219E0,8.833168E-1,1.8953289E0,1.2194268E0,5.7366733E-2,-4.3558466E-1,3.008596E-1,3.212983E0,1.2043835E0,1.8237238E0,2.4327369E0,-2.879671E-1,1.0106852E0,2.6622381E0,1.7689373E0,2.0815327E0,3.056845E-1,7.659342E-1,-2.1053497E-1,-7.6549225E-2,-5.330034E-1,3.2323223E-1,1.834061E-2,1.8256088E-1,-2.096506E-2,1.705433E-2,2.3021162E-1,2.7581075E-1,1.9806367E-1,-5.4576274E-2,3.1853493E-2,1.4892267E-1,4.437792E-2,2.8359166E-1,-5.6932874E-2,1.842833E-1,6.209249E-2,8.559704E-2,2.563199E-1,6.5598026E-2,-5.5019226E-2,2.4918659E-1,2.5465146E-2,-2.5496883E-2,2.611399E-1,8.2004234E-2,-3.648987E-2,-4.2868655E-2,-5.748132E-2],"categories":[],"categories_nodes":[],"categories_segments":[],"categories_sizes":[],"default_left":[0,0,0,0,0,0,0,0,0,0,0,0,0,0,0,0,0,0,0,0,0,0,0,0,0,0,0,0,0,0,0,0,0,0,0,0,0,0,0,0,0,0,0,0,0,0,0,0,0,0,0,0,0,0,0,0,0],"id":3,"left_children":[1,3,5,7,9,11,13,15,17,19,21,23,25,27,-1,29,31,33,35,37,39,41,43,45,47,49,51,53,55,-1,-1,-1,-1,-1,-1,-1,-1,-1,-1,-1,-1,-1,-1,-1,-1,-1,-1,-1,-1,-1,-1,-1,-1,-1,-1,-1,-1],"loss_changes":[4.257035E3,1.0482031E3,3.176637E2,3.6973438E2,5.516621E2,2.2702142E2,8.324679E1,1.3148047E2,5.6451953E2,8.965872E1,5.449492E2,2.613604E2,6.492307E1,1.9035812E1,0E0,3.2783203E1,3.3099915E1,1.6251982E3,8.8870703E2,9.481668E0,1.4597302E2,4.50812E2,4.1210156E2,9.872534E1,4.9119812E1,8.215265E1,3.1805893E1,3.0695175E1,1.6239471E0,0E0,0E0,0E0,0E0,0E0,0E0,0E0,0E0,0E0,0E0,0E0,0E0,0E0,0E0,0E0,0E0,0E0,0E0,0E0,0E0,0E0,0E0,0E0,0E0,0E0,0E0,0E0,0E0],"parents":[2147483647,0,0,1,1,2,2,3,3,4,4,5,5,6,6,7,7,8,8,9,9,10,10,11,11,12,12,13,13,15,15,16,16,17,17,18,18,19,19,20,20,21,21,22,22,23,23,24,24,25,25,26,26,27,27,28,28],"right_children":[2,4,6,8,10,12,14,16,18,20,22,24,26,28,-1,30,32,34,36,38,40,42,44,46,48,50,52,54,56,-1,-1,-1,-1,-1,-1,-1,-1,-1,-1,-1,-1,-1,-1,-1,-1,-1,-1,-1,-1,-1,-1,-1,-1,-1,-1,-1,-1],"split_conditions":[1.6454221E0,5.099813E-1,2.2314296E0,-1.3958464E0,-9.823306E-1,-9.522376E-1,1.5611326E0,-4.3658137E-2,-4.9575886E-1,-8.0666226E-1,-9.51837E-1,2.230148E0,-8.501177E-1,2.3746169E0,3.008596E-1,-3.5845923E-1,-5.0951123E-1,8.958467E-3,-5.4117E-1,4.6101865E-1,5.2604645E-1,1E0,8.544638E-1,1.0183413E0,3.669484E0,7.008763E-1,1.5611326E0,-6.775145E-1,2.6066334E0,3.2323223E-1,1.834061E-2,1.8256088E-1,-2.096506E-2,1.705433E-2,2.3021162E-1,2.7581075E-1,1.9806367E-1,-5.4576274E-2,3.1853493E-2,1.4892267E-1,4.437792E-2,2.8359166E-1,-5.6932874E-2,1.842833E-1,6.209249E-2,8.559704E-2,2.563199E-1,6.5598026E-2,-5.5019226E-2,2.4918659E-1,2.5465146E-2,-2.5496883E-2,2.611399E-1,8.2004234E-2,-3.648987E-2,-4.2868655E-2,-5.748132E-2],"split_indices":[13,8,13,17,13,14,8,13,13,2,13,12,4,13,0,16,12,2,8,18,2,31,17,17,11,12,8,2,13,0,0,0,0,0,0,0,0,0,0,0,0,0,0,0,0,0,0,0,0,0,0,0,0,0,0,0,0],"split_type":[0,0,0,0,0,0,0,0,0,0,0,0,0,0,0,0,0,0,0,0,0,0,0,0,0,0,0,0,0,0,0,0,0,0,0,0,0,0,0,0,0,0,0,0,0,0,0,0,0,0,0,0,0,0,0,0,0],"sum_hessian":[1.6226939E4,1.5004654E4,1.2222858E3,8.73698E3,6.267674E3,6.717551E2,5.5053064E2,6.04898E2,8.132082E3,5.9804083E2,5.669633E3,3.3159186E2,3.401633E2,5.444082E2,6.1224494E0,5.686531E2,3.62449E1,2.0544492E3,6.0776333E3,5.8530617E1,5.3951025E2,7.99347E2,4.870286E3,1.699592E2,1.6163266E2,9.281633E1,2.4734695E2,1.16571434E2,4.2783676E2,5.649796E2,3.6734695E0,2.4979593E1,1.1265306E1,4.613878E2,1.5930613E3,3.5311838E3,2.5464492E3,4.114286E1,1.7387756E1,2.916735E2,2.4783675E2,7.586939E2,4.0653065E1,4.575184E3,2.9510205E2,4.8734695E1,1.21224495E2,1.1485715E2,4.6775513E1,2.0326532E1,7.24898E1,2.4440819E2,2.9387758E0,2.791837E1,8.865307E1,1.2563266E2,3.022041E2],"tree_param":{"num_deleted":"0","num_feature":"32","num_nodes":"57","size_leaf_vector":"1"}},{"base_weights":[-1.2368456E-2,-2.816881E-1,1.610639E-1,-4.4288707E-1,-2.002367E-1,6.474877E-2,6.3115656E-1,-4.5075628E-1,2.3201291E-1,4.2976674E-1,-2.6827273E-1,-1.790765E-1,2.4776678E-1,7.848643E-1,-3.0670568E-1,-2.4710615E-1,-4.7771406E-1,1.7433962E0,-1.7140059E-1,-4.856975E-1,8.929182E-1,1.143088E0,-2.7760395E-1,1.8619908E-1,-2.1177365E-1,1.7770983E-1,8.577719E-1,-4.19833E-1,8.9327943E-1,-4.30019E-1,1.9412723E0,-5.127087E-2,7.1492544E-3,-5.5760812E-2,-3.9297692E-2,2.611399E-1,-3.4710746E-2,-5.4616388E-2,8.139535E-2,-5.7852216E-2,1.362162E-2,1.4795165E-1,-4.458707E-2,-1.0013006E-2,2.8839457E-1,-4.3392673E-2,-2.066732E-2,-3.746752E-2,5.6835122E-2,-3.391276E-2,-1.1865706E-2,1.2309896E-2,1.06291294E-1,2.9669917E-1,7.299959E-2,1.07972264E-1,-5.7798166E-2,8.2048066E-2,2.174718E-1,-1.7580594E-3,-5.4068632E-2,4.472843E-2,3.008596E-1],"categories":[],"categories_nodes":[],"categories_segments":[],"categories_sizes":[],"default_left":[0,0,0,0,0,0,0,0,0,0,0,0,0,0,0,0,0,0,0,0,0,0,0,0,0,0,0,0,0,0,0,0,0,0,0,0,0,0,0,0,0,0,0,0,0,0,0,0,0,0,0,0,0,0,0,0,0,0,0,0,0,0,0],"id":4,"left_children":[1,3,5,7,9,11,13,15,17,19,21,23,25,27,29,31,33,35,37,39,41,43,45,47,49,51,53,55,57,59,61,-1,-1,-1,-1,-1,-1,-1,-1,-1,-1,-1,-1,-1,-1,-1,-1,-1,-1,-1,-1,-1,-1,-1,-1,-1,-1,-1,-1,-1,-1,-1,-1],"loss_changes":[7.58032E2,8.337903E1,4.4692752E2,1.1433228E1,1.812112E2,3.657105E2,2.4221509E2,1.1459412E1,1.5690947E1,1.75199E2,5.054428E1,4.200953E1,1.99901E2,1.8877222E2,6.655514E1,2.1072647E1,1.2381439E1,1.0719889E1,8.139026E0,8.110188E0,2.1588853E2,5.492544E1,4.1929443E1,6.2209503E1,3.821396E1,2.0291722E2,1.2773123E2,2.9029144E1,1.2169934E2,1.0286354E1,1.8602684E1,0E0,0E0,0E0,0E0,0E0,0E0,0E0,0E0,0E0,0E0,0E0,0E0,0E0,0E0,0E0,0E0,0E0,0E0,0E0,0E0,0E0,0E0,0E0,0E0,0E0,0E0,0E0,0E0,0E0,0E0,0E0,0E0],"parents":[2147483647,0,0,1,1,2,2,3,3,4,4,5,5,6,6,7,7,8,8,9,9,10,10,11,11,12,12,13,13,14,14,15,15,16,16,17,17,18,18,19,19,20,20,21,21,22,22,23,23,24,24,25,25,26,26,27,27,28,28,29,29,30,30],"right_children":[2,4,6,8,10,12,14,16,18,20,22,24,26,28,30,32,34,36,38,40,42,44,46,48,50,52,54,56,58,60,62,-1,-1,-1,-1,-1,-1,-1,-1,-1,-1,-1,-1,-1,-1,-1,-1,-1,-1,-1,-1,-1,-1,-1,-1,-1,-1,-1,-1,-1,-1,-1,-1],"split_conditions":[-5.9180385E-1,-9.2266923E-1,1.3802605E0,-5.5638564E-1,-8.19823E-1,-5.4117E-1,2.78164E0,-1.3175337E0,-5.535011E-1,1.2107488E0,-9.213434E-1,-2.1767811E-1,7.385938E-1,-4.986946E-1,1.1691566E0,-1.4103985E0,1.2107488E0,-9.332757E-1,-2.185135E-1,1E0,-9.70768E-2,-5.333092E-1,-8.4444654E-1,-5.419629E-1,9.120314E-1,1E0,-3.2097762E0,-6.874465E-1,1E0,2.4993134E0,9.4646627E-1,-5.127087E-2,7.1492544E-3,-5.5760812E-2,-3.9297692E-2,2.611399E-1,-3.4710746E-2,-5.4616388E-2,8.139535E-2,-5.7852216E-2,1.362162E-2,1.4795165E-1,-4.458707E-2,-1.0013006E-2,2.8839457E-1,-4.3392673E-2,-2.066732E-2,-3.746752E-2,5.6835122E-2,-3.391276E-2,-1.1865706E-2,1.2309896E-2,1.06291294E-1,2.9669917E-1,7.299959E-2,1.07972264E-1,-5.7798166E-2,8.2048066E-2,2.174718E-1,-1.7580594E-3,-5.4068632E-2,4.472843E-2,3.008596E-1],"split_indices":[12,13,13,11,12,8,13,17,11,8,13,17,12,11,6,17,8,13,3,23,17,11,13,11,17,25,14,17,28,12,11,0,0,0,0,0,0,0,0,0,0,0,0,0,0,0,0,0,0,0,0,0,0,0,0,0,0,0,0,0,0,0,0],"split_type":[0,0,0,0,0,0,0,0,0,0,0,0,0,0,0,0,0,0,0,0,0,0,0,0,0,0,0,0,0,0,0,0,0,0,0,0,0,0,0,0,0,0,0,0,0,0,0,0,0,0,0,0,0,0,0,0,0,0,0,0,0,0,0],"sum_hessian":[1.6226939E4,6.356082E3,9.870857E3,2.1320818E3,4.2240005E3,8.193307E3,1.6775511E3,2.107837E3,2.42449E1,4.1118372E2,3.8128167E3,3.5130615E3,4.680245E3,1.4414695E3,2.3608165E2,2.4759186E2,1.860245E3,4.4081635E0,1.9836737E1,1.3812245E2,2.7306125E2,2.42449E1,3.7885718E3,2.882449E2,3.2248167E3,4.1992656E3,4.809796E2,1.1877552E2,1.322694E3,2.2457144E2,1.1510205E1,1.346939E2,1.12897964E2,9.546123E2,9.056327E2,2.9387758E0,1.4693879E0,1.4693878E1,5.1428576E0,1.202449E2,1.7877552E1,1.8979593E2,8.326531E1,1.4693878E1,9.551021E0,1.1808981E3,2.6076736E3,1.1681634E2,1.7142859E2,1.3608981E3,1.8639185E3,3.956327E3,2.429388E2,2.6204084E1,4.5477554E2,1.0775511E1,1.0800001E2,1.253143E3,6.9551025E1,4.7755104E1,1.7681635E2,5.3877554E0,6.1224494E0],"tree_param":{"num_deleted":"0","num_feature":"32","num_nodes":"63","size_leaf_vector":"1"}},{"base_weights":[-2.5694665E-1,-3.3261722E-1,1.097925E0,-5.2889735E-1,-2.3088351E-1,-3.5443744E-1,1.711842E0,-5.4323775E-1,-1.5407191E-1,-5.202279E-1,-4.295465E-2,-5.5892587E-1,1.3178855E0,2.1063519E0,9.682938E-1,-2.7616665E-1,-5.5066043E-1,6.499466E-1,-2.4026349E-1,-5.4114425E-1,-9.056816E-3,-1.9391072E-1,3.0702633E-1,-1.5568377E-8,-5.8068402E-2,2.630355E0,-5.3670473E-2,2.6166651E0,1.3860016E0,5.883712E-1,2.383801E0,-4.8899397E-2,6.0371745E-2,-5.5322837E-2,-2.7169649E-2,-4.5424294E-2,2.2909091E-1,-5.5606324E-2,-8.485574E-3,-5.577871E-2,-4.9758278E-2,2.991098E-1,-1.4487301E-2,-3.9106835E-2,3.6606856E-3,7.199281E-2,7.869474E-3,-5.134474E-2,1.9266056E-1,-1.8134717E-2,3.2451707E-1,2.9014698E-1,5.434015E-2,2.6101692E-2,1.7566146E-1,4.3469142E-2,2.3846152E-1,3.0450198E-1,-5.1910114E-2],"categories":[],"categories_nodes":[],"categories_segments":[],"categories_sizes":[],"default_left":[0,0,0,0,0,0,0,0,0,0,0,0,0,0,0,0,0,0,0,0,0,0,0,0,0,0,0,0,0,0,0,0,0,0,0,0,0,0,0,0,0,0,0,0,0,0,0,0,0,0,0,0,0,0,0,0,0,0,0],"id":5,"left_children":[1,3,5,7,9,11,13,15,17,19,21,23,25,27,29,31,33,35,37,39,41,43,45,47,-1,49,-1,51,53,55,57,-1,-1,-1,-1,-1,-1,-1,-1,-1,-1,-1,-1,-1,-1,-1,-1,-1,-1,-1,-1,-1,-1,-1,-1,-1,-1,-1,-1],"loss_changes":[1.6641173E3,3.0679688E2,7.6618945E2,2.8115479E1,5.505408E2,8.826016E1,1.7504626E2,9.864014E0,1.3649788E1,4.262024E1,3.2441306E2,2.7819366E0,7.001341E1,1.4105176E2,1.1213556E2,2.6256039E1,3.3707275E0,3.5689236E1,8.619541E0,2.4991455E0,6.470542E1,1.949829E2,1.7440285E2,1.045737E1,0E0,2.941159E1,0E0,1.3378687E2,6.847168E1,4.527725E1,8.6702545E1,0E0,0E0,0E0,0E0,0E0,0E0,0E0,0E0,0E0,0E0,0E0,0E0,0E0,0E0,0E0,0E0,0E0,0E0,0E0,0E0,0E0,0E0,0E0,0E0,0E0,0E0,0E0,0E0],"parents":[2147483647,0,0,1,1,2,2,3,3,4,4,5,5,6,6,7,7,8,8,9,9,10,10,11,11,12,12,13,13,14,14,15,15,16,16,17,17,18,18,19,19,20,20,21,21,22,22,23,23,25,25,27,27,28,28,29,29,30,30],"right_children":[2,4,6,8,10,12,14,16,18,20,22,24,26,28,30,32,34,36,38,40,42,44,46,48,-1,50,-1,52,54,56,58,-1,-1,-1,-1,-1,-1,-1,-1,-1,-1,-1,-1,-1,-1,-1,-1,-1,-1,-1,-1,-1,-1,-1,-1,-1,-1,-1,-1],"split_conditions":[1.9145612E0,-6.773946E-1,-8.9155376E-1,3.568489E-2,-5.4117E-1,1E0,9.9963456E-1,1.765316E-1,-4.9222242E-2,1.6772414E0,3.3419737E-1,8.860347E-1,2.9056332E0,1.0474256E0,3.288099E0,1.2107488E0,-4.563639E-1,1.5611326E0,-8.371671E-1,8.860347E-1,-1.9004749E-1,5.099813E-1,-3.54467E-1,1E0,-5.8068402E-2,1.9755484E0,-5.3670473E-2,1.2107488E0,-6.6079664E-1,4.3615356E-1,1.2107488E0,-4.8899397E-2,6.0371745E-2,-5.5322837E-2,-2.7169649E-2,-4.5424294E-2,2.2909091E-1,-5.5606324E-2,-8.485574E-3,-5.577871E-2,-4.9758278E-2,2.991098E-1,-1.4487301E-2,-3.9106835E-2,3.6606856E-3,7.199281E-2,7.869474E-3,-5.134474E-2,1.9266056E-1,-1.8134717E-2,3.2451707E-1,2.9014698E-1,5.434015E-2,2.6101692E-2,1.7566146E-1,4.3469142E-2,2.3846152E-1,3.0450198E-1,-5.1910114E-2],"split_indices":[13,13,8,3,8,21,19,14,14,13,13,12,12,11,13,8,12,8,0,12,11,8,11,25,0,13,0,8,2,10,8,0,0,0,0,0,0,0,0,0,0,0,0,0,0,0,0,0,0,0,0,0,0,0,0,0,0,0,0],"split_type":[0,0,0,0,0,0,0,0,0,0,0,0,0,0,0,0,0,0,0,0,0,0,0,0,0,0,0,0,0,0,0,0,0,0,0,0,0,0,0,0,0,0,0,0,0,0,0,0,0,0,0,0,0,0,0,0,0,0,0],"sum_hessian":[1.6226939E4,1.5369308E4,8.576327E2,5.245225E3,1.0124082E4,2.549388E2,6.026939E2,5.0515107E3,1.937143E2,3.9857146E3,6.1383677E3,2.2775511E2,2.7183676E1,3.9257144E2,2.1012247E2,1.3763266E2,4.913878E3,1.812245E1,1.7559184E2,3.82898E3,1.5673471E2,4.2888984E3,1.8494695E3,8.571429E0,2.1918369E2,1.56734705E1,1.1510205E1,2.2824492E2,1.6432654E2,1.6677553E2,4.3346943E1,1.1118368E2,2.6448982E1,4.868082E3,4.579592E1,1.1265306E1,6.8571434E0,5.706123E1,1.18530624E2,2.7619595E3,1.0670205E3,5.8775516E0,1.5085715E2,2.3113472E3,1.9775511E3,6.5779596E2,1.1916736E3,7.346939E0,1.2244899E0,2.9387758E0,1.27346945E1,2.0032654E2,2.791837E1,4.114286E1,1.23183685E2,1.5477553E2,1.2000001E1,3.526531E1,8.081634E0],"tree_param":{"num_deleted":"0","num_feature":"32","num_nodes":"59","size_leaf_vector":"1"}},{"base_weights":[-4.591288E-1,-4.934455E-1,1.8697758E0,-5.2911717E-1,-2.0847993E-1,2.7464259E0,5.533005E-1,-3.7495154E-1,-5.38148E-1,-4.0710282E-1,1.7869514E0,1.3265306E0,3.462497E-1,1.6291983E-1,2.080084E0,-3.9258295E-1,1.7661537E0,-5.83206E-2,-5.147484E-1,-5.01403E-1,3.7899914E-1,3.043478E0,1.1114728E0,3.3527896E-1,-5.6108948E-2,-1.6057955E-1,2.2205029E0,3.0430415E0,-4.883721E-2,-8.054491E-3,-4.6828195E-2,-3.862069E-2,2.7510914E-1,-5.481394E-2,-2.9853135E-2,-5.643722E-2,3.9510797E-3,2.4440677E-1,-2.781955E-2,3.1910583E-1,-1.2426036E-2,2.4564527E-1,5.2447926E-2,6.35173E-2,-5.281291E-2,3.06801E-1,-4.1420117E-2,5.7798166E-2,3.2307693E-1],"categories":[],"categories_nodes":[],"categories_segments":[],"categories_sizes":[],"default_left":[0,0,0,0,0,0,0,0,0,0,0,0,0,0,0,0,0,0,0,0,0,0,0,0,0,0,0,0,0,0,0,0,0,0,0,0,0,0,0,0,0,0,0,0,0,0,0,0,0],"id":6,"left_children":[1,3,5,7,9,11,13,15,17,19,21,23,-1,25,27,29,31,-1,33,35,37,39,41,-1,-1,43,45,47,-1,-1,-1,-1,-1,-1,-1,-1,-1,-1,-1,-1,-1,-1,-1,-1,-1,-1,-1,-1,-1],"loss_changes":[1.2978645E3,1.6246265E2,2.7068036E2,1.9586426E1,7.065737E2,1.3909998E2,5.659993E1,3.0509483E1,1.385376E1,1.2031769E2,1.3361353E2,1.8929678E2,0E0,5.171851E1,4.938765E1,1.8485435E1,1.5123327E1,0E0,6.3689453E1,4.9320984E1,2.3701825E2,2.6509521E1,8.2833084E1,0E0,0E0,2.011058E1,2.4830467E1,4.7151947E0,0E0,0E0,0E0,0E0,0E0,0E0,0E0,0E0,0E0,0E0,0E0,0E0,0E0,0E0,0E0,0E0,0E0,0E0,0E0,0E0,0E0],"parents":[2147483647,0,0,1,1,2,2,3,3,4,4,5,5,6,6,7,7,8,8,9,9,10,10,11,11,13,13,14,14,15,15,16,16,18,18,19,19,20,20,21,21,22,22,25,25,26,26,27,27],"right_children":[2,4,6,8,10,12,14,16,18,20,22,24,-1,26,28,30,32,-1,34,36,38,40,42,-1,-1,44,46,48,-1,-1,-1,-1,-1,-1,-1,-1,-1,-1,-1,-1,-1,-1,-1,-1,-1,-1,-1,-1,-1],"split_conditions":[3.1525111E0,1.2264665E0,-8.9155376E-1,-1.4037453E0,1.2107488E0,2.78164E0,3.075083E-1,1.1251851E0,-1.9078623E-1,8.6036503E-1,-6.849782E-2,-1.2419375E0,3.462497E-1,1.2107488E0,1E0,-9.69357E-1,-6.066925E-1,-5.83206E-2,2.660969E-2,2.88777E0,-2.1205837E-1,-5.910003E-1,4.0228546E-1,3.3527896E-1,-5.6108948E-2,2.6066334E0,1E0,1.3433582E-1,-4.883721E-2,-8.054491E-3,-4.6828195E-2,-3.862069E-2,2.7510914E-1,-5.481394E-2,-2.9853135E-2,-5.643722E-2,3.9510797E-3,2.4440677E-1,-2.781955E-2,3.1910583E-1,-1.2426036E-2,2.4564527E-1,5.2447926E-2,6.35173E-2,-5.281291E-2,3.06801E-1,-4.1420117E-2,5.7798166E-2,3.2307693E-1],"split_indices":[12,13,8,14,8,13,0,0,8,8,17,8,0,8,30,6,4,0,13,11,16,11,14,0,0,13,31,1,0,0,0,0,0,0,0,0,0,0,0,0,0,0,0,0,0,0,0,0,0],"split_type":[0,0,0,0,0,0,0,0,0,0,0,0,0,0,0,0,0,0,0,0,0,0,0,0,0,0,0,0,0,0,0,0,0,0,0,0,0,0,0,0,0,0,0,0,0,0,0,0,0],"sum_hessian":[1.6226939E4,1.5992083E4,2.3485716E2,1.4212164E4,1.7799185E3,1.4032654E2,9.453062E1,7.888164E2,1.3423348E4,1.6195104E3,1.6040817E2,4.8000004E1,9.232654E1,7.616327E1,1.8367348E1,7.831837E2,5.632653E0,4.580082E3,8.843266E3,1.4463674E3,1.7314287E2,5.4857147E1,1.05551025E2,2.2775513E1,2.5224491E1,6.661225E1,9.551021E0,1.3224491E1,5.1428576E0,1.5330614E2,6.298776E2,1.9591838E0,3.6734695E0,7.6589395E3,1.1843267E3,1.2955103E3,1.5085715E2,4.114286E1,1.3200002E2,5.240817E1,2.4489799E0,3.1102043E1,7.444898E1,2.0816328E1,4.579592E1,7.1020412E0,2.4489799E0,1.2244899E0,1.2000001E1],"tree_param":{"num_deleted":"0","num_feature":"32","num_nodes":"49","size_leaf_vector":"1"}},{"base_weights":[-4.965509E-1,-3.32119E-1,-5.63696E-1,-3.7818962E-1,8.912826E-1,-4.5757943E-1,-5.7594545E-2,-4.2425025E-1,6.74139E-1,1.8819002E0,4.0012117E-2,-7.9765104E-2,-5.221283E-1,-4.6031186E-1,5.697247E-1,1.9310505E0,-2.4558309E-1,-4.8395243E-2,2.0570028E0,7.9922235E-1,-4.7983113E-1,1.4202368E0,-4.6241686E-1,-4.0613642E-1,-5.6182086E-1,6.269093E-2,-4.7871128E-2,-5.1807027E-2,1.0196453E-1,1.2077407E-1,2.3315643E-1,3.678404E-2,-5.7151217E-2,2.2518174E-1,5.999474E-2,1.7354226E-1,-4.822811E-2,-5.720098E-2,4.499425E-2,-5.162877E-2,2.0357108E-1,-5.340324E-2,7.99013E-2,-4.724074E-2,1.0182011E-1,-5.7105403E-2,-3.9284766E-2],"categories":[],"categories_nodes":[],"categories_segments":[],"categories_sizes":[],"default_left":[0,0,0,0,0,0,0,0,0,0,0,0,0,0,0,0,0,0,0,0,0,0,0,0,0,0,0,0,0,0,0,0,0,0,0,0,0,0,0,0,0,0,0,0,0,0,0],"id":7,"left_children":[1,3,5,7,9,11,-1,13,15,17,19,21,23,25,27,29,31,-1,33,35,37,39,41,43,45,-1,-1,-1,-1,-1,-1,-1,-1,-1,-1,-1,-1,-1,-1,-1,-1,-1,-1,-1,-1,-1,-1],"loss_changes":[1.7087451E2,2.5367487E2,1.4034668E1,2.1027887E2,1.3773248E2,2.7838379E1,0E0,1.4906238E2,2.1093954E2,3.2275024E1,3.5474594E1,9.708259E1,4.2663574E0,8.044702E1,7.187784E1,1.9502777E1,2.1407082E1,0E0,1.8658844E1,4.464161E1,4.8341E0,4.20409E1,1.2586609E1,2.4315063E1,9.0634155E-1,0E0,0E0,0E0,0E0,0E0,0E0,0E0,0E0,0E0,0E0,0E0,0E0,0E0,0E0,0E0,0E0,0E0,0E0,0E0,0E0,0E0,0E0],"parents":[2147483647,0,0,1,1,2,2,3,3,4,4,5,5,7,7,8,8,9,9,10,10,11,11,12,12,13,13,14,14,15,15,16,16,18,18,19,19,20,20,21,21,22,22,23,23,24,24],"right_children":[2,4,6,8,10,12,-1,14,16,18,20,22,24,26,28,30,32,-1,34,36,38,40,42,44,46,-1,-1,-1,-1,-1,-1,-1,-1,-1,-1,-1,-1,-1,-1,-1,-1,-1,-1,-1,-1,-1,-1],"split_conditions":[-7.5296575E-1,1E0,-6.0182357E-1,1E0,-6.458068E-1,-8.9155376E-1,-5.7594545E-2,1E0,-8.061076E-1,-1.2215147E0,5.099813E-1,-6.429222E-1,-7.666757E-1,-1.2419375E0,-1.0724882E0,-6.113165E-1,5.099813E-1,-4.8395243E-2,-8.643336E-1,7.877656E-1,1.3083414E0,-7.105398E-1,7.244684E-2,1E0,1E0,6.269093E-2,-4.7871128E-2,-5.1807027E-2,1.0196453E-1,1.2077407E-1,2.3315643E-1,3.678404E-2,-5.7151217E-2,2.2518174E-1,5.999474E-2,1.7354226E-1,-4.822811E-2,-5.720098E-2,4.499425E-2,-5.162877E-2,2.0357108E-1,-5.340324E-2,7.99013E-2,-4.724074E-2,1.0182011E-1,-5.7105403E-2,-3.9284766E-2],"split_indices":[13,30,13,31,11,8,0,29,12,17,8,11,12,8,6,6,8,0,13,6,1,13,11,20,29,0,0,0,0,0,0,0,0,0,0,0,0,0,0,0,0,0,0,0,0,0,0],"split_type":[0,0,0,0,0,0,0,0,0,0,0,0,0,0,0,0,0,0,0,0,0,0,0,0,0,0,0,0,0,0,0,0,0,0,0,0,0,0,0,0,0,0,0,0,0,0,0],"sum_hessian":[1.549261E4,4.493765E3,1.0998846E4,4.331347E3,1.6241812E2,1.1422113E3,9.856634E3,4.150285E3,1.8106195E2,7.4505684E1,8.7912445E1,1.669956E2,9.752157E2,4.0055015E3,1.4478354E2,7.60419E1,1.0502006E2,5.012794E0,6.949289E1,3.5511658E1,5.2400784E1,3.339094E1,1.3360468E2,2.5150015E2,7.237155E2,6.6107956E1,3.9393936E3,4.2317936E1,1.0246561E2,2.8531237E1,4.7510662E1,3.6394405E1,6.8625656E1,6.081606E1,8.676829E0,2.0315786E1,1.5195873E1,4.8024384E1,4.3763976E0,8.091872E0,2.529907E1,1.2697266E2,6.6320095E0,2.4095734E2,1.05428295E1,6.839623E2,3.9753227E1],"tree_param":{"num_deleted":"0","num_feature":"32","num_nodes":"47","size_leaf_vector":"1"}},{"base_weights":[-4.3399218E-1,-2.6358265E-1,-5.4828435E-1,1.041727E0,-3.3527103E-1,-2.5966272E-1,-5.710656E-1,7.226219E-1,1.7812792E0,-3.670553E-1,3.8630486E-1,5.584849E-1,-5.193311E-1,-4.7264203E-1,-5.727063E-1,2.3896322E0,4.0886897E-1,2.2147708E0,-5.419567E-2,-3.9163473E-1,1.2837791E-1,8.0210096E-1,-3.1928706E-1,2.1792E0,2.6320484E-1,-5.7638943E-2,-1.1360938E-1,5.033872E-1,-5.731352E-2,-5.760476E-2,-5.455474E-1,2.4805859E-1,-3.0768944E-2,7.079806E-2,-5.0675865E-2,-5.4280836E-2,2.53646E-1,-4.203632E-2,6.111999E-3,2.3075067E-1,1.7575184E-3,2.5774074E-1,6.368023E-2,2.8572166E-2,-4.5703765E-2,2.3155652E-1,-3.3008862E-2,1.6976167E-1,1.7888715E-2,2.2777317E-1,-3.2408714E-2,-5.094518E-2,1.6831183E-1,-3.2001086E-2,-5.687691E-2],"categories":[],"categories_nodes":[],"categories_segments":[],"categories_sizes":[],"default_left":[0,0,0,0,0,0,0,0,0,0,0,0,0,0,0,0,0,0,0,0,0,0,0,0,0,0,0,0,0,0,0,0,0,0,0,0,0,0,0,0,0,0,0,0,0,0,0,0,0,0,0,0,0,0,0],"id":8,"left_children":[1,3,5,7,9,11,13,15,17,19,21,23,25,27,29,31,33,35,-1,37,39,41,43,45,47,-1,49,51,-1,-1,53,-1,-1,-1,-1,-1,-1,-1,-1,-1,-1,-1,-1,-1,-1,-1,-1,-1,-1,-1,-1,-1,-1,-1,-1],"loss_changes":[3.0318726E2,5.8558386E2,6.113965E1,7.5609985E1,1.3612872E2,1.4554846E2,1.1242676E0,1.1895791E2,9.942734E1,6.921411E1,7.3790695E1,7.8489624E1,1.1961548E1,1.4742268E1,4.560547E-1,9.623611E0,5.354315E1,7.446692E1,0E0,7.041199E1,6.496195E1,4.4722748E1,7.9354773E0,9.429512E0,1.6735884E1,0E0,3.3605682E1,1.7930454E1,0E0,0E0,4.7891846E0,0E0,0E0,0E0,0E0,0E0,0E0,0E0,0E0,0E0,0E0,0E0,0E0,0E0,0E0,0E0,0E0,0E0,0E0,0E0,0E0,0E0,0E0,0E0,0E0],"parents":[2147483647,0,0,1,1,2,2,3,3,4,4,5,5,6,6,7,7,8,8,9,9,10,10,11,11,12,12,13,13,14,14,15,15,16,16,17,17,19,19,20,20,21,21,22,22,23,23,24,24,26,26,27,27,30,30],"right_children":[2,4,6,8,10,12,14,16,18,20,22,24,26,28,30,32,34,36,-1,38,40,42,44,46,48,-1,50,52,-1,-1,54,-1,-1,-1,-1,-1,-1,-1,-1,-1,-1,-1,-1,-1,-1,-1,-1,-1,-1,-1,-1,-1,-1,-1,-1],"split_conditions":[-5.8666056E-1,-5.4117E-1,-6.0182357E-1,-3.3931345E-1,1E0,-8.9155376E-1,-5.832622E-1,-8.842208E-1,1.0085503E-1,1E0,-6.641365E-1,5.184579E-2,1E0,-5.2836996E-1,1E0,1E0,-5.7530737E-1,-8.9155376E-1,-5.419567E-2,1E0,-9.6025324E-1,-8.524843E-1,-7.279248E-1,-6.150816E-1,-1.5042892E0,-5.7638943E-2,-5.4117E-1,-5.3865653E-1,-5.731352E-2,-5.760476E-2,-2.425294E-1,2.4805859E-1,-3.0768944E-2,7.079806E-2,-5.0675865E-2,-5.4280836E-2,2.53646E-1,-4.203632E-2,6.111999E-3,2.3075067E-1,1.7575184E-3,2.5774074E-1,6.368023E-2,2.8572166E-2,-4.5703765E-2,2.3155652E-1,-3.3008862E-2,1.6976167E-1,1.7888715E-2,2.2777317E-1,-3.2408714E-2,-5.094518E-2,1.6831183E-1,-3.2001086E-2,-5.687691E-2],"split_indices":[12,8,13,13,29,8,13,13,13,31,13,16,20,12,31,31,13,8,0,20,17,17,17,13,5,0,8,12,0,0,13,0,0,0,0,0,0,0,0,0,0,0,0,0,0,0,0,0,0,0,0,0,0,0,0],"split_type":[0,0,0,0,0,0,0,0,0,0,0,0,0,0,0,0,0,0,0,0,0,0,0,0,0,0,0,0,0,0,0,0,0,0,0,0,0,0,0,0,0,0,0,0,0,0,0,0,0,0,0,0,0,0,0],"sum_hessian":[1.5573263E4,6.2531406E3,9.320122E3,3.2484253E2,5.928298E3,6.827393E2,8.637383E3,2.2830827E2,9.6534256E1,5.678654E3,2.4964423E2,1.6420892E2,5.185304E2,1.463606E2,8.491022E3,3.5116013E1,1.9319226E2,8.139373E1,1.514053E1,5.4104404E3,2.6821347E2,1.5699333E2,9.2650894E1,2.4323494E1,1.3988542E2,4.5422955E2,6.4300865E1,1.3288481E1,1.3307211E2,7.542842E3,9.481807E2,3.404826E1,1.067753E0,1.4579245E2,4.739981E1,8.431343E0,7.296239E1,5.087685E3,3.2275528E2,1.2018736E1,2.5619473E2,1.2129555E1,1.4486377E2,1.698362E1,7.5667274E1,2.3143011E1,1.1804836E0,6.703968E0,1.3318146E2,4.4071665E0,5.9893703E1,7.4556856E0,5.832795E0,8.989267E1,8.582881E2],"tree_param":{"num_deleted":"0","num_feature":"32","num_nodes":"55","size_leaf_vector":"1"}},{"base_weights":[-2.7655184E-1,1.2149377E0,-3.446651E-1,5.628785E-1,1.6719103E0,-1.4896989E-1,-5.372321E-1,2.0264869E0,5.0322914E-1,-5.408382E-2,1.757468E0,5.856309E-1,-2.4869888E-1,-4.4354352E-1,-5.666297E-1,1.7857414E-2,2.2085545E0,8.100138E-1,1.6122122E-1,1.935559E0,1.0719671E0,-2.9255223E-1,8.604007E-1,-2.773872E-1,2.7257645E-1,-2.8117797E-1,-4.9442852E-1,-5.365712E-1,-5.7653624E-1,7.44149E-2,2.4188419E-1,9.879329E-2,-2.8005267E-2,-7.5659133E-3,1.2505868E-1,2.0417725E-1,1.2243606E-1,8.578772E-2,2.2522171E-1,1.1508663E-1,-5.2603643E-2,1.4022571E-1,5.736927E-2,-3.0486172E-2,1.8650545E-2,5.013085E-2,-5.502207E-2,3.2947283E-2,-4.0879827E-2,-3.8472887E-2,-5.6890853E-2,-4.1725457E-2,-5.7678152E-2,-5.7676263E-2,-3.4397364E-2],"categories":[],"categories_nodes":[],"categories_segments":[],"categories_sizes":[],"default_left":[0,0,0,0,0,0,0,0,0,0,0,0,0,0,0,0,0,0,0,0,0,0,0,0,0,0,0,0,0,0,0,0,0,0,0,0,0,0,0,0,0,0,0,0,0,0,0,0,0,0,0,0,0,0,0],"id":9,"left_children":[1,3,5,7,9,11,13,15,17,-1,19,21,23,25,27,-1,29,31,33,35,37,39,41,43,45,47,49,51,53,-1,-1,-1,-1,-1,-1,-1,-1,-1,-1,-1,-1,-1,-1,-1,-1,-1,-1,-1,-1,-1,-1,-1,-1,-1,-1],"loss_changes":[1.6042064E3,2.045672E2,5.688855E2,2.3921936E1,7.762341E1,5.488439E2,2.0706787E1,3.2584E0,2.8810616E1,0E0,4.555591E1,2.1634583E2,9.8701996E1,1.4914612E1,1.4144287E0,0E0,1.2164345E0,2.8428726E1,3.4073948E1,2.0800537E1,1.8964386E1,7.278459E1,1.0520587E2,7.9734344E1,6.511656E1,3.4197453E1,1.110498E1,6.7125854E0,3.0151367E-2,0E0,0E0,0E0,0E0,0E0,0E0,0E0,0E0,0E0,0E0,0E0,0E0,0E0,0E0,0E0,0E0,0E0,0E0,0E0,0E0,0E0,0E0,0E0,0E0,0E0,0E0],"parents":[2147483647,0,0,1,1,2,2,3,3,4,4,5,5,6,6,7,7,8,8,10,10,11,11,12,12,13,13,14,14,16,16,17,17,18,18,19,19,20,20,21,21,22,22,23,23,24,24,25,25,26,26,27,27,28,28],"right_children":[2,4,6,8,10,12,14,16,18,-1,20,22,24,26,28,-1,30,32,34,36,38,40,42,44,46,48,50,52,54,-1,-1,-1,-1,-1,-1,-1,-1,-1,-1,-1,-1,-1,-1,-1,-1,-1,-1,-1,-1,-1,-1,-1,-1,-1,-1],"split_conditions":[-9.823306E-1,-8.233324E-2,-2.73023E-1,-1.5492141E0,5.099813E-1,-5.4117E-1,4.7822647E-2,-1.4616627E0,1.5611326E0,-5.408382E-2,3.486524E-1,-5.8666056E-1,1E0,-8.9155376E-1,1.8826182E-1,1.7857414E-2,1.8502262E-1,1.0497805E0,4.001512E-1,1E0,1.0243391E0,-1.5761412E0,-5.832622E-1,1E0,-5.52372E-1,3.1033321E-3,-5.131174E-1,-5.4117E-1,3.103079E0,7.44149E-2,2.4188419E-1,9.879329E-2,-2.8005267E-2,-7.5659133E-3,1.2505868E-1,2.0417725E-1,1.2243606E-1,8.578772E-2,2.2522171E-1,1.1508663E-1,-5.2603643E-2,1.4022571E-1,5.736927E-2,-3.0486172E-2,1.8650545E-2,5.013085E-2,-5.502207E-2,3.2947283E-2,-4.0879827E-2,-3.8472887E-2,-5.6890853E-2,-4.1725457E-2,-5.7678152E-2,-5.7676263E-2,-3.4397364E-2],"split_indices":[13,1,13,1,8,8,13,6,8,0,19,12,31,8,12,0,17,19,17,23,1,2,13,29,12,12,11,8,5,0,0,0,0,0,0,0,0,0,0,0,0,0,0,0,0,0,0,0,0,0,0,0,0,0,0],"split_type":[0,0,0,0,0,0,0,0,0,0,0,0,0,0,0,0,0,0,0,0,0,0,0,0,0,0,0,0,0,0,0,0,0,0,0,0,0,0,0,0,0,0,0,0,0,0,0,0,0,0,0,0,0,0,0],"sum_hessian":[1.5785836E4,6.886868E2,1.5097149E4,2.8469052E2,4.0399628E2,7.488636E3,7.6085127E3,9.857008E0,2.7483353E2,1.4841242E1,3.8915503E2,8.9454816E2,6.594088E3,1.8210392E3,5.7874736E3,1.0617266E0,8.795281E0,1.4415585E2,1.3067767E2,3.0745547E2,8.169957E1,2.1317177E2,6.813764E2,6.250557E3,3.4353088E2,4.3608636E2,1.3849529E3,1.4482723E3,4.339201E3,1.6743201E0,7.120961E0,1.2400897E2,2.0146877E1,1.0810172E2,2.2575956E1,2.6587735E2,4.1578102E1,7.061695E1,1.1082614E1,2.913398E1,1.8403778E2,2.3443022E2,4.4694617E2,5.9013843E3,3.4917276E2,2.6911066E2,7.442021E1,7.5110115E1,3.6097626E2,5.625511E2,8.2240173E2,3.6791858E2,1.0803538E3,4.333503E3,5.698144E0],"tree_param":{"num_deleted":"0","num_feature":"32","num_nodes":"55","size_leaf_vector":"1"}},{"base_weights":[1.5725818E0,1.6710387E0,1.59381E-1,1.816529E0,1.4595454E0,5.646093E-1,-3.8063914E-1,1.7670611E0,2.198909E0,7.756515E-1,1.525883E0,1.0405706E0,5.4035008E-2,-4.2505428E-1,2.4025214E-1,1.1753482E0,1.8272828E0,2.2397895E0,-5.698019E-2,-2.8685147E-1,8.823296E-1,1.6096741E0,8.330757E-1,1.6228123E0,1.9467306E-1,6.9144607E-1,-2.0340247E-1,-6.592915E-2,-5.254066E-1,1.865283E-2,2.1498464E-1,2.2692673E-1,1.761579E-1,2.2701219E-1,1.09719396E-1,-5.426305E-2,2.8178832E-2,1.2470561E-1,4.1092396E-2,2.0440999E-1,1.5274161E-1,9.81412E-2,-2.5663434E-2,5.79887E-2,2.0194566E-1,8.172541E-3,2.507947E-1,1.9199847E-1,1.935658E-2,-2.9262573E-2,1.1471547E-1,4.3306418E-2,-5.3649094E-2,-4.179476E-2,-5.6889523E-2],"categories":[],"categories_nodes":[],"categories_segments":[],"categories_sizes":[],"default_left":[0,0,0,0,0,0,0,0,0,0,0,0,0,0,0,0,0,0,0,0,0,0,0,0,0,0,0,0,0,0,0,0,0,0,0,0,0,0,0,0,0,0,0,0,0,0,0,0,0,0,0,0,0,0,0],"id":10,"left_children":[1,3,5,7,9,11,13,15,17,19,21,23,25,27,-1,29,31,33,-1,35,37,39,41,43,45,47,49,51,53,-1,-1,-1,-1,-1,-1,-1,-1,-1,-1,-1,-1,-1,-1,-1,-1,-1,-1,-1,-1,-1,-1,-1,-1,-1,-1],"loss_changes":[2.6416484E3,5.435469E2,2.710844E2,1.9496094E2,3.2725586E2,1.7188982E2,6.669042E1,3.297168E2,1.3710889E2,7.3040405E1,3.817002E2,1.8001236E2,5.6329693E1,1.8840721E1,0E0,8.312833E2,2.4142578E2,3.850293E1,0E0,8.784758E0,9.986673E1,2.0718945E2,1.15665405E2,8.848334E1,3.9093296E1,6.002284E1,2.9820274E1,2.7360249E1,1.6745911E0,0E0,0E0,0E0,0E0,0E0,0E0,0E0,0E0,0E0,0E0,0E0,0E0,0E0,0E0,0E0,0E0,0E0,0E0,0E0,0E0,0E0,0E0,0E0,0E0,0E0,0E0],"parents":[2147483647,0,0,1,1,2,2,3,3,4,4,5,5,6,6,7,7,8,8,9,9,10,10,11,11,12,12,13,13,15,15,16,16,17,17,19,19,20,20,21,21,22,22,23,23,24,24,25,25,26,26,27,27,28,28],"right_children":[2,4,6,8,10,12,14,16,18,20,22,24,26,28,-1,30,32,34,-1,36,38,40,42,44,46,48,50,52,54,-1,-1,-1,-1,-1,-1,-1,-1,-1,-1,-1,-1,-1,-1,-1,-1,-1,-1,-1,-1,-1,-1,-1,-1,-1,-1],"split_conditions":[1.6454221E0,5.099813E-1,2.2314296E0,1.430607E0,-9.823306E-1,-9.522376E-1,1.5611326E0,-1.2419375E0,-5.4117E-1,-8.0666226E-1,4.787105E-1,2.3038683E0,-8.501177E-1,2.3746169E0,2.4025214E-1,-3.2472953E-1,-6.5446043E-1,2.159856E0,-5.698019E-2,4.6101865E-1,5.2604645E-1,-9.5714027E-1,1E0,1.0183413E0,9.084097E-1,9.151801E-1,1E0,-5.4117E-1,2.6066334E0,1.865283E-2,2.1498464E-1,2.2692673E-1,1.761579E-1,2.2701219E-1,1.09719396E-1,-5.426305E-2,2.8178832E-2,1.2470561E-1,4.1092396E-2,2.0440999E-1,1.5274161E-1,9.81412E-2,-2.5663434E-2,5.79887E-2,2.0194566E-1,8.172541E-3,2.507947E-1,1.9199847E-1,1.935658E-2,-2.9262573E-2,1.1471547E-1,4.3306418E-2,-5.3649094E-2,-4.179476E-2,-5.6889523E-2],"split_indices":[13,8,13,17,13,14,8,8,8,2,13,12,4,13,0,13,11,12,0,18,2,13,24,17,6,12,29,8,13,0,0,0,0,0,0,0,0,0,0,0,0,0,0,0,0,0,0,0,0,0,0,0,0,0,0],"split_type":[0,0,0,0,0,0,0,0,0,0,0,0,0,0,0,0,0,0,0,0,0,0,0,0,0,0,0,0,0,0,0,0,0,0,0,0,0,0,0,0,0,0,0,0,0,0,0,0,0,0,0,0,0,0,0],"sum_hessian":[1.8986572E4,1.7749773E4,1.2367997E3,1.0511276E4,7.238497E3,7.0655725E2,5.3024243E2,9.312191E3,1.1990847E3,6.4117084E2,6.5973267E3,3.6513632E2,3.4142093E2,5.2274744E2,7.4950004E0,8.6209845E2,8.450093E3,1.1818259E3,1.725878E1,5.8347397E1,5.828234E2,5.884326E3,7.130003E2,2.1572897E2,1.4940735E2,9.773781E1,2.4368312E2,1.1453273E2,4.082147E2,4.2849625E2,4.336022E2,1.0892502E3,7.3608423E3,1.1503022E3,3.1523746E1,4.0276443E1,1.8070951E1,3.2766425E2,2.551592E2,9.3301025E2,4.951316E3,6.276597E2,8.5340546E1,6.011813E1,1.5561084E2,1.4343913E2,5.968215E0,2.7362782E1,7.037503E1,2.2931685E2,1.4366268E1,5.562574E1,5.8906986E1,1.206651E2,2.875496E2],"tree_param":{"num_deleted":"0","num_feature":"32","num_nodes":"55","size_leaf_vector":"1"}},{"base_weights":[-9.425244E-3,-2.7040562E-1,1.5255083E-1,-4.322279E-1,-1.90416E-1,6.3100144E-2,5.7028675E-1,-4.4026318E-1,2.2137389E-1,3.9803806E-1,-2.5740814E-1,-1.6889083E-1,2.3084423E-1,8.8818413E-1,1.9820558E-1,-2.3401095E-1,-4.679878E-1,1.5228999E0,-1.6489874E-1,-4.773475E-1,7.989416E-1,-1.5434526E-1,-3.8305193E-1,1.8134154E-1,-2.0110348E-1,1.6650173E-1,7.6476634E-1,6.9956094E-1,1.8192033E0,3.729316E-1,-4.340011E-1,-5.0295692E-2,7.2135464E-3,-5.507793E-2,-3.8113948E-2,2.1889387E-1,-3.4112167E-2,-5.4078784E-2,7.460216E-2,-5.7314765E-2,1.3350758E-2,1.2705435E-1,-4.363433E-2,1.4538763E-1,-1.6996672E-2,-4.7589134E-2,-2.2742465E-2,-5.759557E-2,4.5283277E-2,-3.2778796E-2,-1.0999843E-2,1.1669185E-2,1.03449695E-1,2.2805846E-1,6.5774225E-2,5.8969747E-2,2.647714E-1,2.0870255E-1,3.5846487E-2,-3.0639976E-2,6.266745E-2,1.8118893E-1,-4.941928E-2],"categories":[],"categories_nodes":[],"categories_segments":[],"categories_sizes":[],"default_left":[0,0,0,0,0,0,0,0,0,0,0,0,0,0,0,0,0,0,0,0,0,0,0,0,0,0,0,0,0,0,0,0,0,0,0,0,0,0,0,0,0,0,0,0,0,0,0,0,0,0,0,0,0,0,0,0,0,0,0,0,0,0,0],"id":11,"left_children":[1,3,5,7,9,11,13,15,17,19,21,23,25,27,29,31,33,35,37,39,41,43,45,47,49,51,53,55,57,59,61,-1,-1,-1,-1,-1,-1,-1,-1,-1,-1,-1,-1,-1,-1,-1,-1,-1,-1,-1,-1,-1,-1,-1,-1,-1,-1,-1,-1,-1,-1,-1,-1],"loss_changes":[6.828379E2,7.999051E1,3.7240564E2,1.08402405E1,1.6336923E2,3.19549E2,2.077373E2,1.1447144E1,1.3074715E1,1.4907428E2,4.8096954E1,3.891382E1,1.6358424E2,1.651383E2,8.976343E1,1.991859E1,1.259259E1,8.115463E0,7.4473534E0,7.901514E0,1.7006717E2,5.1615177E1,2.4095062E1,6.0044067E1,3.639171E1,1.8380887E2,8.1599945E1,1.6743552E2,6.1461853E1,1.0983065E2,2.4701385E1,0E0,0E0,0E0,0E0,0E0,0E0,0E0,0E0,0E0,0E0,0E0,0E0,0E0,0E0,0E0,0E0,0E0,0E0,0E0,0E0,0E0,0E0,0E0,0E0,0E0,0E0,0E0,0E0,0E0,0E0,0E0,0E0],"parents":[2147483647,0,0,1,1,2,2,3,3,4,4,5,5,6,6,7,7,8,8,9,9,10,10,11,11,12,12,13,13,14,14,15,15,16,16,17,17,18,18,19,19,20,20,21,21,22,22,23,23,24,24,25,25,26,26,27,27,28,28,29,29,30,30],"right_children":[2,4,6,8,10,12,14,16,18,20,22,24,26,28,30,32,34,36,38,40,42,44,46,48,50,52,54,56,58,60,62,-1,-1,-1,-1,-1,-1,-1,-1,-1,-1,-1,-1,-1,-1,-1,-1,-1,-1,-1,-1,-1,-1,-1,-1,-1,-1,-1,-1,-1,-1,-1,-1],"split_conditions":[-5.9180385E-1,-9.2266923E-1,1.3802605E0,-5.5638564E-1,-8.19823E-1,-5.4117E-1,1.9755484E0,-1.3175337E0,-5.535011E-1,1.2107488E0,1.3166048E-1,-2.1767811E-1,7.385938E-1,2.3038683E0,3.288099E0,-1.4103985E0,1.2107488E0,-9.332757E-1,-2.185135E-1,1E0,-9.70768E-2,-9.213434E-1,1.0486164E0,-2.5181007E-1,9.120314E-1,1E0,-3.2097762E0,1E0,1.3793048E0,3.8109395E-1,1.0009016E0,-5.0295692E-2,7.2135464E-3,-5.507793E-2,-3.8113948E-2,2.1889387E-1,-3.4112167E-2,-5.4078784E-2,7.460216E-2,-5.7314765E-2,1.3350758E-2,1.2705435E-1,-4.363433E-2,1.4538763E-1,-1.6996672E-2,-4.7589134E-2,-2.2742465E-2,-5.759557E-2,4.5283277E-2,-3.2778796E-2,-1.0999843E-2,1.1669185E-2,1.03449695E-1,2.2805846E-1,6.5774225E-2,5.8969747E-2,2.647714E-1,2.0870255E-1,3.5846487E-2,-3.0639976E-2,6.266745E-2,1.8118893E-1,-4.941928E-2],"split_indices":[12,13,13,11,12,8,13,17,11,8,5,17,12,12,13,17,8,13,3,23,17,13,2,13,17,21,14,24,3,11,12,0,0,0,0,0,0,0,0,0,0,0,0,0,0,0,0,0,0,0,0,0,0,0,0,0,0,0,0,0,0,0,0],"split_type":[0,0,0,0,0,0,0,0,0,0,0,0,0,0,0,0,0,0,0,0,0,0,0,0,0,0,0,0,0,0,0,0,0,0,0,0,0,0,0,0,0,0,0,0,0,0,0,0,0,0,0,0,0,0,0,0,0,0,0,0,0,0,0],"sum_hessian":[1.6151235E4,6.1850464E3,9.966188E3,2.0445118E3,4.1405347E3,8.209436E3,1.7567529E3,2.0200046E3,2.4507204E1,4.2269266E2,3.7178418E3,3.4449895E3,4.7644463E3,9.466072E2,8.101458E2,2.4047525E2,1.7795294E3,4.935325E0,1.9571878E1,1.3271487E2,2.8997778E2,2.0436819E3,1.6741599E3,2.8977524E2,3.155214E3,4.2532075E3,5.1123853E2,7.885911E2,1.5801605E2,6.3504535E2,1.7510045E2,1.2767309E2,1.1280216E2,9.083084E2,8.7122107E2,3.5076776E0,1.4276476E0,1.41423855E1,5.4294934E0,1.1477629E2,1.7938587E1,2.0983813E2,8.013965E1,1.877462E1,2.0249072E3,1.0473223E3,6.268377E2,7.617404E1,2.1360121E2,1.3187928E3,1.8364214E3,4.023456E3,2.297515E2,3.2376087E1,4.7886243E2,7.4772675E2,4.086436E1,1.331708E2,2.4845238E1,1.7263965E2,4.624057E2,3.8107498E0,1.712897E2],"tree_param":{"num_deleted":"0","num_feature":"32","num_nodes":"63","size_leaf_vector":"1"}},{"base_weights":[-2.4627435E-1,-3.2114252E-1,9.447077E-1,-5.210027E-1,-2.2000857E-1,-3.4516284E-1,1.4086002E0,-5.358469E-1,-1.4517274E-1,-5.115994E-1,-3.8457647E-2,-5.527894E-1,1.1325734E0,1.6863247E0,8.405766E-1,-2.6396734E-1,-5.4355526E-1,6.0114735E-1,-2.2995965E-1,-5.3321457E-1,-1.03795985E-2,-1.849175E-1,2.8926933E-1,6.857871E-2,-5.618004E-1,2.0714061E0,-5.296746E-2,2.0191457E0,1.1726538E0,5.290423E-1,1.8493283E0,-4.7923665E-2,5.5073198E-2,-5.4621827E-2,-2.6175855E-2,-4.4512924E-2,1.9084013E-1,-5.496807E-2,-7.8006797E-3,-5.5057198E-2,-4.8798814E-2,-2.0939995E-2,1.8073767E-1,-3.8066287E-2,3.6251463E-3,7.415637E-2,1.0641171E-2,-1.6252596E-2,-5.7533067E-2,-1.8243482E-2,2.4721466E-1,2.19076E-1,5.086444E-2,2.2735773E-1,8.884497E-2,2.4099955E-2,1.2379821E-1,2.2587815E-1,-5.1181346E-2],"categories":[],"categories_nodes":[],"categories_segments":[],"categories_sizes":[],"default_left":[0,0,0,0,0,0,0,0,0,0,0,0,0,0,0,0,0,0,0,0,0,0,0,0,0,0,0,0,0,0,0,0,0,0,0,0,0,0,0,0,0,0,0,0,0,0,0,0,0,0,0,0,0,0,0,0,0,0,0],"id":12,"left_children":[1,3,5,7,9,11,13,15,17,19,21,23,25,27,29,31,33,35,37,39,41,43,45,-1,47,49,-1,51,53,55,57,-1,-1,-1,-1,-1,-1,-1,-1,-1,-1,-1,-1,-1,-1,-1,-1,-1,-1,-1,-1,-1,-1,-1,-1,-1,-1,-1,-1],"loss_changes":[1.4116552E3,3.009088E2,5.607969E2,2.783496E1,5.2357336E2,7.686867E1,1.0726135E2,9.942993E0,1.2254595E1,4.1109985E1,2.9267886E2,2.8245163E0,4.9383007E1,7.656409E1,7.0741425E1,2.3876106E1,3.3682861E0,2.7945461E1,8.34572E0,2.5872803E0,5.7507973E1,1.8245477E2,1.5568773E2,0E0,1.0816269E0,1.8494217E1,0E0,7.1152466E1,5.5524155E1,3.5594353E1,5.2829742E1,0E0,0E0,0E0,0E0,0E0,0E0,0E0,0E0,0E0,0E0,0E0,0E0,0E0,0E0,0E0,0E0,0E0,0E0,0E0,0E0,0E0,0E0,0E0,0E0,0E0,0E0,0E0,0E0],"parents":[2147483647,0,0,1,1,2,2,3,3,4,4,5,5,6,6,7,7,8,8,9,9,10,10,11,11,12,12,13,13,14,14,15,15,16,16,17,17,18,18,19,19,20,20,21,21,22,22,24,24,25,25,27,27,28,28,29,29,30,30],"right_children":[2,4,6,8,10,12,14,16,18,20,22,24,26,28,30,32,34,36,38,40,42,44,46,-1,48,50,-1,52,54,56,58,-1,-1,-1,-1,-1,-1,-1,-1,-1,-1,-1,-1,-1,-1,-1,-1,-1,-1,-1,-1,-1,-1,-1,-1,-1,-1,-1,-1],"split_conditions":[1.9145612E0,-6.773946E-1,-8.9155376E-1,3.568489E-2,-5.4117E-1,1E0,9.9963456E-1,1.765316E-1,-4.9222242E-2,1.6772414E0,3.3419737E-1,5.4143435E-1,2.9056332E0,1.0474256E0,3.288099E0,1.2107488E0,-4.563639E-1,1.5611326E0,-8.371671E-1,8.860347E-1,1E0,5.099813E-1,-1.9078623E-1,6.857871E-2,8.860347E-1,1.9755484E0,-5.296746E-2,1.2107488E0,-2.5325146E0,-1.9729885E-1,1.2107488E0,-4.7923665E-2,5.5073198E-2,-5.4621827E-2,-2.6175855E-2,-4.4512924E-2,1.9084013E-1,-5.496807E-2,-7.8006797E-3,-5.5057198E-2,-4.8798814E-2,-2.0939995E-2,1.8073767E-1,-3.8066287E-2,3.6251463E-3,7.415637E-2,1.0641171E-2,-1.6252596E-2,-5.7533067E-2,-1.8243482E-2,2.4721466E-1,2.19076E-1,5.086444E-2,2.2735773E-1,8.884497E-2,2.4099955E-2,1.2379821E-1,2.2587815E-1,-5.1181346E-2],"split_indices":[13,13,8,3,8,21,19,14,14,13,13,12,12,11,13,8,12,8,0,12,25,8,8,0,12,13,0,8,14,10,8,0,0,0,0,0,0,0,0,0,0,0,0,0,0,0,0,0,0,0,0,0,0,0,0,0,0,0,0],"split_type":[0,0,0,0,0,0,0,0,0,0,0,0,0,0,0,0,0,0,0,0,0,0,0,0,0,0,0,0,0,0,0,0,0,0,0,0,0,0,0,0,0,0,0,0,0,0,0,0,0,0,0,0,0,0,0,0,0,0,0],"sum_hessian":[1.5827243E4,1.4891834E4,9.354085E2,5.002259E3,9.889575E3,2.474951E2,6.879134E2,4.8117812E3,1.9047765E2,3.794067E3,6.095509E3,2.17554E2,2.9941095E1,4.6069592E2,2.2721745E2,1.3363457E2,4.6781465E3,1.8810635E1,1.71667E2,3.6371504E3,1.5691646E2,4.2131187E3,1.8823899E3,1.0288723E0,2.1652513E2,1.8976868E1,1.0964228E1,2.777825E2,1.8291344E2,1.7476804E2,5.244942E1,1.06029884E2,2.7604683E1,4.633422E3,4.4724873E1,1.0814561E1,7.9960732E0,5.446043E1,1.1720657E2,2.6203247E3,1.0168256E3,1.4222905E2,1.4687403E1,2.2346357E3,1.9784832E3,5.410526E2,1.3413373E3,7.523406E0,2.0900172E2,2.9470196E0,1.6029848E1,2.4903795E2,2.8744555E1,3.6094418E1,1.4681902E2,1.2522781E2,4.9540215E1,4.4735115E1,7.7143044E0],"tree_param":{"num_deleted":"0","num_feature":"32","num_nodes":"59","size_leaf_vector":"1"}},{"base_weights":[-4.493547E-1,-4.8790938E-1,1.328318E0,-5.211148E-1,-2.2020492E-1,2.783104E-1,1.8132043E0,-3.631247E-1,-5.3048235E-1,-4.2868567E-1,1.4972305E0,-1.051754E-1,1.0721511E0,-9.27541E-3,1.9651686E0,-3.8102937E-1,1.5477875E0,-5.7726752E-2,-5.0636333E-1,-5.124943E-1,2.491782E-1,1.8280995E0,7.3859565E-2,8.5102165E-1,-5.100569E-1,1.5110215E0,-5.109936E-2,2.3609376E-1,-4.866701E-1,2.2728567E0,1.1676913E0,-7.1481355E-3,-4.5832332E-2,-3.7859455E-2,2.2943774E-1,-5.409619E-2,-2.865151E-2,-5.6377668E-2,-3.9832657E-3,-3.514507E-2,1.7669153E-1,2.412927E-1,1.11693494E-1,-5.682688E-2,2.4849346E-1,-5.3453904E-2,2.4498837E-1,-5.6822177E-2,1.0374583E-1,1.9254868E-1,-1.7293684E-2,-5.459955E-2,1.3516155E-2,1.3374078E-1,2.4234915E-1,1.9510742E-1,-4.5450456E-2],"categories":[],"categories_nodes":[],"categories_segments":[],"categories_sizes":[],"default_left":[0,0,0,0,0,0,0,0,0,0,0,0,0,0,0,0,0,0,0,0,0,0,0,0,0,0,0,0,0,0,0,0,0,0,0,0,0,0,0,0,0,0,0,0,0,0,0,0,0,0,0,0,0,0,0,0,0],"id":13,"left_children":[1,3,5,7,9,11,13,15,17,19,21,23,25,27,29,31,33,-1,35,37,39,41,43,45,47,49,-1,-1,51,53,55,-1,-1,-1,-1,-1,-1,-1,-1,-1,-1,-1,-1,-1,-1,-1,-1,-1,-1,-1,-1,-1,-1,-1,-1,-1,-1],"loss_changes":[1.0669202E3,1.3525049E2,1.6777496E2,1.9856445E1,6.0293604E2,3.2258926E1,6.2588684E1,2.6641327E1,1.4135986E1,8.539096E1,8.572595E1,2.8351654E1,2.473188E1,2.1950752E1,4.8516663E1,1.8035355E1,1.1318209E1,0E0,6.408203E1,3.236148E1,1.5177504E2,5.881195E1,5.6263447E1,4.966055E1,5.205756E0,1.9353722E1,0E0,0E0,6.688721E-1,1.7814453E1,7.728273E1,0E0,0E0,0E0,0E0,0E0,0E0,0E0,0E0,0E0,0E0,0E0,0E0,0E0,0E0,0E0,0E0,0E0,0E0,0E0,0E0,0E0,0E0,0E0,0E0,0E0,0E0],"parents":[2147483647,0,0,1,1,2,2,3,3,4,4,5,5,6,6,7,7,8,8,9,9,10,10,11,11,12,12,13,13,14,14,15,15,16,16,18,18,19,19,20,20,21,21,22,22,23,23,24,24,25,25,28,28,29,29,30,30],"right_children":[2,4,6,8,10,12,14,16,18,20,22,24,26,28,30,32,34,-1,36,38,40,42,44,46,48,50,-1,-1,52,54,56,-1,-1,-1,-1,-1,-1,-1,-1,-1,-1,-1,-1,-1,-1,-1,-1,-1,-1,-1,-1,-1,-1,-1,-1,-1,-1],"split_conditions":[2.9056332E0,1.2264665E0,2.113689E0,-1.4037453E0,1.2107488E0,8.6036503E-1,2.0736582E0,1.1251851E0,-1.9078623E-1,8.6036503E-1,1.5611326E0,-8.9155376E-1,1E0,-1.2419375E0,5.2271423E0,-9.69357E-1,-6.066925E-1,-5.7726752E-2,2.660969E-2,2.88777E0,3.7369204E-1,-6.2849945E-1,-2.5062308E-1,2.78164E0,3.055074E0,4.2784777E0,-5.109936E-2,2.3609376E-1,-2.9382411E-2,-1.2646227E0,-1.2755213E0,-7.1481355E-3,-4.5832332E-2,-3.7859455E-2,2.2943774E-1,-5.409619E-2,-2.865151E-2,-5.6377668E-2,-3.9832657E-3,-3.514507E-2,1.7669153E-1,2.412927E-1,1.11693494E-1,-5.682688E-2,2.4849346E-1,-5.3453904E-2,2.4498837E-1,-5.6822177E-2,1.0374583E-1,1.9254868E-1,-1.7293684E-2,-5.459955E-2,1.3516155E-2,1.3374078E-1,2.4234915E-1,1.9510742E-1,-4.5450456E-2],"split_indices":[12,13,17,14,8,8,13,0,8,8,8,8,31,8,11,6,4,0,13,11,0,11,11,13,11,13,0,0,1,4,2,0,0,0,0,0,0,0,0,0,0,0,0,0,0,0,0,0,0,0,0,0,0,0,0,0,0],"split_type":[0,0,0,0,0,0,0,0,0,0,0,0,0,0,0,0,0,0,0,0,0,0,0,0,0,0,0,0,0,0,0,0,0,0,0,0,0,0,0,0,0,0,0,0,0,0,0,0,0,0,0,0,0,0,0,0,0],"sum_hessian":[1.5556484E4,1.5226964E4,3.2952106E2,1.3545822E4,1.6811409E3,1.0459579E2,2.2492528E2,7.6042584E2,1.2785396E4,1.4998263E3,1.813146E2,7.111116E1,3.3484623E1,1.738379E1,2.0754149E2,7.541602E2,6.2656403E0,4.341327E3,8.444069E3,1.3350139E3,1.6481241E2,1.4688596E2,3.4428654E1,2.0825731E1,5.028543E1,2.6252586E1,7.2320366E0,2.2529037E0,1.5130885E1,1.4842508E2,5.9116417E1,1.510715E2,6.030887E2,1.8877336E0,4.377907E0,7.2946206E3,1.1494486E3,1.2041721E3,1.3084181E2,1.1863304E2,4.617937E1,7.928933E1,6.759663E1,2.7791424E1,6.637228E0,1.1513716E1,9.312015E0,4.9073765E1,1.2116673E0,2.0952267E1,5.3003187E0,1.3924395E1,1.2064905E0,2.1955996E1,1.26469086E2,3.9728294E1,1.9388124E1],"tree_param":{"num_deleted":"0","num_feature":"32","num_nodes":"57","size_leaf_vector":"1"}},{"base_weights":[-4.8817137E-1,-3.4659052E-1,-5.7051893E-2,-3.845659E-1,4.4576094E-1,-4.2558464E-1,4.0076545E-1,1.2798235E0,-2.4171454E-1,-4.5937803E-1,3.4677315E-1,1.6413394E0,-1.6475514E-1,1.6771461E0,2.7472195E-1,7.881103E-1,-3.7046993E-1,1.3219443E-2,-4.8338242E-2,6.839753E-2,-5.6364544E-2,5.68822E-2,2.0596902E-1,4.1858282E-2,-5.2455086E-2,-4.2888485E-2,1.7623898E-1,-5.556599E-2,2.1994169E-1,2.4661992E-1,-5.2820027E-2,-5.3855855E-2,1.632951E-2],"categories":[],"categories_nodes":[],"categories_segments":[],"categories_sizes":[],"default_left":[0,0,0,0,0,0,0,0,0,0,0,0,0,0,0,0,0,0,0,0,0,0,0,0,0,0,0,0,0,0,0,0,0],"id":14,"left_children":[1,3,-1,5,7,9,11,13,15,17,19,21,23,25,27,29,31,-1,-1,-1,-1,-1,-1,-1,-1,-1,-1,-1,-1,-1,-1,-1,-1],"loss_changes":[1.7217822E2,1.6384766E2,0E0,1.674007E2,1.4322586E2,1.289433E2,1.814194E2,4.4575928E1,1.851987E1,6.719922E1,6.405815E1,3.5145187E1,3.7634315E1,1.523082E1,5.4197666E1,3.5754826E1,1.1112076E1,0E0,0E0,0E0,0E0,0E0,0E0,0E0,0E0,0E0,0E0,0E0,0E0,0E0,0E0,0E0,0E0],"parents":[2147483647,0,0,1,1,3,3,4,4,5,5,6,6,7,7,8,8,9,9,10,10,11,11,12,12,13,13,14,14,15,15,16,16],"right_children":[2,4,-1,6,8,10,12,14,16,18,20,22,24,26,28,30,32,-1,-1,-1,-1,-1,-1,-1,-1,-1,-1,-1,-1,-1,-1,-1,-1],"split_conditions":[-6.0182357E-1,1E0,-5.7051893E-2,1E0,-6.429222E-1,1E0,-8.1296533E-1,-8.563788E-1,-8.9155376E-1,-1.2419375E0,1.5611326E0,-8.19823E-1,5.099813E-1,1.5959753E-1,-6.4869136E-1,4.9294046E-1,1.1884866E0,1.3219443E-2,-4.8338242E-2,6.839753E-2,-5.6364544E-2,5.68822E-2,2.0596902E-1,4.1858282E-2,-5.2455086E-2,-4.2888485E-2,1.7623898E-1,-5.556599E-2,2.1994169E-1,2.4661992E-1,-5.2820027E-2,-5.3855855E-2,1.632951E-2],"split_indices":[13,30,0,31,11,29,12,13,8,8,8,12,8,8,11,17,1,0,0,0,0,0,0,0,0,0,0,0,0,0,0,0,0],"split_type":[0,0,0,0,0,0,0,0,0,0,0,0,0,0,0,0,0,0,0,0,0,0,0,0,0,0,0,0,0,0,0,0,0],"sum_hessian":[1.4783984E4,5.4385845E3,9.345399E3,5.1903394E3,2.4824506E2,4.9331343E3,2.572051E2,1.11775085E2,1.3646997E2,4.726728E3,2.06406E2,7.9939865E1,1.7726523E2,7.962874E1,3.2146347E1,1.4597081E1,1.21872894E2,1.8414268E2,4.5425854E3,1.5080087E2,5.560512E1,2.3093977E1,5.6845886E1,6.7562515E1,1.0970271E2,2.940849E0,7.668789E1,2.295433E1,9.192016E0,6.03273E0,8.564351E0,9.267844E1,2.9194462E1],"tree_param":{"num_deleted":"0","num_feature":"32","num_nodes":"33","size_leaf_vector":"1"}},{"base_weights":[-4.2397138E-1,-2.525581E-1,-5.416985E-1,9.254478E-1,-3.238357E-1,-2.4756275E-1,-5.654328E-1,-1.2540337E-1,1.0995615E0,-3.559694E-1,3.7228277E-1,5.243546E-1,-5.1157033E-1,-5.143102E-1,-5.689505E-1,-3.8489693E-1,9.191065E-1,4.4145137E-1,1.4411747E0,-2.5463164E-1,-4.809631E-1,7.455379E-1,-3.0714116E-1,1.8622003E0,2.5423333E-1,-5.7094682E-2,-1.0307919E-1,3.6439355E-2,-5.402193E-1,-5.7201583E-2,-5.439321E-1,1.7346214E-1,-5.035619E-2,2.504711E-1,-9.978657E-3,1.09076045E-1,-3.5807032E-2,1.586329E-1,-5.328635E-2,-1.4892973E-2,-4.639068E-2,-4.9845632E-2,2.9176826E-2,1.2155699E-1,2.2638211E-2,2.7684048E-2,-4.4710245E-2,1.9876537E-1,-3.4629013E-2,1.8291371E-2,1.8720518E-1,1.989404E-1,-3.1268936E-2,-5.347356E-2,6.667415E-2,-1.636524E-2,-5.712646E-2,-2.3873864E-2,-5.7029374E-2],"categories":[],"categories_nodes":[],"categories_segments":[],"categories_sizes":[],"default_left":[0,0,0,0,0,0,0,0,0,0,0,0,0,0,0,0,0,0,0,0,0,0,0,0,0,0,0,0,0,0,0,0,0,0,0,0,0,0,0,0,0,0,0,0,0,0,0,0,0,0,0,0,0,0,0,0,0,0,0],"id":15,"left_children":[1,3,5,7,9,11,13,15,17,19,21,23,25,27,29,31,33,35,37,39,41,43,45,47,49,-1,51,53,55,-1,57,-1,-1,-1,-1,-1,-1,-1,-1,-1,-1,-1,-1,-1,-1,-1,-1,-1,-1,-1,-1,-1,-1,-1,-1,-1,-1,-1,-1],"loss_changes":[3.01396E2,5.1129318E2,6.169409E1,6.3715607E1,1.2851367E2,1.3540887E2,1.1811523E0,1.3983932E1,6.640332E1,6.937323E1,6.45748E1,6.0778374E1,1.1938446E1,7.6969147E0,2.763672E-1,1.118184E1,1.6893944E1,5.4036343E1,5.6966064E1,6.700383E1,3.3336792E1,3.975769E1,7.535103E0,8.533356E0,1.6062485E1,0E0,2.8690195E1,9.396392E0,5.9144287E0,0E0,6.752884E0,0E0,0E0,0E0,0E0,0E0,0E0,0E0,0E0,0E0,0E0,0E0,0E0,0E0,0E0,0E0,0E0,0E0,0E0,0E0,0E0,0E0,0E0,0E0,0E0,0E0,0E0,0E0,0E0],"parents":[2147483647,0,0,1,1,2,2,3,3,4,4,5,5,6,6,7,7,8,8,9,9,10,10,11,11,12,12,13,13,14,14,15,15,16,16,17,17,18,18,19,19,20,20,21,21,22,22,23,23,24,24,26,26,27,27,28,28,30,30],"right_children":[2,4,6,8,10,12,14,16,18,20,22,24,26,28,30,32,34,36,38,40,42,44,46,48,50,-1,52,54,56,-1,58,-1,-1,-1,-1,-1,-1,-1,-1,-1,-1,-1,-1,-1,-1,-1,-1,-1,-1,-1,-1,-1,-1,-1,-1,-1,-1,-1,-1],"split_conditions":[-5.8666056E-1,-5.4117E-1,-6.0182357E-1,-1.3276646E0,1E0,-8.9155376E-1,-4.563639E-1,-6.2094915E-1,-6.0542303E-1,8.2889545E-1,-6.641365E-1,5.184579E-2,1E0,-5.832622E-1,1E0,-8.181086E-1,-4.929255E-1,-7.105398E-1,1.0085503E-1,-7.3581594E-1,1E0,-5.823466E-1,-7.279248E-1,1E0,1.9770852E0,-5.7094682E-2,-5.4117E-1,3.6330608E-1,-5.4117E-1,-5.7201583E-2,-2.425294E-1,1.7346214E-1,-5.035619E-2,2.504711E-1,-9.978657E-3,1.09076045E-1,-3.5807032E-2,1.586329E-1,-5.328635E-2,-1.4892973E-2,-4.639068E-2,-4.9845632E-2,2.9176826E-2,1.2155699E-1,2.2638211E-2,2.7684048E-2,-4.4710245E-2,1.9876537E-1,-3.4629013E-2,1.8291371E-2,1.8720518E-1,1.989404E-1,-3.1268936E-2,-5.347356E-2,6.667415E-2,-1.636524E-2,-5.712646E-2,-2.3873864E-2,-5.7029374E-2],"split_indices":[12,8,13,0,29,8,12,12,11,0,13,16,20,13,31,12,11,13,13,12,30,11,17,29,4,0,8,15,8,0,13,0,0,0,0,0,0,0,0,0,0,0,0,0,0,0,0,0,0,0,0,0,0,0,0,0,0,0,0],"split_type":[0,0,0,0,0,0,0,0,0,0,0,0,0,0,0,0,0,0,0,0,0,0,0,0,0,0,0,0,0,0,0,0,0,0,0,0,0,0,0,0,0,0,0,0,0,0,0,0,0,0,0,0,0,0,0,0,0,0,0],"sum_hessian":[1.4941157E4,6.0847593E3,8.856397E3,3.464809E2,5.7382783E3,6.621302E2,8.194268E3,4.9287743E1,2.9719315E2,5.485547E3,2.5273111E2,1.6849393E2,4.936363E2,5.370186E2,7.657249E3,3.9985435E1,9.302307E0,1.023365E2,1.9485664E2,3.0311226E3,2.4544246E3,1.6305583E2,8.9675285E1,2.7315058E1,1.4117886E2,4.306423E2,6.299398E1,2.4109837E1,5.1290875E2,6.8019766E3,8.5527246E2,1.3979703E0,3.8587463E1,3.0686297E0,6.233677E0,5.627228E1,4.606422E1,1.8169287E2,1.3163763E1,2.0150574E3,1.0160652E3,2.400438E3,5.398659E1,8.487263E1,7.8183205E1,1.7148018E1,7.252727E1,2.5941446E1,1.3736103E0,1.3628401E2,4.894859E0,4.9626074E0,5.8031372E1,1.2727707E1,1.138213E1,3.9542732E1,4.7336603E2,6.8801506E1,7.86471E2],"tree_param":{"num_deleted":"0","num_feature":"32","num_nodes":"59","size_leaf_vector":"1"}},{"base_weights":[-2.6594174E-1,1.040626E0,-3.3347243E-1,4.9223846E-1,1.3908396E0,-1.4004894E-1,-5.301285E-1,1.9089729E-1,4.4699574E-1,-5.337716E-2,1.4526635E0,5.308791E-1,-2.3742472E-1,-4.3372402E-1,-5.607446E-1,7.038184E-1,1.6406982E-1,1.5847325E0,9.186133E-1,-3.0513862E-1,7.5381577E-1,-2.6608938E-1,2.6620004E-1,-2.695762E-1,-4.8599446E-1,-5.2939814E-1,-5.711128E-1,1.6158703E-1,5.069983E-2,-7.1246983E-3,1.0355295E-1,1.6133213E-1,1.101625E-5,1.8540812E-1,7.392903E-2,-5.356723E-2,1.110234E-1,1.0000896E-1,2.9373908E-2,6.4014047E-3,-3.0589366E-2,4.764749E-2,-5.4324057E-2,3.1224001E-2,-3.98088E-2,-3.730159E-2,-5.6346834E-2,-4.072888E-2,-5.7127833E-2,-5.7134923E-2,-3.3435296E-2],"categories":[],"categories_nodes":[],"categories_segments":[],"categories_sizes":[],"default_left":[0,0,0,0,0,0,0,0,0,0,0,0,0,0,0,0,0,0,0,0,0,0,0,0,0,0,0,0,0,0,0,0,0,0,0,0,0,0,0,0,0,0,0,0,0,0,0,0,0,0,0],"id":16,"left_children":[1,3,5,7,9,11,13,-1,15,-1,17,19,21,23,25,27,29,31,33,35,37,39,41,43,45,47,49,-1,-1,-1,-1,-1,-1,-1,-1,-1,-1,-1,-1,-1,-1,-1,-1,-1,-1,-1,-1,-1,-1,-1,-1],"loss_changes":[1.354927E3,1.4426422E2,5.5522217E2,1.8099648E1,5.5514587E1,4.810422E2,2.1121094E1,0E0,2.0800022E1,0E0,3.0000916E1,1.7417078E2,9.2879E1,1.4876434E1,1.4821777E0,2.6211395E1,2.8428102E1,1.6135864E1,1.3861862E1,6.493521E1,8.322055E1,7.9949066E1,5.926947E1,3.187906E1,1.139093E1,6.815979E0,3.90625E-2,0E0,0E0,0E0,0E0,0E0,0E0,0E0,0E0,0E0,0E0,0E0,0E0,0E0,0E0,0E0,0E0,0E0,0E0,0E0,0E0,0E0,0E0,0E0,0E0],"parents":[2147483647,0,0,1,1,2,2,3,3,4,4,5,5,6,6,8,8,10,10,11,11,12,12,13,13,14,14,15,15,16,16,17,17,18,18,19,19,20,20,21,21,22,22,23,23,24,24,25,25,26,26],"right_children":[2,4,6,8,10,12,14,-1,16,-1,18,20,22,24,26,28,30,32,34,36,38,40,42,44,46,48,50,-1,-1,-1,-1,-1,-1,-1,-1,-1,-1,-1,-1,-1,-1,-1,-1,-1,-1,-1,-1,-1,-1,-1,-1],"split_conditions":[-9.823306E-1,-9.757449E-2,-2.73023E-1,-1.6040254E0,5.099813E-1,-5.4117E-1,4.7822647E-2,1.9089729E-1,1.5611326E0,-5.337716E-2,3.486524E-1,-5.9866154E-1,1E0,-8.9155376E-1,1.8826182E-1,-9.1681844E-1,3.8462397E-1,1.8265145E0,8.6036503E-1,7.1443397E-1,-4.4670394E-1,-8.19823E-1,-5.52372E-1,3.1033321E-3,-5.131174E-1,-5.4117E-1,3.103079E0,1.6158703E-1,5.069983E-2,-7.1246983E-3,1.0355295E-1,1.6133213E-1,1.101625E-5,1.8540812E-1,7.392903E-2,-5.356723E-2,1.110234E-1,1.0000896E-1,2.9373908E-2,6.4014047E-3,-3.0589366E-2,4.764749E-2,-5.4324057E-2,3.1224001E-2,-3.98088E-2,-3.730159E-2,-5.6346834E-2,-4.072888E-2,-5.7127833E-2,-5.7134923E-2,-3.3435296E-2],"split_indices":[13,1,13,1,8,8,13,0,8,0,19,12,31,8,12,6,17,18,8,17,13,12,12,12,11,8,5,0,0,0,0,0,0,0,0,0,0,0,0,0,0,0,0,0,0,0,0,0,0,0,0],"split_type":[0,0,0,0,0,0,0,0,0,0,0,0,0,0,0,0,0,0,0,0,0,0,0,0,0,0,0,0,0,0,0,0,0,0,0,0,0,0,0,0,0,0,0,0,0,0,0,0,0,0,0],"sum_hessian":[1.5351232E4,7.53735E2,1.4597498E4,2.9469208E2,4.5904294E2,7.3600967E3,7.237401E3,7.8448167E0,2.8684726E2,1.4049236E1,4.449937E2,9.322636E2,6.427833E3,1.748103E3,5.489298E3,1.4958008E2,1.3726718E2,3.551891E2,8.9804596E1,1.9618745E2,7.360762E2,6.08213E3,3.4570322E2,4.2369788E2,1.3244052E3,1.3773124E3,4.1119854E3,2.527011E1,1.2430997E2,1.0880519E2,2.846199E1,3.488768E2,6.3123055E0,1.2943487E1,7.686111E1,1.6924297E2,2.694449E1,4.7867383E2,2.574023E2,6.544081E2,5.4277217E3,2.747425E2,7.096072E1,7.639632E1,3.4730154E2,5.411181E2,7.83287E2,3.5448166E2,1.0228307E3,4.1064717E3,5.5138593E0],"tree_param":{"num_deleted":"0","num_feature":"32","num_nodes":"51","size_leaf_vector":"1"}},{"base_weights":[1.3107725E0,1.3877709E0,2.2035089E-1,1.4948789E0,1.2292227E0,5.5824125E-1,-3.7041008E-1,1.8366135E0,1.4615108E0,8.591803E-1,1.3097758E0,2.0355405E-1,9.633114E-1,-4.151969E-1,1.9714446E-1,1.8957151E0,7.145448E-1,1.1226952E0,1.5375065E0,2.3362195E-1,9.9677306E-1,1.6348983E0,1.1780325E0,4.11759E-2,9.832766E-1,1.4237142E0,1.4639346E-1,-5.8662586E-2,-5.182491E-1,1.9839981E-1,1.5778041E-1,1.13496505E-1,-2.7724443E-2,1.4172505E-1,-6.912952E-3,1.6357158E-1,1.16791464E-1,9.282024E-3,8.6376116E-2,1.2468327E-2,1.08537845E-1,1.7257749E-1,-2.9355986E-2,8.956667E-2,1.3323295E-1,-1.4521356E-2,8.449553E-2,2.333645E-1,5.908226E-2,7.792617E-2,1.72338E-1,6.7186795E-2,-3.7126847E-2,7.143323E-2,-3.4354486E-2,-4.0790413E-2,-5.6344062E-2],"categories":[],"categories_nodes":[],"categories_segments":[],"categories_sizes":[],"default_left":[0,0,0,0,0,0,0,0,0,0,0,0,0,0,0,0,0,0,0,0,0,0,0,0,0,0,0,0,0,0,0,0,0,0,0,0,0,0,0,0,0,0,0,0,0,0,0,0,0,0,0,0,0,0,0,0,0],"id":17,"left_children":[1,3,5,7,9,11,13,15,17,19,21,23,25,27,-1,29,31,33,35,37,39,41,43,45,47,49,51,53,55,-1,-1,-1,-1,-1,-1,-1,-1,-1,-1,-1,-1,-1,-1,-1,-1,-1,-1,-1,-1,-1,-1,-1,-1,-1,-1,-1,-1],"loss_changes":[1.7894727E3,3.3627734E2,2.8109378E2,1.3276562E2,2.3833105E2,1.2847247E2,5.458197E1,6.846069E1,2.7704297E2,1.2362659E2,2.8056543E2,6.0573296E1,1.5693826E2,1.848021E1,0E0,2.492163E1,2.2948484E1,6.977219E2,3.1897266E2,2.305518E1,9.09884E1,3.3335254E2,2.0344629E2,5.964053E1,4.232762E1,5.0240295E1,4.151875E1,2.5370508E1,1.7184982E0,0E0,0E0,0E0,0E0,0E0,0E0,0E0,0E0,0E0,0E0,0E0,0E0,0E0,0E0,0E0,0E0,0E0,0E0,0E0,0E0,0E0,0E0,0E0,0E0,0E0,0E0,0E0,0E0],"parents":[2147483647,0,0,1,1,2,2,3,3,4,4,5,5,6,6,7,7,8,8,9,9,10,10,11,11,12,12,13,13,15,15,16,16,17,17,18,18,19,19,20,20,21,21,22,22,23,23,24,24,25,25,26,26,27,27,28,28],"right_children":[2,4,6,8,10,12,14,16,18,20,22,24,26,28,-1,30,32,34,36,38,40,42,44,46,48,50,52,54,56,-1,-1,-1,-1,-1,-1,-1,-1,-1,-1,-1,-1,-1,-1,-1,-1,-1,-1,-1,-1,-1,-1,-1,-1,-1,-1,-1,-1],"split_conditions":[1.5605704E0,5.099813E-1,2.2314296E0,-1.3660047E0,-8.19823E-1,1.0520113E0,1.5611326E0,-4.3658137E-2,-5.9917194E-1,8.6036503E-1,-8.6698526E-1,1E0,2.3964477E0,2.3746169E0,1.9714446E-1,-6.0182357E-1,-5.0951123E-1,-4.5397156E-1,7.801212E-1,1E0,-8.206965E-1,1E0,-5.448474E-1,1E0,-5.4117E-1,-6.5801746E-1,2.7521963E0,-6.775145E-1,2.6066334E0,1.9839981E-1,1.5778041E-1,1.13496505E-1,-2.7724443E-2,1.4172505E-1,-6.912952E-3,1.6357158E-1,1.16791464E-1,9.282024E-3,8.6376116E-2,1.2468327E-2,1.08537845E-1,1.7257749E-1,-2.9355986E-2,8.956667E-2,1.3323295E-1,-1.4521356E-2,8.449553E-2,2.333645E-1,5.908226E-2,7.792617E-2,1.72338E-1,6.7186795E-2,-3.7126847E-2,7.143323E-2,-3.4354486E-2,-4.0790413E-2,-5.6344062E-2],"split_indices":[13,8,13,17,12,17,8,13,13,8,13,30,12,13,0,13,12,17,1,23,0,30,11,29,8,6,11,2,13,0,0,0,0,0,0,0,0,0,0,0,0,0,0,0,0,0,0,0,0,0,0,0,0,0,0,0,0],"split_type":[0,0,0,0,0,0,0,0,0,0,0,0,0,0,0,0,0,0,0,0,0,0,0,0,0,0,0,0,0,0,0,0,0,0,0,0,0,0,0,0,0,0,0,0,0,0,0,0,0,0,0,0,0,0,0,0,0],"sum_hessian":[2.1315818E4,1.9909656E4,1.4061619E3,1.18774E4,8.0322573E3,8.94564E2,5.1159784E2,1.0517716E3,1.0825628E4,1.4380167E3,6.5942407E3,4.7774435E2,4.1681964E2,5.0280463E2,8.793185E0,9.984898E2,5.328188E1,1.986204E3,8.839425E3,2.5975446E2,1.1782623E3,1.898247E3,4.6959937E3,3.9627286E2,8.147149E1,2.661044E2,1.5071526E2,1.1309479E2,3.8970984E2,7.7737445E2,2.2111531E2,3.731827E1,1.5963608E1,1.5924473E3,3.9375668E2,6.9809844E3,1.8584402E3,2.1325165E2,4.6502804E1,1.08893745E2,1.0693685E3,1.8129202E3,8.532678E1,1.6617573E3,3.0342363E3,3.2234354E2,7.392932E1,1.7232176E1,6.423931E1,8.560509E1,1.8049931E2,7.464541E1,7.6069855E1,3.0050037E1,8.3044754E1,1.161443E2,2.7356555E2],"tree_param":{"num_deleted":"0","num_feature":"32","num_nodes":"57","size_leaf_vector":"1"}},{"base_weights":[-6.50584E-3,-2.5918573E-1,1.4478692E-1,-4.218973E-1,-1.8039273E-1,6.174968E-2,5.1772344E-1,-2.2038807E-1,-4.489528E-1,3.7055516E-1,-2.462347E-1,-1.6005208E-1,2.1717717E-1,6.132915E-1,-4.2421797E-1,-3.5859132E-1,3.7315384E-1,-3.085342E-1,-5.175232E-1,-4.684979E-1,7.200544E-1,-1.4521465E-1,-3.718128E-1,-5.734281E-2,-1.3342886E-1,1.7591088E-1,9.052647E-1,-4.1822442E-1,6.93813E-1,1.585035E0,-4.8589018E-1,-5.675866E-2,-5.8624665E-3,-5.5413287E-2,1.5513504E-1,-1.0174249E-2,-5.4742683E-2,-5.569722E-2,-3.750692E-2,-5.677696E-2,1.330252E-2,1.08688965E-1,-5.1085144E-2,1.2631766E-1,-1.6045377E-2,-3.9265733E-2,3.475359E-2,1.393664E-1,-1.7082838E-2,1.0761251E-2,6.947006E-2,3.5626706E-2,1.3869023E-1,8.95595E-2,-5.7266988E-2,8.7833226E-2,4.097807E-2,1.3864419E-2,1.9565795E-1,-2.5383849E-2,-5.5375434E-2],"categories":[],"categories_nodes":[],"categories_segments":[],"categories_sizes":[],"default_left":[0,0,0,0,0,0,0,0,0,0,0,0,0,0,0,0,0,0,0,0,0,0,0,0,0,0,0,0,0,0,0,0,0,0,0,0,0,0,0,0,0,0,0,0,0,0,0,0,0,0,0,0,0,0,0,0,0,0,0,0,0],"id":18,"left_children":[1,3,5,7,9,11,13,15,17,19,21,23,25,27,29,31,33,35,37,39,41,43,45,-1,47,49,51,53,55,57,59,-1,-1,-1,-1,-1,-1,-1,-1,-1,-1,-1,-1,-1,-1,-1,-1,-1,-1,-1,-1,-1,-1,-1,-1,-1,-1,-1,-1,-1,-1],"loss_changes":[6.14275E2,7.707556E1,3.1121252E2,1.0601166E1,1.47232E2,2.834621E2,1.6501248E2,1.935186E1,1.6491364E1,1.2743019E2,4.5917282E1,3.7209946E1,1.3711394E2,1.3833539E2,2.1733463E1,1.1912237E1,4.9737633E1,2.8097042E1,6.3124695E0,7.721817E0,1.3888376E2,4.3340748E1,2.4350937E1,0E0,1.8210255E2,1.6157387E2,7.176817E1,2.5058994E1,8.045758E1,2.5622492E0,2.456314E0,0E0,0E0,0E0,0E0,0E0,0E0,0E0,0E0,0E0,0E0,0E0,0E0,0E0,0E0,0E0,0E0,0E0,0E0,0E0,0E0,0E0,0E0,0E0,0E0,0E0,0E0,0E0,0E0,0E0,0E0],"parents":[2147483647,0,0,1,1,2,2,3,3,4,4,5,5,6,6,7,7,8,8,9,9,10,10,11,11,12,12,13,13,14,14,15,15,16,16,17,17,18,18,19,19,20,20,21,21,22,22,24,24,25,25,26,26,27,27,28,28,29,29,30,30],"right_children":[2,4,6,8,10,12,14,16,18,20,22,24,26,28,30,32,34,36,38,40,42,44,46,-1,48,50,52,54,56,58,60,-1,-1,-1,-1,-1,-1,-1,-1,-1,-1,-1,-1,-1,-1,-1,-1,-1,-1,-1,-1,-1,-1,-1,-1,-1,-1,-1,-1,-1,-1],"split_conditions":[-5.9180385E-1,-9.2266923E-1,1.3802605E0,-1.3175337E0,-8.19823E-1,-5.4117E-1,3.288099E0,-8.061076E-1,-8.5455054E-1,1.2107488E0,1.3166048E-1,-5.832622E-1,1E0,-4.986946E-1,1.0009016E0,-1.3958464E0,1.5959753E-1,1.6255131E-1,-6.515759E-1,1E0,-5.9249494E-2,-9.213434E-1,-3.7465885E-1,-5.734281E-2,-5.196234E-1,7.385938E-1,-3.123518E-1,-6.874465E-1,1.9755484E0,9.840536E-1,-1.2758812E0,-5.675866E-2,-5.8624665E-3,-5.5413287E-2,1.5513504E-1,-1.0174249E-2,-5.4742683E-2,-5.569722E-2,-3.750692E-2,-5.677696E-2,1.330252E-2,1.08688965E-1,-5.1085144E-2,1.2631766E-1,-1.6045377E-2,-3.9265733E-2,3.475359E-2,1.393664E-1,-1.7082838E-2,1.0761251E-2,6.947006E-2,3.5626706E-2,1.3869023E-1,8.95595E-2,-5.7266988E-2,8.7833226E-2,4.097807E-2,1.3864419E-2,1.9565795E-1,-2.5383849E-2,-5.5375434E-2],"split_indices":[12,13,13,17,12,8,13,12,6,8,5,13,25,11,12,17,8,17,11,23,17,13,11,0,13,12,12,17,13,17,10,0,0,0,0,0,0,0,0,0,0,0,0,0,0,0,0,0,0,0,0,0,0,0,0,0,0,0,0,0,0],"split_type":[0,0,0,0,0,0,0,0,0,0,0,0,0,0,0,0,0,0,0,0,0,0,0,0,0,0,0,0,0,0,0,0,0,0,0,0,0,0,0,0,0,0,0,0,0,0,0,0,0,0,0,0,0,0,0,0,0,0,0,0,0],"sum_hessian":[1.6066468E4,6.016824E3,1.0049644E4,1.9616217E3,4.0552026E3,8.220459E3,1.8291842E3,2.3328244E2,1.7283392E3,4.3239658E2,3.6228062E3,3.3870137E3,4.8334453E3,1.6610094E3,1.681748E2,1.8954395E2,4.3738506E1,5.688817E2,1.1594575E3,1.27048065E2,3.053485E2,2.0089126E3,1.6138934E3,2.0369681E2,3.183317E3,4.561157E3,2.722881E2,1.19968376E2,1.541041E3,4.2726555E0,1.6390215E2,1.111856E2,7.835834E1,2.4771805E1,1.8966702E1,3.0569235E2,2.6318936E2,9.0572925E2,2.5372824E2,1.0909913E2,1.7948936E1,2.353318E2,7.001672E1,2.062764E1,1.9882849E3,1.5688861E3,4.500736E1,7.523098E1,3.108086E3,4.0316062E3,5.295512E2,1.2805898E2,1.4422911E2,1.2114586E1,1.0785379E2,9.3289886E2,6.081422E2,1.1538754E0,3.1187804E0,3.8159966E1,1.2574218E2],"tree_param":{"num_deleted":"0","num_feature":"32","num_nodes":"61","size_leaf_vector":"1"}},{"base_weights":[-2.3603368E-1,-3.0983087E-1,8.27178E-1,-5.13266E-1,-2.095194E-1,-3.3685768E-1,1.1939002E0,-5.286608E-1,-1.3517031E-1,-5.037123E-1,-3.3312347E-2,-5.47034E-1,1.0008225E0,1.054671E0,1.9520922E0,-2.503051E-1,-5.3668827E-1,5.6458074E-1,-2.1868312E-1,-5.2604014E-1,-9.558388E-3,-1.7519039E-1,2.7308157E-1,6.4720005E-2,-5.563889E-1,1.7198162E0,-5.219945E-2,8.8907456E-1,1.7321777E0,2.0915306E0,1.6242359E-2,-4.6881925E-2,5.0926484E-2,-5.394583E-2,-2.5111381E-2,-4.3486457E-2,1.6412872E-1,-5.4326624E-2,-6.988545E-3,-5.4421794E-2,-4.787802E-2,6.9262855E-2,-4.892488E-2,-2.2581955E-2,6.5700755E-2,6.322691E-2,6.515894E-3,-1.6391948E-2,-5.7036456E-2,-1.758555E-2,2.0062983E-1,1.0880747E-1,1.9031292E-2,1.936433E-1,3.9540056E-2,2.1314931E-1,3.5631925E-2,1.4497168E-1,-5.2538723E-2],"categories":[],"categories_nodes":[],"categories_segments":[],"categories_sizes":[],"default_left":[0,0,0,0,0,0,0,0,0,0,0,0,0,0,0,0,0,0,0,0,0,0,0,0,0,0,0,0,0,0,0,0,0,0,0,0,0,0,0,0,0,0,0,0,0,0,0,0,0,0,0,0,0,0,0,0,0,0,0],"id":19,"left_children":[1,3,5,7,9,11,13,15,17,19,21,23,25,27,29,31,33,35,37,39,41,43,45,-1,47,49,-1,51,53,55,57,-1,-1,-1,-1,-1,-1,-1,-1,-1,-1,-1,-1,-1,-1,-1,-1,-1,-1,-1,-1,-1,-1,-1,-1,-1,-1,-1,-1],"loss_changes":[1.2110359E3,2.9437537E2,4.280666E2,2.766394E1,5.010889E2,6.824544E1,7.8385376E1,1.0095581E1,1.109615E1,3.994629E1,2.628997E2,2.6921425E0,3.7083225E1,7.093646E1,3.1562195E1,2.1849453E1,3.3839111E0,2.2557753E1,8.098505E0,2.7155762E0,5.340822E1,1.7430722E2,1.4291432E2,0E0,1.0454941E0,1.2671158E1,0E0,7.226376E1,3.3591003E1,6.8114014E0,7.6504254E0,0E0,0E0,0E0,0E0,0E0,0E0,0E0,0E0,0E0,0E0,0E0,0E0,0E0,0E0,0E0,0E0,0E0,0E0,0E0,0E0,0E0,0E0,0E0,0E0,0E0,0E0,0E0,0E0],"parents":[2147483647,0,0,1,1,2,2,3,3,4,4,5,5,6,6,7,7,8,8,9,9,10,10,11,11,12,12,13,13,14,14,15,15,16,16,17,17,18,18,19,19,20,20,21,21,22,22,24,24,25,25,27,27,28,28,29,29,30,30],"right_children":[2,4,6,8,10,12,14,16,18,20,22,24,26,28,30,32,34,36,38,40,42,44,46,-1,48,50,-1,52,54,56,58,-1,-1,-1,-1,-1,-1,-1,-1,-1,-1,-1,-1,-1,-1,-1,-1,-1,-1,-1,-1,-1,-1,-1,-1,-1,-1,-1,-1],"split_conditions":[1.9145612E0,-6.773946E-1,-8.9155376E-1,3.568489E-2,-5.4117E-1,1E0,5.7311666E-1,1.765316E-1,-4.9222242E-2,1.6772414E0,3.3419737E-1,5.4143435E-1,2.9056332E0,3.288099E0,-1.9078623E-1,1.2107488E0,-4.563639E-1,1.5611326E0,-8.371671E-1,8.860347E-1,1.1319449E0,6.3699394E-1,-3.54467E-1,6.4720005E-2,8.860347E-1,1.9755484E0,-5.219945E-2,1.1769161E0,1.2107488E0,1E0,-1.6834928E0,-4.6881925E-2,5.0926484E-2,-5.394583E-2,-2.5111381E-2,-4.3486457E-2,1.6412872E-1,-5.4326624E-2,-6.988545E-3,-5.4421794E-2,-4.787802E-2,6.9262855E-2,-4.892488E-2,-2.2581955E-2,6.5700755E-2,6.322691E-2,6.515894E-3,-1.6391948E-2,-5.7036456E-2,-1.758555E-2,2.0062983E-1,1.0880747E-1,1.9031292E-2,1.936433E-1,3.9540056E-2,2.1314931E-1,3.5631925E-2,1.4497168E-1,-5.2538723E-2],"split_indices":[13,13,8,3,8,21,10,14,14,13,13,12,12,13,8,8,12,8,0,12,17,17,11,0,12,13,0,19,8,30,4,0,0,0,0,0,0,0,0,0,0,0,0,0,0,0,0,0,0,0,0,0,0,0,0,0,0,0,0],"split_type":[0,0,0,0,0,0,0,0,0,0,0,0,0,0,0,0,0,0,0,0,0,0,0,0,0,0,0,0,0,0,0,0,0,0,0,0,0,0,0,0,0,0,0,0,0,0,0,0,0,0,0,0,0,0,0,0,0,0,0],"sum_hessian":[1.5430409E4,1.4429566E4,1.000843E3,4.7639634E3,9.665603E3,2.3979051E2,7.6105255E2,4.5771978E3,1.8676575E2,3.6199407E3,6.045662E3,2.0774127E2,3.2049255E1,6.450002E2,1.1605234E2,1.2920314E2,4.4479946E3,1.9299068E1,1.6746667E2,3.4633865E3,1.5655421E2,4.1325034E3,1.9131589E3,1.084711E0,2.0665656E2,2.168254E1,1.0366714E1,5.2017175E2,1.2482841E2,1.0817978E2,7.872559E0,1.0063508E2,2.8568062E1,4.4043843E3,4.361067E1,1.0317779E1,8.981291E0,5.1806458E1,1.1566021E2,2.4937068E3,9.6967957E2,6.3360733E1,9.3193474E1,3.8961956E3,2.3630759E2,7.006835E2,1.2124755E3,7.54358E0,1.9911298E2,2.897269E0,1.8785273E1,4.0443555E2,1.1573624E2,1.07893974E2,1.6934435E1,1.0552121E2,2.6585727E0,1.6991122E0,6.1734467E0],"tree_param":{"num_deleted":"0","num_feature":"32","num_nodes":"59","size_leaf_vector":"1"}},{"base_weights":[-4.4006097E-1,-4.792506E-1,1.1344719E0,-5.1339144E-1,-2.1012366E-1,1.8245558E-1,1.4773861E0,-3.512301E-1,-5.2312243E-1,-4.184749E-1,1.2844332E0,-3.8032174E-2,1.5288641E0,9.152941E-2,1.583887E0,-3.704888E-1,1.2936242E0,-5.719119E-2,-4.9812844E-1,-5.043859E-1,2.3612322E-1,1.5346526E0,7.144424E-2,-2.3437004E-1,1.0796651E0,1.9811459E-1,-4.1137572E-2,1.9998357E-1,-3.179517E-1,1.7853265E0,9.982713E-1,-6.138136E-3,-4.4996604E-2,-3.9946657E-2,1.9531964E-1,-5.3396966E-2,-2.7563741E-2,-5.5777043E-2,-3.2088687E-3,1.677719E-1,-2.9834822E-2,1.9592085E-1,9.7866856E-2,-5.6253947E-2,2.0711647E-1,8.1873655E-2,-5.668549E-2,-4.6085563E-2,1.8481265E-1,-5.4483533E-2,1.4200248E-1,1.872371E-1,6.8375014E-2,1.5887755E-1,-4.4751626E-2],"categories":[],"categories_nodes":[],"categories_segments":[],"categories_sizes":[],"default_left":[0,0,0,0,0,0,0,0,0,0,0,0,0,0,0,0,0,0,0,0,0,0,0,0,0,0,0,0,0,0,0,0,0,0,0,0,0,0,0,0,0,0,0,0,0,0,0,0,0,0,0,0,0,0,0],"id":20,"left_children":[1,3,5,7,9,11,13,15,17,19,21,23,25,27,29,31,33,-1,35,37,39,41,43,45,47,-1,-1,-1,49,51,53,-1,-1,-1,-1,-1,-1,-1,-1,-1,-1,-1,-1,-1,-1,-1,-1,-1,-1,-1,-1,-1,-1,-1,-1],"loss_changes":[9.202727E2,1.3352466E2,1.17997955E2,2.018164E1,5.1090878E2,2.8876562E1,3.9144287E1,2.3719887E1,1.455957E1,8.1056625E1,6.0828888E1,1.8772326E1,1.2823486E1,1.630969E1,2.7371765E1,1.7806717E1,1.0510424E1,0E0,6.410449E1,3.206775E1,1.2967627E2,3.7359283E1,4.602359E1,2.588555E1,1.5990214E1,0E0,0E0,0E0,7.6259136E0,1.6230347E1,5.6649414E1,0E0,0E0,0E0,0E0,0E0,0E0,0E0,0E0,0E0,0E0,0E0,0E0,0E0,0E0,0E0,0E0,0E0,0E0,0E0,0E0,0E0,0E0,0E0,0E0],"parents":[2147483647,0,0,1,1,2,2,3,3,4,4,5,5,6,6,7,7,8,8,9,9,10,10,11,11,12,12,13,13,14,14,15,15,16,16,18,18,19,19,20,20,21,21,22,22,23,23,24,24,28,28,29,29,30,30],"right_children":[2,4,6,8,10,12,14,16,18,20,22,24,26,28,30,32,34,-1,36,38,40,42,44,46,48,-1,-1,-1,50,52,54,-1,-1,-1,-1,-1,-1,-1,-1,-1,-1,-1,-1,-1,-1,-1,-1,-1,-1,-1,-1,-1,-1,-1,-1],"split_conditions":[2.9056332E0,1.2264665E0,1.8996065E0,-1.4037453E0,1.2107488E0,1.2107488E0,2.0736582E0,1.1155318E0,-1.9078623E-1,8.6036503E-1,1.5611326E0,3.5112795E-1,1E0,-1.2419375E0,5.2271423E0,-9.69357E-1,-5.449547E-1,-5.719119E-2,2.660969E-2,2.88777E0,-2.1205837E-1,-6.2849945E-1,-2.5062308E-1,-8.9155376E-1,8.6036503E-1,1.9811459E-1,-4.1137572E-2,1.9998357E-1,1.3433582E-1,1E0,-1.1802741E0,-6.138136E-3,-4.4996604E-2,-3.9946657E-2,1.9531964E-1,-5.3396966E-2,-2.7563741E-2,-5.5777043E-2,-3.2088687E-3,1.677719E-1,-2.9834822E-2,1.9592085E-1,9.7866856E-2,-5.6253947E-2,2.0711647E-1,8.1873655E-2,-5.668549E-2,-4.6085563E-2,1.8481265E-1,-5.4483533E-2,1.4200248E-1,1.872371E-1,6.8375014E-2,1.5887755E-1,-4.4751626E-2],"split_indices":[12,13,17,14,8,8,13,0,8,8,8,0,31,8,11,6,4,0,13,11,16,11,11,8,8,0,0,0,1,31,0,0,0,0,0,0,0,0,0,0,0,0,0,0,0,0,0,0,0,0,0,0,0,0,0],"split_type":[0,0,0,0,0,0,0,0,0,0,0,0,0,0,0,0,0,0,0,0,0,0,0,0,0,0,0,0,0,0,0,0,0,0,0,0,0,0,0,0,0,0,0,0,0,0,0,0,0,0,0,0,0,0,0],"sum_hessian":[1.4904168E4,1.45428955E4,3.6127252E2,1.29049E4,1.6379951E3,9.607531E1,2.651972E2,7.326589E2,1.2172242E4,1.4382179E3,1.9977722E2,8.339096E1,1.2684345E1,1.9058271E1,2.4613895E2,7.249457E2,7.7132163E0,4.1159116E3,8.05633E3,1.2715643E3,1.6665361E2,1.6539403E2,3.4383205E1,7.160325E1,1.1787719E1,1.02694025E1,2.4149427E0,2.6808534E0,1.6377419E1,1.8161765E2,6.452131E1,1.486357E2,5.7630994E2,2.2729685E0,5.4402475E0,6.9373843E3,1.1189462E3,1.1422706E3,1.2929373E2,4.4496635E1,1.2215697E2,9.235035E1,7.304367E1,2.665219E1,7.7310166E0,1.6830894E1,5.477235E1,4.0563383E0,7.7313805E0,1.5093548E1,1.2838708E0,1.6766904E2,1.3948601E1,4.574055E1,1.8780754E1],"tree_param":{"num_deleted":"0","num_feature":"32","num_nodes":"55","size_leaf_vector":"1"}},{"base_weights":[-4.8005903E-1,-3.0950364E-1,-5.522409E-1,-3.5583377E-1,7.222462E-1,-4.4136095E-1,-5.6544196E-2,-4.0328455E-1,5.9667706E-1,1.3683685E0,3.765055E-2,-7.325709E-2,-5.086251E-1,-4.4124827E-1,5.272295E-1,1.475016E0,-2.1958542E-1,-4.682116E-2,1.468502E0,7.05858E-1,-4.708061E-1,1.1706197E0,-4.5106262E-1,-3.8454765E-1,-5.5158323E-1,-4.7632E-2,2.0933129E-2,-5.0255693E-2,8.830144E-2,1.9931164E-1,1.15970604E-1,3.3943012E-2,-5.5971224E-2,6.959E-2,1.6661091E-1,1.5617639E-1,-2.8861433E-2,-5.66257E-2,4.105031E-2,-5.2332293E-2,1.757266E-1,-5.2613128E-2,7.552082E-2,-4.292687E-2,1.7719601E-1,-5.6129288E-2,-3.847694E-2],"categories":[],"categories_nodes":[],"categories_segments":[],"categories_sizes":[],"default_left":[0,0,0,0,0,0,0,0,0,0,0,0,0,0,0,0,0,0,0,0,0,0,0,0,0,0,0,0,0,0,0,0,0,0,0,0,0,0,0,0,0,0,0,0,0,0,0],"id":21,"left_children":[1,3,5,7,9,11,-1,13,15,17,19,21,23,25,27,29,31,-1,33,35,37,39,41,43,45,-1,-1,-1,-1,-1,-1,-1,-1,-1,-1,-1,-1,-1,-1,-1,-1,-1,-1,-1,-1,-1,-1],"loss_changes":[1.7343726E2,2.0081628E2,1.4251709E1,1.8175626E2,7.9851E1,2.6173569E1,0E0,1.3539209E2,1.3724509E2,1.777266E1,3.048095E1,7.7936874E1,4.557678E0,8.3989746E1,5.556083E1,1.2737473E1,1.9176281E1,0E0,1.2327698E1,3.3429237E1,4.5219736E0,3.9330917E1,1.1903599E1,2.3274296E1,8.569336E-1,0E0,0E0,0E0,0E0,0E0,0E0,0E0,0E0,0E0,0E0,0E0,0E0,0E0,0E0,0E0,0E0,0E0,0E0,0E0,0E0,0E0,0E0],"parents":[2147483647,0,0,1,1,2,2,3,3,4,4,5,5,7,7,8,8,9,9,10,10,11,11,12,12,13,13,14,14,15,15,16,16,18,18,19,19,20,20,21,21,22,22,23,23,24,24],"right_children":[2,4,6,8,10,12,-1,14,16,18,20,22,24,26,28,30,32,-1,34,36,38,40,42,44,46,-1,-1,-1,-1,-1,-1,-1,-1,-1,-1,-1,-1,-1,-1,-1,-1,-1,-1,-1,-1,-1,-1],"split_conditions":[-7.5296575E-1,1E0,-6.0182357E-1,1E0,-6.458068E-1,-8.9155376E-1,-5.6544196E-2,1E0,-8.061076E-1,-1.2215147E0,5.099813E-1,-6.2094915E-1,-7.666757E-1,1E0,-1.0724882E0,-4.3228126E-1,5.099813E-1,-4.682116E-2,-9.7702736E-1,-7.9141414E-1,1.3083414E0,-7.012592E-1,7.244684E-2,-6.0845256E-1,1E0,-4.7632E-2,2.0933129E-2,-5.0255693E-2,8.830144E-2,1.9931164E-1,1.15970604E-1,3.3943012E-2,-5.5971224E-2,6.959E-2,1.6661091E-1,1.5617639E-1,-2.8861433E-2,-5.66257E-2,4.105031E-2,-5.2332293E-2,1.757266E-1,-5.2613128E-2,7.552082E-2,-4.292687E-2,1.7719601E-1,-5.6129288E-2,-3.847694E-2],"split_indices":[13,30,13,31,11,8,0,29,12,17,8,12,12,24,6,17,8,0,13,13,1,13,11,13,29,0,0,0,0,0,0,0,0,0,0,0,0,0,0,0,0,0,0,0,0,0,0],"split_type":[0,0,0,0,0,0,0,0,0,0,0,0,0,0,0,0,0,0,0,0,0,0,0,0,0,0,0,0,0,0,0,0,0,0,0,0,0,0,0,0,0,0,0,0,0,0,0],"sum_hessian":[1.4100894E4,4.194703E3,9.90619E3,4.015064E3,1.7963902E2,1.0575875E3,8.848604E3,3.825088E3,1.89976E2,9.190251E1,8.77365E1,1.6371948E2,8.93868E2,3.675652E3,1.4943582E2,9.1119675E1,9.885632E1,4.561567E0,8.734094E1,3.774468E1,4.9991825E1,3.7653065E1,1.26066414E2,2.3244415E2,6.614238E2,3.487893E3,1.8775916E2,3.826598E1,1.1116984E2,3.2460766E1,5.8658905E1,3.739606E1,6.1460262E1,1.8710085E1,6.863086E1,1.9979021E1,1.7765657E1,4.5429073E1,4.5627513E0,9.713436E0,2.7939629E1,1.1921148E2,6.8549323E0,2.285064E2,3.9377563E0,6.228076E2,3.8616264E1],"tree_param":{"num_deleted":"0","num_feature":"32","num_nodes":"47","size_leaf_vector":"1"}},{"base_weights":[-4.1414708E-1,-2.4206123E-1,-5.354135E-1,8.2601607E-1,-3.126898E-1,-2.3843221E-1,-5.600738E-1,5.703827E-1,1.3869847E0,-3.449985E-1,3.5176352E-1,4.8169756E-1,-5.047117E-1,-5.070743E-1,-5.637462E-1,9.5655864E-1,-2.2166145E-1,1.6557231E0,-5.3046383E-2,-3.7102687E-1,1.688277E-1,6.8438685E-1,-2.969665E-1,1.9259274E0,2.8943172E-1,-5.6621242E-2,-9.56292E-2,3.914186E-2,-5.339412E-1,-5.669718E-2,-5.37474E-1,1.7721163E-1,5.1806208E-2,-5.5281825E-2,2.7472908E-2,-5.2520227E-2,1.8419544E-1,-4.010354E-2,7.967775E-3,1.6088448E-1,1.0719465E-3,2.0402585E-1,5.4440208E-2,2.6802594E-2,-4.386659E-2,6.0707152E-2,1.9729422E-1,1.5806133E-2,1.1887868E-1,9.414333E-2,-4.762278E-2,-5.2869644E-2,6.1872523E-2,-1.4888369E-2,-5.6641866E-2,-2.2441795E-2,-5.651429E-2],"categories":[],"categories_nodes":[],"categories_segments":[],"categories_sizes":[],"default_left":[0,0,0,0,0,0,0,0,0,0,0,0,0,0,0,0,0,0,0,0,0,0,0,0,0,0,0,0,0,0,0,0,0,0,0,0,0,0,0,0,0,0,0,0,0,0,0,0,0,0,0,0,0,0,0,0,0],"id":22,"left_children":[1,3,5,7,9,11,13,15,17,19,21,23,25,27,29,31,33,35,-1,37,39,41,43,45,47,-1,49,51,53,-1,55,-1,-1,-1,-1,-1,-1,-1,-1,-1,-1,-1,-1,-1,-1,-1,-1,-1,-1,-1,-1,-1,-1,-1,-1,-1,-1],"loss_changes":[2.9893896E2,4.4730508E2,6.1430176E1,5.195848E1,1.19465515E2,1.2416404E2,1.2248535E0,7.802198E1,5.9855087E1,7.09718E1,5.593496E1,4.802588E1,1.182785E1,7.547333E0,3.0932617E-1,6.030597E1,1.3991512E1,4.1837555E1,0E0,6.8288086E1,5.8340324E1,3.1352577E1,7.181883E0,6.589508E-2,1.8194244E1,0E0,2.528535E1,8.54686E0,6.029602E0,0E0,6.9057465E0,0E0,0E0,0E0,0E0,0E0,0E0,0E0,0E0,0E0,0E0,0E0,0E0,0E0,0E0,0E0,0E0,0E0,0E0,0E0,0E0,0E0,0E0,0E0,0E0,0E0,0E0],"parents":[2147483647,0,0,1,1,2,2,3,3,4,4,5,5,6,6,7,7,8,8,9,9,10,10,11,11,12,12,13,13,14,14,15,15,16,16,17,17,19,19,20,20,21,21,22,22,23,23,24,24,26,26,27,27,28,28,30,30],"right_children":[2,4,6,8,10,12,14,16,18,20,22,24,26,28,30,32,34,36,-1,38,40,42,44,46,48,-1,50,52,54,-1,56,-1,-1,-1,-1,-1,-1,-1,-1,-1,-1,-1,-1,-1,-1,-1,-1,-1,-1,-1,-1,-1,-1,-1,-1,-1,-1],"split_conditions":[-5.8666056E-1,-5.4117E-1,-6.0182357E-1,-3.3931345E-1,1E0,-8.9155376E-1,-4.563639E-1,-7.105398E-1,1.0085503E-1,1E0,-6.641365E-1,3.8462397E-1,1E0,-5.832622E-1,1E0,3.1928942E-1,6.0556245E-1,-8.9155376E-1,-5.3046383E-2,1E0,-8.619676E-1,-8.524843E-1,-7.279248E-1,-2.1312389E-1,-3.7424123E-1,-5.6621242E-2,-7.184947E-1,3.6330608E-1,-5.4117E-1,-5.669718E-2,-2.425294E-1,1.7721163E-1,5.1806208E-2,-5.5281825E-2,2.7472908E-2,-5.2520227E-2,1.8419544E-1,-4.010354E-2,7.967775E-3,1.6088448E-1,1.0719465E-3,2.0402585E-1,5.4440208E-2,2.6802594E-2,-4.386659E-2,6.0707152E-2,1.9729422E-1,1.5806133E-2,1.1887868E-1,9.414333E-2,-4.762278E-2,-5.2869644E-2,6.1872523E-2,-1.4888369E-2,-5.6641866E-2,-2.2441795E-2,-5.651429E-2],"split_indices":[12,8,13,13,29,8,12,13,13,31,13,17,20,13,31,17,19,8,0,20,17,17,17,11,0,0,13,15,8,0,13,0,0,0,0,0,0,0,0,0,0,0,0,0,0,0,0,0,0,0,0,0,0,0,0,0,0],"split_type":[0,0,0,0,0,0,0,0,0,0,0,0,0,0,0,0,0,0,0,0,0,0,0,0,0,0,0,0,0,0,0,0,0,0,0,0,0,0,0,0,0,0,0,0,0,0,0,0,0,0,0,0,0,0,0,0,0],"sum_hessian":[1.4330277E4,5.92511E3,8.405168E3,3.6684348E2,5.5582666E3,6.452434E2,7.7599243E3,2.5339032E2,1.13453156E2,5.3009897E3,2.57277E2,1.7396396E2,4.7127942E2,5.1186887E2,7.248055E3,1.7019894E2,8.3191376E1,9.962658E1,1.3826579E1,5.045674E3,2.5531557E2,1.7003831E2,8.723869E1,1.937901E1,1.5458495E2,4.0935385E2,6.1925583E1,2.3975697E1,4.8789316E2,6.4371606E3,8.1089484E2,5.844886E1,1.11750084E2,4.983278E1,3.3358597E1,7.6947246E0,9.1931854E1,4.730801E3,3.14873E2,2.4351503E1,2.3096407E2,1.4642117E1,1.553962E2,1.731355E1,6.992515E1,1.1459254E0,1.8233084E1,1.3590833E2,1.8676622E1,1.6229517E1,4.5696064E1,1.2154906E1,1.1820791E1,3.838451E1,4.4950867E2,6.658946E1,7.4430536E2],"tree_param":{"num_deleted":"0","num_feature":"32","num_nodes":"57","size_leaf_vector":"1"}},{"base_weights":[-2.5553116E-1,9.1421086E-1,-3.2242638E-1,3.9409173E-1,1.1761323E0,-1.3158266E-1,-5.232245E-1,6.8822724E-1,1.726539E-1,-5.2667346E-2,1.220256E0,4.8918205E-1,-2.267892E-1,-4.2409834E-1,-5.551463E-1,-5.5953838E-2,8.3895254E-1,-4.500241E-2,1.1575288E0,1.326277E0,6.432657E-1,-2.703793E-1,6.8903947E-1,-2.5530213E-1,2.5714147E-1,-2.5788605E-1,-4.7784075E-1,-5.223638E-1,-5.660303E-1,1.8956603E-1,6.7814164E-2,3.1057829E-2,-3.130209E-2,-5.592322E-2,1.814508E-1,1.6082464E-1,1.1634191E-1,1.323122E-1,3.2262646E-2,-5.356474E-2,8.542273E-2,9.013638E-2,2.7986392E-2,-2.8387904E-2,2.1825934E-2,4.489946E-2,-5.364091E-2,2.9846076E-2,-3.873571E-2,-3.6251735E-2,-5.5820204E-2,-3.9678156E-2,-5.661666E-2,-5.6627817E-2,-3.2428946E-2],"categories":[],"categories_nodes":[],"categories_segments":[],"categories_sizes":[],"default_left":[0,0,0,0,0,0,0,0,0,0,0,0,0,0,0,0,0,0,0,0,0,0,0,0,0,0,0,0,0,0,0,0,0,0,0,0,0,0,0,0,0,0,0,0,0,0,0,0,0,0,0,0,0,0,0],"id":23,"left_children":[1,3,5,7,9,11,13,15,17,-1,19,21,23,25,27,-1,29,31,33,35,37,39,41,43,45,47,49,51,53,-1,-1,-1,-1,-1,-1,-1,-1,-1,-1,-1,-1,-1,-1,-1,-1,-1,-1,-1,-1,-1,-1,-1,-1,-1,-1],"loss_changes":[1.1679451E3,1.0953693E2,5.4085425E2,1.759328E1,4.0953735E1,4.2791272E2,2.1528809E1,2.2372475E1,3.359503E1,0E0,3.115686E1,1.4635217E2,8.6672485E1,1.4880524E1,1.5593262E0,0E0,1.6439957E1,1.24023485E1,3.3000637E1,1.8384827E1,1.7702564E1,6.0507538E1,6.599802E1,8.028381E1,5.3486656E1,2.9833258E1,1.1549622E1,6.975586E0,4.9682617E-2,0E0,0E0,0E0,0E0,0E0,0E0,0E0,0E0,0E0,0E0,0E0,0E0,0E0,0E0,0E0,0E0,0E0,0E0,0E0,0E0,0E0,0E0,0E0,0E0,0E0,0E0],"parents":[2147483647,0,0,1,1,2,2,3,3,4,4,5,5,6,6,7,7,8,8,10,10,11,11,12,12,13,13,14,14,16,16,17,17,18,18,19,19,20,20,21,21,22,22,23,23,24,24,25,25,26,26,27,27,28,28],"right_children":[2,4,6,8,10,12,14,16,18,-1,20,22,24,26,28,-1,30,32,34,36,38,40,42,44,46,48,50,52,54,-1,-1,-1,-1,-1,-1,-1,-1,-1,-1,-1,-1,-1,-1,-1,-1,-1,-1,-1,-1,-1,-1,-1,-1,-1,-1],"split_conditions":[-9.823306E-1,-7.8796424E-2,-2.73023E-1,-6.9525766E-1,5.099813E-1,-5.4117E-1,4.7822647E-2,-1.4091241E0,3.7200296E-1,-5.2667346E-2,1E0,-5.8666056E-1,1E0,-8.9155376E-1,1.8826182E-1,-5.5953838E-2,-1.1936617E0,1.5611326E0,4.6101865E-1,8.6036503E-1,5.7311636E-1,6.9747365E-1,-4.4670394E-1,1E0,-5.52372E-1,3.1033321E-3,-5.131174E-1,-5.4117E-1,3.103079E0,1.8956603E-1,6.7814164E-2,3.1057829E-2,-3.130209E-2,-5.592322E-2,1.814508E-1,1.6082464E-1,1.1634191E-1,1.323122E-1,3.2262646E-2,-5.356474E-2,8.542273E-2,9.013638E-2,2.7986392E-2,-2.8387904E-2,2.1825934E-2,4.489946E-2,-5.364091E-2,2.9846076E-2,-3.873571E-2,-3.6251735E-2,-5.5820204E-2,-3.9678156E-2,-5.661666E-2,-5.6627817E-2,-3.2428946E-2],"split_indices":[13,0,13,18,8,8,13,6,17,0,23,12,31,8,12,0,2,8,18,8,10,17,13,29,12,12,11,8,5,0,0,0,0,0,0,0,0,0,0,0,0,0,0,0,0,0,0,0,0,0,0,0,0,0,0],"split_type":[0,0,0,0,0,0,0,0,0,0,0,0,0,0,0,0,0,0,0,0,0,0,0,0,0,0,0,0,0,0,0,0,0,0,0,0,0,0,0,0,0,0,0,0,0,0,0,0,0,0,0,0,0,0,0],"sum_hessian":[1.4921017E4,8.064594E2,1.4114558E4,2.7093866E2,5.3552075E2,7.2375024E3,6.877055E3,1.1546229E2,1.5547638E2,1.3249881E1,5.222708E2,9.6185944E2,6.275643E3,1.6786515E3,5.1984033E3,1.2151867E1,1.0331042E2,1.2811697E2,2.735941E1,4.401039E2,8.216693E1,2.0029234E2,7.615671E2,5.926906E3,3.487373E2,4.1156854E2,1.267083E3,1.3079304E3,3.8904731E3,1.22204275E1,9.109E1,5.4995514E1,7.312146E1,7.613432E0,1.9745977E1,1.5787927E2,2.8222464E2,2.5330915E1,5.6836018E1,1.6248878E2,3.7803555E1,5.0059937E2,2.609677E2,5.589981E3,3.3692502E2,2.8118958E2,6.754773E1,7.7450905E1,3.341176E2,5.226126E2,7.444704E2,3.4083093E2,9.670994E2,3.8851467E3,5.3264446E0],"tree_param":{"num_deleted":"0","num_feature":"32","num_nodes":"55","size_leaf_vector":"1"}},{"base_weights":[1.1219474E0,1.1779535E0,1.3893528E-1,1.2624549E0,1.0509471E0,4.6213362E-1,-3.6036336E-1,1.538276E0,1.2354374E0,1.0834446E0,3.2298863E-1,8.180925E-1,3.7408985E-2,-4.0542594E-1,1.6901241E-1,1.5636197E0,-1.5576589E-1,9.708822E-1,1.2926255E0,9.396132E-1,1.2655225E0,1.3547716E0,2.0644814E-2,1.2503651E0,2.2457257E-1,5.156248E-1,-2.4087907E-1,-5.2687597E-2,-5.1116264E-1,1.6449648E-1,1.2663965E-1,6.453412E-2,-5.0686687E-2,1.36197535E-2,1.2591182E-1,1.3673817E-1,1.00103214E-1,9.866668E-2,2.4559546E-2,1.3282482E-1,8.483871E-2,6.470446E-2,2.0696814E-1,-3.7978373E-2,6.909051E-2,1.5069847E-1,7.260266E-2,4.8338857E-2,-5.4169834E-2,1.6577673E-1,1.1244381E-2,-2.8571323E-2,2.0880349E-1,3.9602026E-2,-5.253924E-2,-3.9822392E-2,-5.5814356E-2],"categories":[],"categories_nodes":[],"categories_segments":[],"categories_sizes":[],"default_left":[0,0,0,0,0,0,0,0,0,0,0,0,0,0,0,0,0,0,0,0,0,0,0,0,0,0,0,0,0,0,0,0,0,0,0,0,0,0,0,0,0,0,0,0,0,0,0,0,0,0,0,0,0,0,0,0,0],"id":24,"left_children":[1,3,5,7,9,11,13,15,17,19,21,23,25,27,-1,29,31,33,35,37,39,41,43,45,47,49,51,53,55,-1,-1,-1,-1,-1,-1,-1,-1,-1,-1,-1,-1,-1,-1,-1,-1,-1,-1,-1,-1,-1,-1,-1,-1,-1,-1,-1,-1],"loss_changes":[1.2816855E3,2.3508789E2,2.0287772E2,9.663281E1,2.0798633E2,1.1532295E2,4.6346718E1,5.0713867E1,1.8102344E2,2.1957617E2,1.1781838E2,1.0620682E2,4.6562176E1,1.8038094E1,0E0,2.5921875E1,5.456625E0,5.159994E2,2.1451172E2,1.5368018E2,9.613916E1,4.1968933E1,7.894765E1,3.118982E1,3.5191463E1,5.9069885E1,2.3699654E1,2.4137747E1,1.7543716E0,0E0,0E0,0E0,0E0,0E0,0E0,0E0,0E0,0E0,0E0,0E0,0E0,0E0,0E0,0E0,0E0,0E0,0E0,0E0,0E0,0E0,0E0,0E0,0E0,0E0,0E0,0E0,0E0],"parents":[2147483647,0,0,1,1,2,2,3,3,4,4,5,5,6,6,7,7,8,8,9,9,10,10,11,11,12,12,13,13,15,15,16,16,17,17,18,18,19,19,20,20,21,21,22,22,23,23,24,24,25,25,26,26,27,27,28,28],"right_children":[2,4,6,8,10,12,14,16,18,20,22,24,26,28,-1,30,32,34,36,38,40,42,44,46,48,50,52,54,56,-1,-1,-1,-1,-1,-1,-1,-1,-1,-1,-1,-1,-1,-1,-1,-1,-1,-1,-1,-1,-1,-1,-1,-1,-1,-1,-1,-1],"split_conditions":[1.6454221E0,5.099813E-1,2.2314296E0,-1.3660047E0,8.544638E-1,-9.522376E-1,1.5611326E0,-4.237897E-1,-5.9917194E-1,-5.8811575E-1,1.9936709E-1,2.230148E0,-6.4435446E-1,2.3746169E0,1.6901241E-1,-5.6204927E-1,1.0065931E0,4.8452154E-1,7.801212E-1,-3.4149706E-1,5.30417E-1,-3.294961E-1,1.2083476E0,-1.4037453E0,3.669484E0,7.008763E-1,1.5611326E0,-5.4117E-1,2.6066334E0,1.6449648E-1,1.2663965E-1,6.453412E-2,-5.0686687E-2,1.36197535E-2,1.2591182E-1,1.3673817E-1,1.00103214E-1,9.866668E-2,2.4559546E-2,1.3282482E-1,8.483871E-2,6.470446E-2,2.0696814E-1,-3.7978373E-2,6.909051E-2,1.5069847E-1,7.260266E-2,4.8338857E-2,-5.4169834E-2,1.6577673E-1,1.1244381E-2,-2.8571323E-2,2.0880349E-1,3.9602026E-2,-5.253924E-2,-3.9822392E-2,-5.5814356E-2],"split_indices":[13,8,13,17,17,14,8,12,13,11,11,12,4,13,0,13,1,0,1,12,13,12,12,14,11,12,8,8,13,0,0,0,0,0,0,0,0,0,0,0,0,0,0,0,0,0,0,0,0,0,0,0,0,0,0,0,0],"split_type":[0,0,0,0,0,0,0,0,0,0,0,0,0,0,0,0,0,0,0,0,0,0,0,0,0,0,0,0,0,0,0,0,0,0,0,0,0,0,0,0,0,0,0,0,0,0,0,0,0,0,0,0,0,0,0,0,0],"sum_hessian":[2.3282287E4,2.202712E4,1.2551693E3,1.3221497E4,8.805621E3,7.6199854E2,4.9317078E2,1.1745521E3,1.2046945E4,8.428852E3,3.7676935E2,4.1405536E2,3.479432E2,4.833507E2,9.820089E0,1.1573151E3,1.7237041E1,2.144472E3,9.902473E3,4.7124443E3,3.7164077E3,8.459575E1,2.9217358E2,2.3893062E2,1.7512473E2,1.2768091E2,2.2026228E2,1.11819244E2,3.7153146E2,9.050764E2,2.522387E2,4.997103E0,1.2239939E1,5.5083E2,1.5936418E3,7.878869E3,2.0236039E3,4.412838E3,2.9960654E2,3.2287131E3,4.8769467E2,4.3468777E1,4.1126972E1,1.8317445E2,1.08999146E2,1.5916078E2,7.976985E1,1.3118484E2,4.393988E1,3.250059E1,9.518031E1,2.1696283E2,3.2994537E0,5.744894E1,5.4370304E1,1.1193181E2,2.5959964E2],"tree_param":{"num_deleted":"0","num_feature":"32","num_nodes":"57","size_leaf_vector":"1"}},{"base_weights":[-3.3729132E-3,-2.5207254E-1,1.366149E-1,-4.1139945E-1,-1.7459938E-1,6.0033467E-2,4.7309467E-1,-2.0713268E-1,-4.3921E-1,3.4650868E-1,-2.4161617E-1,-1.4848618E-1,1.9901055E-1,5.55678E-1,-4.138229E-1,-5.219261E-1,4.8894893E-2,-2.965184E-1,-5.100861E-1,-4.6031678E-1,6.554844E-1,-1.4887977E-1,-3.591511E-1,2.0868461E-1,-1.8262821E-1,2.5594285E-1,-2.332684E-1,6.1798394E-1,-5.202565E-1,1.4371454E0,-4.771973E-1,-5.6016725E-2,-2.3650285E-2,-3.4525957E-2,4.257858E-2,-9.199534E-3,-5.409905E-2,-5.511696E-2,-3.64151E-2,-5.630613E-2,1.3295519E-2,9.68441E-2,-5.0513376E-2,1.13170646E-1,-1.6437883E-2,-4.5956537E-2,-1.9558571E-2,-3.623086E-2,5.7070997E-2,-3.110134E-2,-9.165384E-3,3.2508444E-2,-2.2231426E-2,-3.412073E-2,4.0239833E-2,-5.5541128E-2,6.583633E-2,-5.507133E-2,2.6208997E-2,1.2528977E-2,1.7584883E-1,-2.420309E-2,-5.4769155E-2],"categories":[],"categories_nodes":[],"categories_segments":[],"categories_sizes":[],"default_left":[0,0,0,0,0,0,0,0,0,0,0,0,0,0,0,0,0,0,0,0,0,0,0,0,0,0,0,0,0,0,0,0,0,0,0,0,0,0,0,0,0,0,0,0,0,0,0,0,0,0,0,0,0,0,0,0,0,0,0,0,0,0,0],"id":25,"left_children":[1,3,5,7,9,11,13,15,17,19,21,23,25,27,29,31,33,35,37,39,41,43,45,47,49,51,53,55,57,59,61,-1,-1,-1,-1,-1,-1,-1,-1,-1,-1,-1,-1,-1,-1,-1,-1,-1,-1,-1,-1,-1,-1,-1,-1,-1,-1,-1,-1,-1,-1,-1,-1],"loss_changes":[5.560725E2,7.0934265E1,2.6331586E2,1.0596191E1,1.3531248E2,2.413176E2,1.3899902E2,1.8347584E1,1.6585999E1,1.1039984E2,3.734964E1,4.0652344E1,1.2303049E2,1.1653967E2,1.9684063E1,9.813862E-1,1.89067E1,2.7530975E1,6.42041E0,7.5653E0,1.1663481E2,3.8290672E1,2.4755402E1,6.0371925E1,3.5483467E1,1.4608627E2,4.007099E1,7.803265E1,2.4184666E0,2.1449795E0,2.475914E0,0E0,0E0,0E0,0E0,0E0,0E0,0E0,0E0,0E0,0E0,0E0,0E0,0E0,0E0,0E0,0E0,0E0,0E0,0E0,0E0,0E0,0E0,0E0,0E0,0E0,0E0,0E0,0E0,0E0,0E0,0E0,0E0],"parents":[2147483647,0,0,1,1,2,2,3,3,4,4,5,5,6,6,7,7,8,8,9,9,10,10,11,11,12,12,13,13,14,14,15,15,16,16,17,17,18,18,19,19,20,20,21,21,22,22,23,23,24,24,25,25,26,26,27,27,28,28,29,29,30,30],"right_children":[2,4,6,8,10,12,14,16,18,20,22,24,26,28,30,32,34,36,38,40,42,44,46,48,50,52,54,56,58,60,62,-1,-1,-1,-1,-1,-1,-1,-1,-1,-1,-1,-1,-1,-1,-1,-1,-1,-1,-1,-1,-1,-1,-1,-1,-1,-1,-1,-1,-1,-1,-1,-1],"split_conditions":[-6.038049E-1,-9.2266923E-1,1.3802605E0,-1.3175337E0,-8.19823E-1,-5.4117E-1,3.288099E0,-1.4258245E0,-8.5455054E-1,1.2107488E0,1.3166048E-1,-2.1767811E-1,1E0,1.2107488E0,1.0009016E0,-8.0782205E-1,-9.611177E-1,1.6255131E-1,-6.515759E-1,1E0,-5.9249494E-2,-9.213434E-1,1.0486164E0,-5.419629E-1,9.120314E-1,1E0,8.140287E-1,1.4197217E-1,1.0331018E0,-6.123708E-1,-1.2758812E0,-5.6016725E-2,-2.3650285E-2,-3.4525957E-2,4.257858E-2,-9.199534E-3,-5.409905E-2,-5.511696E-2,-3.64151E-2,-5.630613E-2,1.3295519E-2,9.68441E-2,-5.0513376E-2,1.13170646E-1,-1.6437883E-2,-4.5956537E-2,-1.9558571E-2,-3.623086E-2,5.7070997E-2,-3.110134E-2,-9.165384E-3,3.2508444E-2,-2.2231426E-2,-3.412073E-2,4.0239833E-2,-5.5541128E-2,6.583633E-2,-5.507133E-2,2.6208997E-2,1.2528977E-2,1.7584883E-1,-2.420309E-2,-5.4769155E-2],"split_indices":[12,13,13,17,12,8,13,17,6,8,5,17,29,8,12,12,13,17,11,23,17,13,2,11,17,30,12,12,5,0,10,0,0,0,0,0,0,0,0,0,0,0,0,0,0,0,0,0,0,0,0,0,0,0,0,0,0,0,0,0,0,0,0],"split_type":[0,0,0,0,0,0,0,0,0,0,0,0,0,0,0,0,0,0,0,0,0,0,0,0,0,0,0,0,0,0,0,0,0,0,0,0,0,0,0,0,0,0,0,0,0,0,0,0,0,0,0,0,0,0,0,0,0,0,0,0,0,0,0],"sum_hessian":[1.597026E4,5.7514844E3,1.0218776E4,1.8802856E3,3.8711985E3,8.325178E3,1.8935983E3,2.2633276E2,1.6539528E3,4.4064764E2,3.430551E3,3.329526E3,4.995652E3,1.7326407E3,1.6095746E2,1.01050125E2,1.25282646E2,5.5061285E2,1.10334E3,1.218838E2,3.1876385E2,1.918835E3,1.511716E3,2.9005505E2,3.039471E3,4.4146396E3,5.810121E2,1.6382004E3,9.444035E1,4.6108856E0,1.5634657E2,8.826214E1,1.2787987E1,6.1279823E1,6.400282E1,3.0055103E2,2.5006186E2,8.587959E2,2.4454404E2,1.0393497E2,1.7948833E1,2.5119547E2,6.756839E1,2.2084906E1,1.8967501E3,9.355585E2,5.761574E2,1.12545456E2,1.775096E2,1.2595482E3,1.7799227E3,3.857309E3,5.5733057E2,4.9707062E2,8.394147E1,5.4074703E1,1.5841257E3,9.118653E1,3.253821E0,1.1806945E0,3.430191E0,3.708053E1,1.1926604E2],"tree_param":{"num_deleted":"0","num_feature":"32","num_nodes":"63","size_leaf_vector":"1"}},{"base_weights":[-2.2603825E-1,-2.9858625E-1,7.3462933E-1,-5.0584096E-1,-1.9897108E-1,-3.29395E-1,1.0345852E0,-6.6403404E-2,-5.19654E-1,-4.9569544E-1,-2.84906E-2,-5.416465E-1,9.0187544E-1,1.2821333E0,7.3500186E-1,4.5896557E-1,-2.3212138E-1,-2.5138775E-1,-5.2798796E-1,-5.187861E-1,-9.11405E-3,-1.6650711E-1,2.6102987E-1,-7.776614E-3,-5.6583174E-2,1.4866446E0,-5.1554065E-2,1.4882628E0,5.5286143E-2,1.6766223E0,5.6415546E-1,-2.1020144E-2,1.1617619E-1,1.3186187E-4,-5.364433E-2,-4.5914523E-2,4.7411274E-2,-5.3129423E-2,-1.975271E-2,-5.3774804E-2,-4.6978757E-2,6.165267E-2,-4.806547E-2,-3.625938E-2,4.494382E-3,6.565394E-2,9.383702E-3,-5.0947465E-2,1.6321322E-1,-1.7220724E-2,1.7118149E-1,1.5679203E-1,7.723015E-2,8.690138E-2,-5.46693E-2,4.4699356E-2,1.8653098E-1,3.7628904E-2,1.4258772E-1],"categories":[],"categories_nodes":[],"categories_segments":[],"categories_sizes":[],"default_left":[0,0,0,0,0,0,0,0,0,0,0,0,0,0,0,0,0,0,0,0,0,0,0,0,0,0,0,0,0,0,0,0,0,0,0,0,0,0,0,0,0,0,0,0,0,0,0,0,0,0,0,0,0,0,0,0,0,0,0],"id":26,"left_children":[1,3,5,7,9,11,13,15,17,19,21,23,25,27,29,31,33,35,37,39,41,43,45,47,-1,49,-1,51,53,55,57,-1,-1,-1,-1,-1,-1,-1,-1,-1,-1,-1,-1,-1,-1,-1,-1,-1,-1,-1,-1,-1,-1,-1,-1,-1,-1,-1,-1],"loss_changes":[1.048227E3,2.8856836E2,3.374171E2,2.751184E1,4.777614E2,6.138449E1,6.0175415E1,1.2247399E1,9.703735E0,3.8716248E1,2.3977715E2,2.5699272E0,2.9475832E1,1.1369397E2,5.9415695E1,1.61281E1,7.578941E0,2.0486446E1,4.5563965E0,2.8043213E0,4.6658806E1,1.6849585E2,1.2803513E2,8.774813E0,0E0,9.550091E0,0E0,2.0754822E1,3.2685528E1,1.241803E1,5.1121742E1,0E0,0E0,0E0,0E0,0E0,0E0,0E0,0E0,0E0,0E0,0E0,0E0,0E0,0E0,0E0,0E0,0E0,0E0,0E0,0E0,0E0,0E0,0E0,0E0,0E0,0E0,0E0,0E0],"parents":[2147483647,0,0,1,1,2,2,3,3,4,4,5,5,6,6,7,7,8,8,9,9,10,10,11,11,12,12,13,13,14,14,15,15,16,16,17,17,18,18,19,19,20,20,21,21,22,22,23,23,25,25,27,27,28,28,29,29,30,30],"right_children":[2,4,6,8,10,12,14,16,18,20,22,24,26,28,30,32,34,36,38,40,42,44,46,48,-1,50,-1,52,54,56,58,-1,-1,-1,-1,-1,-1,-1,-1,-1,-1,-1,-1,-1,-1,-1,-1,-1,-1,-1,-1,-1,-1,-1,-1,-1,-1,-1,-1],"split_conditions":[1.9145612E0,-6.773946E-1,-8.9155376E-1,-1.624164E0,-5.4117E-1,1E0,9.724272E-1,1.765316E-1,1.765316E-1,1.6772414E0,3.3419737E-1,8.860347E-1,2.9056332E0,1.2107488E0,-2.5325146E0,1.5611326E0,2.3095846E-1,1.5611326E0,-4.563639E-1,8.860347E-1,1.1319449E0,5.099813E-1,-1.9078623E-1,1E0,-5.6583174E-2,1.9755484E0,-5.1554065E-2,1E0,-6.242833E-1,2.2314296E0,3.288099E0,-2.1020144E-2,1.1617619E-1,1.3186187E-4,-5.364433E-2,-4.5914523E-2,4.7411274E-2,-5.3129423E-2,-1.975271E-2,-5.3774804E-2,-4.6978757E-2,6.165267E-2,-4.806547E-2,-3.625938E-2,4.494382E-3,6.565394E-2,9.383702E-3,-5.0947465E-2,1.6321322E-1,-1.7220724E-2,1.7118149E-1,1.5679203E-1,7.723015E-2,8.690138E-2,-5.46693E-2,4.4699356E-2,1.8653098E-1,3.7628904E-2,1.4258772E-1],"split_indices":[13,13,8,15,8,21,11,14,14,13,13,12,12,8,14,8,17,8,12,12,17,8,8,25,0,13,0,23,18,13,13,0,0,0,0,0,0,0,0,0,0,0,0,0,0,0,0,0,0,0,0,0,0,0,0,0,0,0,0],"split_type":[0,0,0,0,0,0,0,0,0,0,0,0,0,0,0,0,0,0,0,0,0,0,0,0,0,0,0,0,0,0,0,0,0,0,0,0,0,0,0,0,0,0,0,0,0,0,0,0,0,0,0,0,0,0,0,0,0,0,0],"sum_hessian":[1.5036161E4,1.3981026E4,1.0551346E3,4.5371553E3,9.443871E3,2.3201538E2,8.2311926E2,1.3844905E2,4.3987065E3,3.4453206E3,5.998551E3,1.9837822E2,3.363716E1,4.489054E2,3.7421384E2,3.2774815E1,1.0567423E2,1.334723E2,4.265234E3,3.2891675E3,1.5615291E2,4.0624E3,1.9361508E3,8.654681E0,1.8972354E2,2.3778332E1,9.85883E0,3.8414926E2,6.475613E1,5.6116108E1,3.1809775E2,